335 300
lang 0.06454552 0.056031425 0.019999014 -0.07158971 0.030442184 -0.01385023 0.10469966 0.093435206 -0.036238704 -0.037926897 0.14738078 -0.07957306 -0.052832272 0.12501675 -0.04671037 0.00046168914 0.050179932 0.06478037 -0.07657667 -0.05799023 0.020816458 -0.03433761 0.045496687 -0.01905954 0.008263203 0.075131044 -0.0076687536 0.016861413 -0.044079438 -0.07647869 -0.09933814 -0.053206105 -0.0054919324 -0.062180698 0.07340069 0.16944109 0.09303452 -0.07160365 -0.0420121 -0.13731314 -0.075270444 -0.021647811 0.05322389 0.011775605 0.08347513 0.017055126 -0.08100372 0.0062141507 0.0574042 0.002293062 -0.123696715 0.02909677 -0.010906839 0.09140246 0.021995759 0.008060608 0.00080106617 -0.018983293 0.0485762 -0.0008076861 0.06454682 -0.034192372 -0.024039613 -0.02665988 0.03959162 0.04650746 0.03725115 0.065320194 -0.04314242 0.002749227 0.052786317 0.08695043 0.01576976 0.078145176 0.028592257 0.065055914 0.03676862 -0.0038645875 -0.003534381 -0.048500903 -0.05611573 0.060944103 0.02229992 -0.04247369 0.011299496 0.04365314 0.027474351 0.02515576 0.01616835 0.081056096 -0.06305067 0.01499209 0.037278004 -0.013578244 0.045797184 -0.004344873 0.04385791 0.003502471 -0.019409895 0.023613617 -0.055965945 0.016813584 -0.022063524 -0.08808699 0.06920597 -0.034167353 0.05267137 0.0051290845 -0.0101023065 -0.027726503 -0.0510483 -0.042932417 -0.09612132 -0.005443738 0.0051988666 0.03885696 -0.049681205 0.10305946 0.025922155 -0.018220386 -0.012219405 0.013821759 0.023489181 -0.0025474334 0.0037558486 -0.0048881043 0.066012844 0.0004222879 -0.028584106 -0.003555137 0.058607347 -0.022291001 0.025263684 -0.002159653 0.016493825 -0.013654395 0.025668692 0.057128724 0.019253049 -0.00900167 0.02945343 -0.012030191 -0.045692835 -0.020819116 -0.051689457 -0.026605604 -0.043445878 0.035953306 -0.020135561 -0.03485291 0.04860268 -0.031955153 0.05408395 0.014725949 -0.028451476 0.024280006 0.0365749 -0.012899859 -0.006709583 -0.0264586 -0.009873058 0.03874587 -0.03163391 0.013692613 -0.015611265 0.010313874 0.028663008 0.04845084 0.052263953 0.014857718 -0.011084527 0.03646572 0.05417613 0.0038310864 -0.019803176 -0.039138813 0.009224735 -0.0037693034 0.009517266 -0.053723216 -0.10141138 -0.027729701 -0.08279727 -0.031818096 -0.0029409735 -0.01773446 0.04838789 -0.049069908 0.019210793 -0.07158689 -0.0084895 0.020653239 -0.02267491 -0.021838468 0.039721996 -0.0033866132 -0.03414944 -0.0782306 0.0036302642 0.044838462 -0.06446105 0.07707841 0.08389428 -0.039911926 0.13429469 0.04491575 0.034846332 -0.0033374936 -0.013106778 -0.01777124 -0.048577268 -0.09705458 0.041151624 -0.055040926 0.08028606 -0.0037772143 -0.08377184 0.06869953 -0.03152822 -0.005646179 -0.0036115446 0.07705187 0.003748774 0.029760217 0.08781539 0.0028580267 0.0735181 -0.05436062 -0.061983265 -0.02386139 0.058841564 -0.09715225 -0.02700063 0.023193765 -0.08434267 0.06662361 0.03739408 0.10213468 0.054002192 0.021393944 -0.040405374 0.040318992 0.0028518157 -0.059447218 -0.047965333 -0.02276301 0.020907808 -0.029492503 0.017411655 -0.013569044 0.015181912 -0.0025435782 0.0502038 -0.123932496 0.0062988787 -0.00898049 -0.012931049 -0.056289308 -0.027321288 -0.07357123 0.0045908378 -0.0113138575 0.038327586 -0.058091998 -0.012070132 -0.031367667 0.00931001 -0.01180549 -0.004266262 0.0043375455 0.030156162 -0.04996475 -0.029310538 0.013185258 -0.038567618 0.079095885 -0.040986832 0.006065587 -0.008872027 0.024867468 0.048880033 -0.014673098 0.022927651 -0.032054767 -0.067748636 0.050736275 -0.031606134 -0.020504331 0.012381159 -0.019382887 0.025473513 -0.019979745 0.0055276547 -0.004183533 0.05916975 0.09267837 -0.059619423 -0.02279283 -0.049952887 -0.052006297
es 0.028535593 0.048485547 0.0072293887 -0.08276062 0.048788987 -0.0151201105 0.081136204 0.078600995 -0.015745034 -0.006672086 0.124291524 -0.10333033 -0.026340043 0.10717251 -0.05349046 0.00531505 0.043505177 0.05980177 -0.07028078 -0.037498437 0.016011508 -0.040943787 0.03319211 -0.034509216 0.016220737 0.05831485 -0.022732329 0.043032113 -0.021819752 -0.04846443 -0.070893034 -0.04570928 -0.028548557 -0.044167884 0.04694197 0.10692126 0.05911106 -0.053296 -0.025188906 -0.10903787 -0.052163105 -0.01950449 0.04602079 0.0056912093 0.06942485 -0.010109074 -0.041418392 -0.01613394 0.017692724 0.0065576364 -0.08643326 0.005341313 -0.0031305372 0.048154287 0.0049455203 0.034572326 -0.0069599715 0.02614112 0.04196372 -0.016717281 0.07607306 -0.03635006 -0.03753269 0.0017469709 0.058028467 0.02194743 0.04202383 0.075779825 -0.033914555 -0.00018541515 0.0708558 0.054342557 0.014620575 0.076675534 0.015538394 0.028643638 0.008932485 -0.022387551 -0.030675547 -0.039427564 -0.058072284 0.0512902 0.02580325 -0.014729696 0.019049503 0.039293457 0.04069925 0.027810043 0.011525978 0.031887073 -0.047289815 -0.029390583 0.007971945 -0.023065822 0.013650078 -0.018292086 0.052199706 -0.00015491046 -0.037822008 -4.7097055e-05 -0.063943736 0.013804002 -0.05799482 -0.08108509 0.061642475 0.00073014403 0.036250364 0.018465446 -0.0029684985 -0.012031664 -0.06647268 -0.038179006 -0.10341895 -0.012936587 -0.022888051 0.026079878 -0.039150517 0.07614269 0.0064058467 -0.008939976 -0.019392407 -0.0002766775 0.0019017744 0.0111116255 0.010367094 -0.033301767 0.049208548 -0.0030842603 -0.014193882 -0.03518958 0.049498674 -0.031301178 0.019797044 -0.0033258703 0.010850213 -0.016310578 -0.0021994307 0.016287899 0.01263356 -0.015014496 -0.00890479 -0.0074032806 -0.009149452 -0.037307113 -0.022517018 -0.007319535 -0.020879727 0.047439054 -0.04264297 -0.012614436 0.05257507 -0.01900171 0.040495243 0.016867843 -0.025411386 -0.001034285 0.04288055 -0.008646961 -0.022436798 -0.04109964 0.007861747 0.009940851 -0.010636208 -0.004675628 -0.010004666 -0.051047616 0.028324565 0.05275791 0.03756371 0.037690654 -0.0059438585 0.0046600876 0.03482632 0.006837287 8.817197e-05 -0.060677826 0.012918608 0.018247988 0.0024040346 -0.053375345 -0.09395496 -0.03311992 -0.06781239 -0.055903547 0.014862341 -0.02741506 0.059421938 -0.03224374 -0.03767258 -0.07912264 -0.013935455 0.013811931 -0.004351865 -0.0010476386 0.072568186 0.015729494 -0.052323587 -0.06439618 0.0037263967 0.068646684 -0.07789171 0.03878633 0.07160664 -0.0292327 0.08524283 0.04397211 0.037536055 0.014778767 -0.012749994 -0.04106756 -0.05027482 -0.1043639 0.012410786 -0.035002545 0.035913784 -0.0033580742 -0.06643976 0.036972728 -0.028398182 0.015211874 -0.009849799 0.056615286 -0.0050967718 0.056478698 0.08488118 0.017256081 0.12448992 -0.048632637 -0.053300664 -0.0019541462 0.06514379 -0.07990925 -0.027575525 0.03266853 -0.06738199 0.024185037 0.086377956 0.09037641 0.08941668 0.00855604 -0.026077114 0.02008225 -0.0069786417 -0.051489927 -0.038063124 0.0021741404 0.009126861 0.010885035 -0.013532237 -0.016621256 0.0038624224 -0.0035912099 0.03713515 -0.090855494 0.0073362016 -0.0018851248 0.009342129 -0.044187564 -0.0035884415 -0.06844719 0.04206096 0.02755358 0.021658214 -0.036344245 -0.0023999782 -0.04822517 -0.012969545 0.0020465858 0.023210987 -0.030666584 0.051939655 -0.0471102 -0.011031663 0.00010506704 -0.016981771 0.045409143 -0.058686133 0.0088706855 0.026671955 0.034440856 0.056752536 -0.030623283 0.051134218 -0.041275714 -0.050660357 0.04161163 -0.017304057 0.014893934 0.005634479 -0.039068464 0.0149439145 -0.0055884956 0.01856392 0.03465844 0.027457282 0.09352602 -0.030126581 -0.038693488 -0.050106876 -0.0513977
faces 0.0030804456 0.011067536 0.0032890781 -0.019493366 0.016936045 -0.009339683 0.025685992 0.023904864 -0.003917504 -0.006943778 0.02766313 -0.028053194 -0.009362818 0.026273685 -0.01085833 -0.005615063 0.008482684 0.017175136 -0.01455332 -0.010205746 -0.0009461958 -0.014005561 0.00909606 -0.005811922 0.005175977 0.015350314 0.007686054 -0.0030698068 -0.019481977 -0.014109432 -0.0171447 -0.013924497 -0.0076219104 -0.013801159 0.019959198 0.030422773 0.021232408 -0.005665091 -0.0012336737 -0.03117409 -0.018308446 -0.008793484 0.012704651 0.0070067183 0.012615263 -0.0100618 0.003680116 -0.009542351 0.008967528 0.0015758048 -0.029525943 0.0052768067 0.0076577957 0.025778422 -0.0007567875 0.020521646 0.0047820196 0.009868171 0.0044435016 -0.0077875084 0.025487028 -0.0247171 -0.015887808 0.003096689 0.027558783 -0.001163899 0.007508251 0.016979607 -0.0016904954 -0.0025064251 0.020003224 0.018645339 0.010435493 0.026833579 0.00030396174 0.015351609 0.001516877 -0.0075555975 -0.0010925013 -0.00851812 -0.011594652 0.0061782976 0.011579614 -0.011346922 0.0030752681 0.014685089 0.015951166 0.012681679 0.0129053695 0.01105819 -0.01839008 -0.0019353225 0.0037825427 -0.007241727 0.0019299296 -0.003964146 0.0151782185 -0.00083614234 -0.012837408 -0.0029169288 -0.02614605 0.0062459973 -0.0023903947 -0.027942562 0.022647837 -0.005677453 0.005217922 0.00609584 0.009028919 -0.008656793 -0.02100031 -0.016843965 -0.023043748 -0.0014018237 -0.010226002 0.013760598 -0.011103438 0.019379072 0.0034383573 -0.0053057973 -0.0010278516 0.0044665793 0.0045250175 -0.0058326586 0.007157655 -0.0016945272 0.014388521 -0.0019712893 -0.0034750027 -0.003299932 0.019669728 -0.004075179 0.003414891 0.0010997016 -0.007909403 0.0033758918 -0.003570891 0.0048130853 -0.0010590632 -0.001565519 -0.0027228438 -0.0055432157 0.0075536086 -0.0257383 -0.008367687 0.0005905274 -0.01580015 0.014740066 -0.0132634705 0.0035794699 0.01563397 -0.009633914 0.012945281 0.009582701 -0.016693775 0.006127729 0.008819397 0.0070190993 -0.011622069 -0.0038238731 0.0140494965 0.012011926 -0.005328317 -0.0065810145 -0.004066423 -0.0140150385 0.010164609 0.009826006 0.015526318 0.014318263 -0.004412569 0.010462754 0.013630057 0.001889877 0.0046440996 -0.0128816115 0.004285679 -0.00094916904 0.0019870375 -0.0031676407 -0.01980554 -0.008851964 -0.033933714 -0.018727109 0.0066625657 -0.006983351 0.016236352 -0.0093307 -0.017288499 -0.03659726 -0.003825511 0.011491809 -0.00837295 -0.007986832 0.019917896 -0.0021664607 -0.027999109 -0.02513673 0.0017419668 0.02436816 -0.021788092 0.014941717 0.0144522935 -0.015009506 0.030886449 0.011841429 0.010292863 0.0041446355 0.0067880703 -0.003427759 -0.007514525 -0.03208621 0.010082856 -0.00012791506 0.016686203 0.0051046438 -0.020928646 0.027329782 -0.008429132 -0.0038995144 -0.0001998475 0.016609477 -0.0034678406 0.01618985 0.03854703 0.0064196056 0.044645935 -0.011783235 -0.012237954 0.00469203 0.0073169414 -0.019953968 -0.0019134159 0.006735489 -0.0110224215 -0.006226472 0.01814409 0.020840114 0.02784168 0.0021897673 -0.009024221 0.010574397 0.002446365 -0.024120048 -0.008175002 -0.0042973007 0.0046923407 -0.0029371397 -0.004395324 -0.004438743 -4.923046e-05 0.0033744816 0.007808483 -0.024388656 0.004213207 0.00079694495 0.0063989228 -0.003143997 -0.007396464 -0.013754144 0.018163852 0.0067928475 0.0039110775 -0.005586475 -0.0013451101 -0.0192995 -0.0068384013 -0.0001915866 0.013023577 -0.002829761 0.013153806 -0.019049186 -0.0075446684 -9.373526e-05 -0.008301606 0.0083621135 -0.014110831 0.0029216025 0.0068655987 0.011771792 0.019267881 -0.00081615406 0.013348726 -0.012150705 0.0016207376 0.0093864305 -0.00047480507 0.013309027 0.010406275 -0.014534279 0.0032435635 -0.007911291 0.0018011575 0.008603171 -0.007720153 0.02714945 -0.0107961185 -0.009691394 -0.012712646 -0.004419488
login 0.1192914 0.15500848 0.03919742 -0.17701167 0.080136046 -0.10221395 0.19956209 0.26696572 -0.13882893 -0.15245563 0.32215092 -0.20592462 -0.06773041 0.36385414 -0.08828814 0.022613864 0.14542708 0.20494078 -0.16981655 -0.18502589 0.039316 -0.07605764 0.07718498 -0.04064891 -0.031386975 0.2410651 -0.04098218 0.04815392 -0.10857545 -0.1821481 -0.18831468 -0.11184776 -0.0045709526 -0.144549 0.13686152 0.43115544 0.20503657 -0.17017117 -0.066773064 -0.3339715 -0.15047118 -0.044565525 0.11598697 -0.012365412 0.2523511 0.08767622 -0.16753678 -0.029202314 0.1538606 -0.010842437 -0.22174028 0.025097974 -0.07934303 0.20176055 0.061055303 0.014745269 -0.049867287 -0.03929149 0.113751635 0.002293806 0.13928586 -0.038123753 0.014398955 -0.044100143 0.08039114 0.14496459 0.106858164 0.11766455 -0.095285796 0.01106326 0.14963286 0.2263896 0.06458194 0.19995657 0.08411412 0.15056854 0.074863486 -0.015988413 -0.010551713 -0.119287886 -0.13099246 0.12985915 0.0022407346 -0.052599482 0.006163651 0.061386507 0.08875056 0.08956167 0.019429365 0.1953207 -0.155833 0.067238405 0.09915378 0.0001943922 0.20804097 -0.029981269 0.117151774 -0.014165892 -0.02973715 0.04735053 -0.13477328 0.07258227 -0.0370327 -0.16300026 0.1424249 -0.04525324 0.15307678 0.0067856223 -0.046369273 -0.015336337 -0.12389978 -0.09993539 -0.18299663 -0.02769777 0.02841912 0.09179638 -0.12953976 0.22395974 0.049158853 -0.055656537 -0.049470313 0.07239723 0.09951005 -0.007767103 -0.034828395 -0.002306247 0.15508972 -0.011570498 -0.07598958 0.03927084 0.13122793 -0.0935215 0.053200126 -0.03642215 0.033771414 -0.0033653383 0.022664675 0.110098876 0.070422426 -0.02356543 0.0944128 -0.05209481 -0.09145638 -0.044622988 -0.11099167 -0.0653625 -0.074296 0.06923173 -0.04660277 -0.1093351 0.09774488 -0.057489987 0.12965664 0.03243588 -0.08409117 0.06355446 0.07286793 -0.018674172 -0.047188487 -0.04506509 -0.0066615106 0.10317175 -0.07878505 0.05139643 0.001481677 0.017867344 0.06625872 0.08509579 0.04977738 0.017112233 -0.032639865 0.045714166 0.12071386 -0.049961656 -0.02009897 -0.074428394 -0.0031793453 0.018896652 0.05290326 -0.13201283 -0.22420004 -0.10768722 -0.22747798 -0.0774005 -0.008778688 -0.085505374 0.0954159 -0.09718504 0.024882257 -0.14368293 -0.0691645 0.050663836 -0.05025812 -0.07400707 0.07454607 -0.015541461 -0.104925156 -0.16099215 0.058036115 0.110965036 -0.146196 0.21013416 0.15534256 -0.0877264 0.31014806 0.13230336 0.0806357 -0.0054070633 -0.0724432 0.024434747 -0.13987646 -0.23978658 0.11308747 -0.0863504 0.19684908 -0.018731046 -0.20328057 0.22833198 -0.051186673 0.032993954 0.04180396 0.10365944 0.017693786 0.052993465 0.16200554 0.010822016 0.19840358 -0.141131 -0.1542723 -0.04471696 0.18890846 -0.21787244 -0.05001912 0.10539412 -0.20020972 0.15035385 0.13218616 0.2217304 0.09849112 0.05219657 -0.1226365 0.10930427 -0.04245762 -0.13463058 -0.16270593 -0.07278857 0.06844732 -0.057290733 0.019199323 -0.054408293 0.049553085 -0.03473327 0.16124213 -0.27073067 0.037957896 -0.0015795473 -0.06935923 -0.17637876 -0.01690196 -0.21546489 -0.0051453006 -0.03166313 0.08335764 -0.1840461 -0.041026298 -0.04236616 0.02121007 -0.016096763 -0.08293809 -0.0021247019 0.032154687 -0.10969434 -0.11836675 -0.008596191 -0.08184681 0.20079318 -0.14120413 0.05242458 -0.028340409 0.07093636 0.14804037 -0.059497286 -0.008664331 -0.06306305 -0.2008961 0.11674731 -0.09452184 -0.04927596 0.016033752 -0.0050825644 0.059609115 -0.008670456 0.00041911978 -0.027269991 0.2305964 0.17275804 -0.16225827 -0.13491851 -0.06803691 -0.15728216
open 0.0299812 0.04881908 -0.009685404 -0.11281822 0.07931225 -0.051093258 0.06803977 0.115418285 -0.014620727 -0.03568554 0.12943044 -0.1393712 -0.019485278 0.11435735 -0.06348049 0.023118876 0.05578919 0.06965295 -0.046038553 -0.069775775 0.015560472 -0.042516198 0.0033000081 -0.054348778 0.015692512 0.068025365 -0.014678428 0.053871237 -0.022147778 -0.03645433 -0.04553335 -0.028242007 -0.051967964 -0.05602921 0.061346143 0.08775446 0.04844852 -0.051645458 0.006447203 -0.11812271 -0.036339074 -0.045019038 0.046056308 5.3991913e-05 0.08576573 -0.043570288 -0.035400566 -0.038136467 0.027813138 -0.024259433 -0.11858206 -0.041838266 -0.003653352 0.073718436 -0.0056923893 0.048881814 -0.015497777 0.01777273 0.04934942 0.0017766838 0.10917381 -0.05201073 -0.04634719 0.006024582 0.037178934 0.054516185 0.047186118 0.09121302 -0.011044535 -0.010575819 0.07487192 0.056818403 0.022424694 0.07247574 0.013309189 0.034693822 -0.0026063588 -0.013183249 -0.02508742 -0.035585012 -0.045937024 0.034391474 0.016377902 0.01226545 0.02880787 0.04019596 0.053191114 0.033864632 0.006363526 0.02655554 -0.061707024 -0.03735764 0.0046977596 -0.035682723 0.053029224 -0.008498461 0.06154509 -0.011166564 -0.03258041 -0.007931758 -0.06690021 0.030605441 -0.057094965 -0.074915655 0.054867394 0.03434114 0.029608019 0.013244236 -0.0068995967 0.0118775675 -0.060651895 -0.039693817 -0.081297934 -0.025181375 -0.032105297 0.017798062 -0.021670753 0.078759365 -0.012305563 -0.040758573 -0.030524105 0.023257466 0.03872346 0.016708203 0.02255903 -0.029498363 0.047858022 0.004468214 -0.00936256 0.005393543 0.047512922 -0.046613246 0.02352999 -0.02339212 -0.029730717 0.016403826 -0.01601602 0.003550361 0.018943867 -0.011000125 -0.012276316 -0.039290052 0.019305458 -0.052803773 0.001164107 0.0046058157 -0.040492237 0.065000854 -0.03756969 -0.006195575 0.05789688 -0.029853722 0.04566525 0.014786822 -0.05693514 0.016623586 0.04126283 0.029251542 -0.046952233 -0.023338754 0.056232907 0.03641971 -0.013243537 0.003696328 0.028777655 -0.07583366 0.019364282 0.057596482 0.023700772 0.044133563 -0.014173376 -0.0013450508 0.04858184 -0.020238534 0.017502705 -0.072089024 -0.0021377422 0.022315724 0.008140738 -0.03931936 -0.05813738 -0.07254197 -0.07683855 -0.04811229 0.0035752188 -0.027724827 0.02863274 -0.060399827 -0.07076777 -0.070942804 -0.009689709 0.030495558 0.03010861 -0.0048994906 0.08854569 -0.0030346778 -0.038177937 -0.043079812 -0.013634422 0.05721268 -0.072973214 0.038075767 0.050156265 -0.018062225 0.10044208 0.0627615 0.06061971 0.03131955 -0.040261175 -0.01604631 -0.032886118 -0.11713963 0.01963486 -0.003780931 0.057935365 -0.0051400247 -0.07789876 0.06698265 -0.0319 0.010470032 -0.009763535 0.022619536 -0.018730389 0.051658694 0.08596086 0.008350946 0.15950462 -0.040147398 -0.05358429 -0.0020472156 0.07319212 -0.07889683 -0.016142255 0.043059982 -0.062878646 -0.012498163 0.1061906 0.10494739 0.08780774 0.0021972288 -0.043693822 0.019925535 0.009333801 -0.04730908 -0.04174667 -0.00705081 0.031061519 0.012444112 -0.038898073 -0.008307149 -0.0016484527 -0.011985143 0.022817591 -0.09101287 0.022124782 -0.003859417 -0.01704908 -0.022635767 -0.016737217 -0.068476684 0.03641408 0.049285438 0.02847358 -0.011158601 -0.038260322 -0.044897012 -0.023030065 0.042351928 0.01703895 -0.021085843 0.06830482 -0.03590393 -0.01652137 -0.028835451 -0.012154317 0.037167236 -0.07224557 0.035431188 0.058034793 0.012500644 0.079174586 -0.068673216 0.031426154 -0.025331281 -0.02172108 0.07076154 0.00017662483 0.026759507 0.04081583 -0.036088843 -0.008471009 -0.021540318 0.029944487 0.041545596 0.0108443815 0.0807093 -0.030793186 -0.065427326 -0.015650416 -0.051775683
class 0.14447728 0.17441587 0.15066323 -0.30127683 0.22453469 -0.36233494 0.4134353 0.67571676 -0.24989203 -0.46872354 0.58560294 -0.33646855 -0.15023534 0.73925287 -0.13162944 0.02850315 0.2542019 0.2723404 -0.3018178 -0.4235292 0.14680459 -0.16926236 0.1827304 -0.01588537 0.07601197 0.33978766 -0.24195747 0.28125978 -0.14767016 -0.29735094 -0.32565215 -0.17735562 -0.054727256 -0.21776809 0.23637834 0.77804744 0.38881236 -0.3543688 -0.06609182 -0.5890539 -0.2476308 -0.08366193 0.17546311 -0.049624678 0.42237917 0.045158114 -0.23765357 -0.14016141 0.23756886 0.0013635152 -0.40034997 0.044077218 -0.17111176 0.35914066 0.13943824 0.049997978 -0.035211384 0.02503958 0.2424257 0.028542105 0.26910663 -0.06587419 0.071844704 -0.103489466 0.0961596 0.27027172 0.23956901 0.22968014 -0.11640875 0.01666267 0.3301208 0.35386443 0.102319285 0.3591288 0.14896171 0.15590578 0.08856682 -0.018816905 -0.020156343 -0.21312408 -0.23100197 0.23296745 0.0036902935 0.011051722 0.038929597 0.13002284 0.19419566 0.1971388 0.071740024 0.27645534 -0.30584216 0.049497824 0.21717355 -0.08286563 0.3720197 -0.063450865 0.2098519 -0.081692465 -0.008340645 0.12258138 -0.2307054 0.24051094 -0.11646871 -0.24503712 0.20899045 0.055624403 0.26018253 -0.0074185096 -0.16042082 0.03341022 -0.2670447 -0.18298623 -0.30744278 -0.04964201 0.01498128 0.08167565 -0.19639361 0.39260834 0.018110614 -0.13375902 -0.057275023 0.11587846 0.22582527 0.091787785 -0.081566244 -0.03556401 0.2983564 -0.011712837 -0.11396033 0.03937728 0.2678004 -0.2674856 0.11460901 -0.073133826 0.102203034 -0.06103371 0.045507096 0.18990213 0.18495423 -0.0599532 0.12129771 -0.14700723 -0.14258511 -0.12175844 -0.23239549 -0.072135605 -0.21640894 0.12694545 -0.057111263 -0.19455655 0.17247331 -0.09321221 0.17869107 -0.024757931 -0.11046876 0.15378442 0.13237575 0.0037025642 -0.072833665 -0.12118299 -0.036077272 0.12814967 -0.15599753 0.047141355 -0.0029284593 -0.036718868 0.14747316 0.18285672 0.09801745 0.09939903 -0.11476778 0.02363759 0.17184232 -0.07459081 0.0054951557 -0.13399464 0.03960242 0.064780064 0.10075363 -0.2663204 -0.39637682 -0.2285812 -0.3291896 -0.11976358 -0.099936485 -0.21819672 0.12990083 -0.18750209 -0.015739989 -0.3489456 -0.15740795 0.07185219 -0.044581287 -0.10597541 0.13258952 -0.1338393 -0.0881075 -0.23995963 0.11396456 0.2554569 -0.22805285 0.3991734 0.25214472 -0.15647697 0.5454719 0.15921059 0.18011545 0.13521342 -0.113173045 -0.040062096 -0.2205549 -0.47947827 0.1524953 -0.14113651 0.42345262 -0.028578158 -0.39142147 0.360377 -0.17002411 0.028809914 -0.02436296 0.19718212 0.002074767 0.10383912 0.23944214 -0.032350123 0.38086736 -0.32165477 -0.26655212 -0.07215417 0.3812145 -0.47267252 -0.08244687 0.1659251 -0.35734868 0.21643108 0.35281283 0.44549662 0.26554373 0.1062621 -0.12965994 0.11031635 -0.0679362 -0.1491964 -0.2555392 -0.07174212 0.051560964 -0.024432877 -0.048528183 0.017354084 0.09400952 -0.06909842 0.29089287 -0.36536676 0.0190885 0.038013037 0.0068958206 -0.3469667 -0.09009516 -0.38611406 0.07655822 0.034837417 0.10102799 -0.33491495 -0.026721282 -0.04963691 0.12473342 -0.031707145 -0.1361442 -0.0018676383 0.09038858 -0.22940172 -0.1347926 -0.009307236 -0.14649715 0.34661198 -0.2227385 0.117854364 -0.042491965 0.14486982 0.23058827 -0.036859367 0.049850464 -0.19135469 -0.29518786 0.229986 -0.2249594 0.01937885 0.09795527 -0.05324568 0.14606829 0.016614936 0.040429886 0.061357066 0.489279 0.31448105 -0.24680229 -0.26523328 -0.14746371 -0.34582028
plx -0.073286414 0.14099644 0.022343412 -0.16002142 0.12369896 -0.06802044 0.21582755 0.14779367 0.058353733 0.011738903 0.17393948 -0.1588595 -0.07671183 0.1802289 -0.041310694 -0.024147248 0.006409894 -0.002283826 -0.12284207 -0.05443202 0.023944857 -0.13057569 0.046881557 0.048226744 0.0552982 0.025984144 -0.10013966 0.1207978 -0.01062304 -0.06289815 -0.10278828 -0.1125906 -0.03867025 -0.007933742 0.05372723 0.24716619 0.18314366 -0.15073806 -0.034980476 -0.16557632 -0.101015426 -0.021852555 0.102816865 -0.0033463144 0.09953879 -0.0629589 -0.0066186534 -0.09745136 0.06878839 0.034677155 -0.10467588 0.043000273 0.014159055 0.06924075 0.018957378 0.12595172 0.055509288 0.114654176 0.11420249 -0.03454822 0.1369174 -0.09284579 -0.05967034 0.013335362 0.12381009 0.012391428 0.08087474 0.12642553 -0.048896834 -0.007078163 0.19362746 0.0638654 0.072151124 0.18165985 0.07060571 0.0122774495 -0.01164386 -0.06388412 -0.057970837 -0.061404347 -0.12986033 -0.0023960518 0.052504953 -0.035507396 0.022580007 0.049863186 0.088526815 0.11061371 0.090900175 0.0032951266 -0.09450022 -0.05138089 0.070986316 -0.062046118 0.022940487 -0.02657602 0.09118737 0.025081934 -0.08956373 0.02067052 -0.13759592 0.044992555 -0.029873675 -0.14728849 0.091467105 0.030124715 0.04640033 0.016569683 0.013392951 -0.0033846982 -0.18921302 -0.07713762 -0.1619634 0.041475635 -0.10575393 0.05372918 -0.08682018 0.14903073 0.024548149 -0.051460154 -0.041319635 0.06357271 0.031467844 0.02625786 0.010279834 0.008259727 0.11549111 0.00984606 -0.08889321 -0.058851272 0.15345702 -0.07966619 0.035748042 -0.035166144 -0.08375342 -0.010283284 -0.048629604 -0.023875827 -0.04160315 -0.009116772 -0.025541348 -0.037707657 -0.0024761234 -0.12885094 -0.013254607 -0.004312195 -0.053669132 0.00029033227 -0.0029388252 0.051933397 0.044707153 -0.024254706 0.05502099 -0.013772288 -0.053017847 0.065159775 0.008553936 0.01629011 -0.059317768 -0.1230352 0.057734936 -0.018072179 -0.017179672 -0.020035576 -0.052137695 -0.11922965 0.033646934 0.098919965 0.02152069 0.14836694 -0.038915373 0.045576394 0.05085618 -0.041142385 0.057815477 -0.11134973 0.0037418036 0.07124992 0.013602744 -0.034805235 -0.14288154 -0.047833133 -0.16131164 -0.09406794 0.0063912664 -0.12966722 0.14502501 -0.041654684 -0.14033842 -0.28832406 -0.06317985 0.003663327 -0.026794322 0.010051503 0.08830419 -0.032120783 -0.12669113 -0.10786145 -0.048408475 0.24587248 -0.16403328 0.081397966 0.07956848 -0.04192169 0.13738981 0.051783413 0.052777667 0.07722009 0.03595592 -0.090901814 -0.07554088 -0.25321463 0.049375862 0.014959457 0.06571929 -0.035487358 -0.122589566 0.10509984 -0.07044787 -0.014715815 0.028939886 0.08703206 -0.044816207 0.05442684 0.17961961 0.01669872 0.28566542 -0.17942838 -0.06834375 0.038443774 0.104077265 -0.1067932 -0.050235346 0.052540787 0.009606599 0.0046853423 0.14905088 0.16924423 0.24841361 0.006314079 0.085747406 0.00016155816 0.009472724 -0.07559196 -0.032988157 -0.012617305 -0.054770533 0.056180216 -0.05716465 -4.515877e-05 -0.016029488 0.08906811 0.049213268 -0.087669425 0.015985409 0.037010487 0.10703166 -0.06813085 -0.048655804 -0.049664408 0.12797211 0.09595912 0.0068387007 -0.05015325 0.03172036 -0.15074855 0.018998409 0.026608206 0.11229052 -0.003677931 0.120996304 -0.19859336 -0.00827873 0.04172421 -0.03235947 0.07609812 -0.046334088 0.041550208 -0.025763674 0.13096836 0.06742914 -0.0019709584 0.122272335 -0.14953877 -0.04483616 0.04567725 -0.036571156 0.10807932 0.06060432 -0.073451415 0.06555036 0.007459031 0.066594705 0.13244206 0.07013704 0.21908441 -0.023649788 -0.060109872 -0.082502656 -0.08120966
htm -0.01717532 0.11505238 0.06632422 -0.17786652 0.16307478 -0.1046608 0.24010251 0.3314338 -0.06627739 -0.15410893 0.33076632 -0.2891521 -0.08045403 0.3621966 -0.014300199 -0.07616317 0.11619292 0.04320303 -0.10666336 -0.18082926 0.15926641 -0.15843894 0.07303125 -0.03321219 0.10808885 0.074148156 -0.22870608 0.16347893 -0.08617412 -0.13459143 -0.15075842 -0.16816741 -0.030197851 -0.0927625 0.042740524 0.4253567 0.22192247 -0.19164653 -0.009014237 -0.3402231 -0.17175847 -0.044468787 0.07994832 0.029977942 0.1646346 0.021358682 -0.022174666 -0.16097833 0.17488691 -0.0017173816 -0.19374742 -0.07785489 -0.053330477 0.24026488 0.022485297 0.15001653 0.014062583 0.054511182 0.1301014 -0.03141093 0.19638282 -0.03009993 -0.029204408 0.018650074 0.0658844 0.11483019 0.12901549 0.2018038 -0.07693457 -0.006311757 0.29434824 0.2071352 0.13760856 0.15576471 0.069343 0.031030755 -0.004637286 -0.037310254 -0.10101258 -0.091764964 -0.15691176 -0.010067682 0.011497161 0.09466961 0.051277623 0.06109837 0.14262412 0.15869708 0.08688666 0.09583652 -0.11247241 -0.054492723 0.069167815 -0.03821357 0.16100334 0.0044324235 0.14238366 -0.016342135 -0.09331648 0.08318988 -0.15644096 0.10435811 -0.0006436865 -0.1052959 0.15109785 0.09425391 0.16693504 -0.033771712 -0.099947475 0.005152444 -0.24858706 -0.17268813 -0.12433006 0.010674908 -0.079836406 0.07248406 -0.08161433 0.13397263 -0.02625973 -0.08017339 -0.020720625 0.12759103 0.090532154 -0.029404934 -0.067496315 0.068152644 0.18235001 0.021663316 -0.055850234 0.08815992 0.2644651 -0.19910403 0.060633637 -0.106524505 -0.04276215 0.093477935 -0.0750133 0.045767162 0.010806917 -0.062675476 0.003020529 -0.12822357 -0.01033121 -0.102659285 -0.10272905 0.04385401 -0.15108116 0.02714932 -0.017880488 -0.008505354 0.057034604 -0.17689198 0.034697272 -0.019104341 -0.08630344 0.2017529 0.041496597 0.097560175 -0.104006454 -0.012589941 0.004920586 0.003086233 -0.15130289 0.017593268 -0.0042171245 -0.08055531 -0.026369689 0.08953086 0.0670634 0.18410176 -0.120545894 0.024738297 0.15312277 -0.038530912 0.06779361 -0.20766878 0.05284768 0.019541567 0.099064276 -0.12039058 -0.26149535 -0.09063884 -0.23214161 -0.19851296 -0.0579507 -0.22643861 0.11091952 -0.09115729 -0.11458638 -0.43037185 -0.08499621 0.031320203 -0.06558129 0.032269645 0.06908936 -0.10662461 -0.12213888 -0.19663927 0.048485965 0.26529327 -0.18292935 0.23890755 0.14528467 -0.08607833 0.32029548 0.06366748 0.07529289 0.20360437 -0.033787247 -0.120089844 -0.1550511 -0.47736347 0.14103054 0.04183244 0.2576489 -0.07256026 -0.2374745 0.19402634 -0.17494953 -0.051321305 -0.033117115 0.09496462 -0.11390997 -0.031019842 0.16759442 0.0020035661 0.31299815 -0.2161516 -0.15830852 -0.0012619833 0.14268008 -0.28655714 -0.10469218 0.13263512 -0.13696274 0.0632683 0.31160176 0.29985166 0.30589098 -0.016270345 -0.0021551866 0.047966324 -0.022605622 -0.088020965 -0.10348939 -0.09232322 -0.03741945 0.09831743 -0.16103064 0.07507121 0.047734965 -0.049959145 0.17459598 -0.14275667 -0.084930606 0.020627927 0.1994006 -0.20639515 -0.1342828 -0.23725432 0.17581508 0.17145199 0.11534085 -0.18592973 -0.08490596 -0.07350443 0.099229135 0.080350704 -0.08225846 0.024712902 0.16480963 -0.14963304 -0.035829913 -0.01588292 0.009269976 0.24332595 -0.083040416 0.20377979 -0.09749808 0.103019185 0.15001039 -0.025102688 0.047367554 -0.18965334 -0.103981026 0.17965522 -0.17804727 0.07959755 0.14428495 -0.053921353 0.074993744 0.10699074 0.06640649 0.18185432 0.29785183 0.30682746 -0.121752106 -0.17408714 -0.0366109 -0.22999361
csp 0.0038157082 0.02513371 -0.009619582 -0.04872989 0.028589861 0.025936592 0.06354816 0.027474303 -0.001054913 0.021333233 0.08981415 -0.081646115 -0.038682595 0.070043854 -0.0424157 0.0006245888 0.026085727 0.032386355 -0.038401153 -0.005547999 0.010712695 -0.024653785 0.017503254 -0.020178502 0.007867284 0.036085077 0.013135498 0.0025663376 -0.016172638 -0.028867992 -0.047401477 -0.03754653 -0.023350004 -0.04111476 0.0407878 0.061567053 0.056054737 -0.028645223 -0.028270172 -0.07123973 -0.038071286 -0.0331783 0.04614044 0.02003035 0.037793558 -0.009384168 -0.037487958 -0.014112885 0.028703978 -0.006214919 -0.07480437 0.0094478605 0.024922818 0.038365707 -0.006985817 0.03466372 0.012890052 0.0067747743 0.029369049 -0.0110394955 0.05882111 -0.035374213 -0.055183273 0.004993367 0.056438655 0.005555184 0.027401578 0.06369666 -0.024677608 -0.0050420007 0.04401605 0.028492475 0.012071112 0.061310794 0.009580161 0.029019685 0.0032798597 -0.0017661208 -0.018457487 -0.031374 -0.04947216 0.02439211 0.042047642 -0.029716184 0.02312682 0.036285855 0.023608046 0.03770119 0.01686287 0.01569918 -0.03321358 -0.013261909 -0.0074305777 -0.031852946 -0.00999623 -0.005012945 0.028346844 0.009581566 -0.049628656 -0.0010552607 -0.051549476 -0.0039721043 -0.032855485 -0.06308193 0.05888273 0.00532367 0.02171967 0.015898604 0.008281566 -0.014427053 -0.041049432 -0.016723474 -0.06415399 -0.0022739584 -0.03479383 0.015492825 -0.031929463 0.06334066 0.023114936 -0.0058492874 -0.0030961286 0.010674016 -0.01083008 0.016091231 0.027567156 -0.035971474 0.043862443 0.024086108 -0.020347316 -0.023906734 0.038506735 -0.007860953 0.017196244 0.007828725 -0.01470966 0.005872242 -0.010189065 0.008369175 0.007548579 0.0020281055 -0.004787468 -0.005407663 0.001789426 -0.052440226 -0.015591733 -0.007718713 -0.016939908 0.032082245 -0.03218391 0.013914768 0.040407382 -0.017231846 0.02275229 0.013971768 -0.024697032 0.0004292631 0.02452008 0.009322158 -0.010723531 -0.027992938 0.025432296 0.001709541 -0.0011621588 -0.014210657 -0.014808813 -0.04013677 0.018038899 0.03012629 0.04050153 0.027634524 -0.0020571598 0.026665522 0.028314764 0.005273855 0.00041413069 -0.055672463 0.0012399423 0.0053921985 -0.0051993164 -0.031065 -0.05706757 -0.017694894 -0.047292333 -0.033231974 0.016122526 -0.014443502 0.03525136 -0.045133572 -0.034885503 -0.06587675 -0.0023008708 0.0063247536 -0.004065201 0.005625859 0.05863767 0.015038503 -0.039107792 -0.06518784 -0.007908985 0.04869645 -0.06569675 0.014335321 0.051895387 -0.025558202 0.062495623 0.035022505 0.012603092 0.008754155 -0.0011422331 -0.033662595 -0.030189231 -0.0809706 0.019197881 -0.009218662 0.020836893 0.0016448763 -0.05095067 0.028673569 -0.015771555 0.007260373 -0.015111269 0.04337276 -0.01268122 0.032009095 0.07005784 0.017853148 0.07327735 -0.030779397 -0.031225797 -0.0047488445 0.018806804 -0.03170065 -0.0287219 0.018411325 -0.029331626 0.011608871 0.053153187 0.05433069 0.066656135 0.014397202 -0.018327625 0.023320531 0.0065835607 -0.032429244 -0.011417336 -0.0019768327 -0.002329145 0.010529646 -0.00914419 -0.013342826 -0.0024447169 0.017150946 -0.0006840724 -0.05866543 -0.0029504104 -0.008137329 0.020940494 -0.02396697 -0.007038352 -0.029643098 0.037885237 0.034177832 0.0010486395 0.0036844255 0.0033640354 -0.04590508 -0.021057393 -0.005888925 0.043722905 -0.019256232 0.036129374 -0.0352913 -0.0193387 0.007518421 -0.008755231 0.014310806 -0.028934222 -0.01226737 0.030675638 0.013905553 0.0397078 -0.0116221355 0.047924444 -0.020942979 -0.006386169 0.028369784 0.0024178838 0.024209633 0.0096397735 -0.038847886 0.004979596 -0.00498987 0.017243464 0.021350142 -0.00068728963 0.08590734 -0.020101408 -0.03861042 -0.023697965 -0.028044712
body -1.4160521 0.024710169 -1.0782593 -0.4972655 0.096769884 0.5807072 0.4164814 -0.68796206 1.7120974 1.1263269 0.09843751 0.26589793 0.14561187 -1.0530328 -0.58091193 0.46964306 -0.26738444 -0.46351174 -0.14369111 0.32751253 -0.35493994 0.102881834 -0.8953578 0.47811452 -0.16940625 0.1397423 0.60411215 -0.66762096 -0.104596056 -0.039703835 -0.07895278 -0.093216784 -0.21905571 0.3033661 0.2364361 0.35898644 0.5051174 -0.7858686 0.15531482 0.1910544 -0.005857386 0.16265136 0.18579954 -0.26603568 0.55793756 0.23140873 0.16630326 0.6418399 0.9714171 0.2817515 0.6642115 0.25867957 0.5185496 0.33131158 -0.2899789 0.66664577 -0.17778014 0.36706796 0.4177435 0.09810813 0.62195134 -0.18155263 0.40768948 0.19253747 -0.44576222 0.24591209 -0.06514388 -0.30687103 -0.505281 -0.16035025 0.23031421 0.5781324 0.24167982 -0.18880506 0.1749695 0.35797754 -0.30219597 -0.15927692 -0.29071307 -0.2568159 -0.112779975 0.18799691 -0.5414316 -0.20880048 0.27270898 0.02740979 0.088972345 0.26482496 0.34771436 0.2772852 -0.34031835 0.3685963 0.5316493 0.6550501 0.71207607 -0.48948503 -0.10324179 -0.021889389 0.23703764 -0.5646481 0.02234665 -0.22222486 0.18765841 -1.0895499 0.36631948 -0.6831552 -0.35943195 -0.59902537 0.024535386 0.5355369 0.00410957 0.55106026 0.06527495 -0.3255045 -0.09466853 0.12142181 0.020973362 0.93729335 1.26346 -0.063776456 -0.5936356 -0.0929003 0.1865902 0.09732039 -0.009603739 -0.38618457 0.3719948 0.026015611 0.23217784 -0.13000609 0.5088776 0.3176416 0.8324507 0.488671 0.29662168 0.6514618 -0.022052597 0.16537516 0.1426166 -0.47855496 -0.16835122 -0.009944995 0.050697114 0.48794392 -0.5238583 -0.37259004 -0.22439753 0.01164405 -0.62835133 -0.7570885 0.047546625 0.32202438 0.2649976 -0.12731586 -0.37938213 -0.07195732 -0.061939295 0.0051515475 -0.6409669 -0.22602643 0.07984186 0.20378837 -0.3687805 0.5890622 -0.16133998 -0.48990524 0.038211104 -0.35000464 -0.37924865 -0.029786166 -0.21448793 0.28475916 -0.4463687 0.5087622 0.79465896 0.22340152 -0.61077726 0.17061386 0.008718554 0.70622784 0.22820394 0.11448355 -0.5381382 0.003734414 -0.5302112 -0.2050754 0.6262683 0.24327768 0.19597562 0.096118525 0.14438184 0.27781293 -0.074370444 -0.055927254 0.3145629 -0.35068837 -0.075196154 -0.083423935 -0.16161121 0.21216498 0.20293708 -0.090361185 0.26679948 0.46098056 0.7473774 -0.042890735 -0.18725152 0.46934706 0.061232362 -0.39831308 -0.3282595 -0.38686672 -0.7577399 -0.38993514 -0.3324596 -0.067399524 -0.49379626 -0.30101818 0.10138713 -0.50459546 0.29230046 -0.004247178 0.13447234 -0.40482578 0.15705775 0.08945838 1.0300742 0.22468407 -0.10098998 0.48398432 -0.07324796 -0.69841105 0.069900855 0.7575326 -0.3271834 0.116209455 0.096396364 -0.33801243 0.10085851 0.160132 0.04936586 -0.022729984 -0.46025798 -0.26291808 0.10842671 -0.122044645 0.64276695 -0.33212987 0.25376767 0.24943583 -0.14110611 -0.31208828 0.19875133 0.009365398 -0.080011256 -0.14906316 0.04143168 0.121024 -0.45597914 -0.4352709 -0.02730467 0.47927728 0.48593247 -0.36323068 -0.47379968 -0.21620059 -0.023627216 0.44782647 -0.15904228 -0.046749827 0.2714946 -0.048558924 -0.07993778 -0.042002052 -0.24476434 0.29254323 -0.43572104 0.8289604 -0.43735784 -0.5759107 0.5488621 -0.26205853 -0.109579645 0.035895396 -0.036624905 0.3740218 -0.3761592 -0.28220537 -0.108383685 -0.14278153 0.18959971 -0.44602713 -0.082243845 0.6829621 0.53023016 0.19922127 -0.027864095 -0.19682151 -0.56055707 -0.101323165
insert 0.15211001 0.050768293 0.0043010227 -0.12501791 0.067885876 0.018566687 0.13631488 0.11844156 -0.052668773 -0.04444658 0.20303777 -0.1917271 -0.08046065 0.24887721 -0.04850441 0.027027061 0.09535856 0.09249632 -0.0849581 -0.09080642 0.068592265 -0.07299238 0.031089043 -0.022724282 -0.004960087 0.11465041 0.039051555 -0.049108256 -0.09389277 -0.107610136 -0.13289481 -0.056059413 -0.043578066 -0.1744924 0.122876294 0.20409141 0.17213817 -0.008906532 -0.021833174 -0.20853595 -0.1604593 -0.066587426 0.08642785 0.08096391 0.09686498 -0.015079574 -0.12264939 0.07626817 0.16926296 -0.051798906 -0.2519387 0.018515108 0.04913251 0.18492936 0.006117752 0.10409787 -0.002207769 -0.033043694 0.069018684 -0.0035332562 0.1544834 -0.03559034 -0.07518084 0.006293615 0.092799276 0.083896525 0.02109896 0.19827121 -0.03669931 -0.015140245 0.098022126 0.1269216 0.02979953 0.105917506 0.05739681 0.1530788 0.0565181 0.029777536 0.008154055 -0.11896478 -0.04420648 0.05655863 0.05659956 -0.073202215 0.071721375 0.07784845 0.05002146 0.040463287 0.050643872 0.13257784 -0.029807357 0.031001119 0.05591118 -0.0041012685 0.04446169 0.05367515 0.07874858 0.0015298274 -0.026379349 -0.0019822912 -0.046524763 -0.0017170381 0.0065985057 -0.14871526 0.12113405 -0.050560173 0.07634805 -0.036732424 0.034314383 -0.06431668 -0.049733102 -0.041966412 -0.11739808 -0.04661221 -0.01924181 -0.02381504 -0.10144433 0.10002135 0.03227771 -0.020821359 0.018667249 0.017981488 0.04750368 -0.015437341 0.036059175 -0.013754802 0.12930991 -0.0050469046 -0.046257768 0.013795767 0.111001275 -0.0027763406 0.08227868 0.009074671 0.024626179 0.012041697 0.052557644 0.070293255 0.043615725 -0.028730681 0.018520214 0.012505746 0.0071319332 -0.007405403 -0.050222024 -0.0034837858 -0.087098606 0.05123868 -0.02395498 -0.06985723 0.103428215 -0.037242442 0.06790052 0.017520016 -0.00062368735 0.002591056 0.048778545 -0.008909968 0.023291428 -0.06093463 -0.029909108 0.04737905 -0.04806686 -0.026100967 -0.05518134 0.01846166 0.06417824 0.06106543 0.072051 0.03500272 -0.037289765 0.106189765 0.08829769 0.061586365 0.014927761 -0.0032338558 0.021399563 -0.047619563 -0.011319526 -0.021495402 -0.11144234 0.00084279664 -0.102817126 -0.057799123 0.009667909 -0.01944765 0.014230089 -0.10273196 0.040604964 -0.096959375 -7.166552e-05 0.06910267 -0.029813314 -0.0786631 0.08323724 -0.03885858 -0.02903776 -0.08306823 0.001063672 0.022583857 -0.042653706 0.07762088 0.10823871 -0.106307246 0.16614407 0.03827189 -0.0039980914 0.0140082035 0.067775704 -0.035373602 -0.05612755 -0.07825763 0.010571485 -0.07120827 0.10448647 0.014425051 -0.1498903 0.11836663 -0.019745965 -0.013005946 -0.051624592 0.13139018 -0.0032573997 0.06651118 0.17297101 -0.011274437 0.13381296 -0.020969529 -0.072256856 -0.013892123 0.034967814 -0.15815803 -0.01125031 -0.00039398257 -0.089407906 0.07113927 0.009519325 0.105628334 0.07530019 0.046570305 -0.06268359 0.05407196 -0.02592141 -0.10724525 -0.02983556 -0.05591911 0.063487865 -0.066235736 0.07416185 -0.023077387 0.026943106 -0.0152979335 0.06322555 -0.15435769 0.011983873 -0.0031860452 -0.022446096 -0.07524156 -0.09672115 -0.06580427 0.049904253 0.0025010272 0.030945782 -0.09363929 -0.0012883012 -0.036098532 -0.028205518 -0.03253737 0.003444985 -0.019723207 0.03707993 -0.056693815 -0.06813288 0.025354851 -0.07222415 0.1214901 -0.028169567 0.0018284974 -0.012992584 0.010293017 0.05280231 0.012665374 0.047779694 -0.050599653 -0.045962237 0.12237569 -0.047184616 0.019745527 0.026176503 -0.046067357 0.011996296 -0.05397164 -0.04897969 -0.02748981 0.004067217 0.08172683 -0.060805216 0.0023173026 -0.07717476 -0.07313537
tcl -0.001231376 0.05802649 0.0070689945 -0.08025982 0.06286889 -0.0017658812 0.096105374 0.051913228 0.016284423 0.002455095 0.10984474 -0.07436843 -0.043106254 0.067848176 -0.025209878 -0.017464764 0.02726012 0.029739363 -0.048059035 -0.012381814 0.023563197 -0.05679578 0.02476675 -0.011515752 0.021499516 0.040101036 -0.022924554 0.03692858 -0.020268897 -0.04473216 -0.06316327 -0.059069484 -0.02694378 -0.030661536 0.052106086 0.09495579 0.07147162 -0.055306382 -0.018986939 -0.08791691 -0.053990986 -0.023727512 0.059532043 0.016567875 0.040745642 -0.032297544 -0.012366111 -0.020482551 0.030633893 0.018336834 -0.07519481 0.024188349 0.015931126 0.057541903 -0.007895299 0.05462997 0.023864707 0.03300859 0.03952098 -0.017362358 0.075411834 -0.051316198 -0.03960998 0.0018240508 0.052171223 0.011236381 0.039621722 0.064842105 -0.030206667 -0.011003495 0.06928856 0.03793829 0.027498273 0.083561584 0.010964478 0.029181495 0.0051959776 -0.0075200275 -0.02149812 -0.02328604 -0.056251418 0.02936568 0.035854284 -0.030541329 0.025120974 0.040430497 0.033482376 0.04974811 0.03229901 0.013968282 -0.053260624 -0.02283788 0.010745886 -0.033690058 0.017480051 -0.01663702 0.03824097 0.0024102987 -0.053194858 -0.0044988706 -0.07352225 0.022060027 -0.030929897 -0.09016053 0.06393915 0.0008154294 0.012312944 0.0069542583 0.002274529 -0.012277759 -0.07123542 -0.02418621 -0.081060514 -0.0012689782 -0.029516393 0.015652422 -0.04165093 0.08493798 0.036621097 -0.016079368 -0.014650927 0.007875152 0.012660763 0.024801636 0.036544397 -0.029083967 0.053926494 0.028433552 -0.023147814 -0.02465349 0.058536846 -0.013446112 0.015875172 -0.0065735355 -0.017041376 -0.0015042643 -0.008517768 0.0145287 -0.006546651 -0.008983656 -0.020548195 -0.012218135 -0.0039531183 -0.06085245 -0.023655102 -0.016081877 -0.039552294 0.03386922 -0.031208962 0.013556423 0.054013465 -0.016473835 0.023006508 0.015176961 -0.03300103 0.015004507 0.0108185345 0.0046552466 -0.018481407 -0.037338793 0.025077363 0.0041395905 -0.011240329 -0.009302475 -0.023321439 -0.06783258 0.018794455 0.03979588 0.04510405 0.046677068 -0.017579684 0.03791676 0.032266557 -0.0029058338 0.017451683 -0.06337349 -0.002189339 0.011658154 -0.003177562 -0.019608187 -0.058476347 -0.016809171 -0.06334194 -0.045902435 0.012407459 -0.023899352 0.06372901 -0.030691449 -0.042880062 -0.12009634 -0.010722771 0.013231456 -0.013883092 0.0022037704 0.071110785 0.0025410391 -0.05191429 -0.06855935 -0.010780099 0.07128108 -0.080025494 0.030121457 0.062106814 -0.025517488 0.075839154 0.031415075 0.01726478 0.0264777 0.014455714 -0.057787273 -0.03246026 -0.10731542 0.012252601 -0.012625422 0.018143443 0.0067434376 -0.06129966 0.02650034 -0.026314419 -0.00040029164 -0.01277824 0.051923692 -0.0067616976 0.02671891 0.08572685 0.012673432 0.09838469 -0.05232188 -0.032564078 0.0027189697 0.02621561 -0.039848458 -0.026077267 0.015321204 -0.02694253 0.010457862 0.07521043 0.06700556 0.10245 0.008528137 0.0077836933 0.02095778 0.015132267 -0.05728998 -0.018258631 -0.006396357 -0.003705793 0.011131234 -0.010505415 -0.0027694867 -0.012734768 0.021095779 0.009119312 -0.042469203 -0.005676407 0.0005080923 0.04022314 -0.024305517 -0.013452697 -0.027693558 0.05324459 0.042918522 -0.0008202614 -0.004697694 0.007458544 -0.07585483 -0.009132843 -0.00035235213 0.036156 0.00057095184 0.055959307 -0.049598325 -0.008528266 0.012498072 -0.017273111 0.01152208 -0.033324607 -0.003589382 0.023869434 0.02458455 0.05463697 -0.011096574 0.049316067 -0.040697455 -0.017916413 0.017321466 -0.014898918 0.04487835 0.0135658365 -0.053269207 0.028384794 -0.0075463546 0.012758572 0.038699564 -0.0014188112 0.10688608 -0.026809338 -0.03338705 -0.03266476 -0.026586296
into 0.022307029 0.024763057 -0.017177748 -0.07540141 0.02275797 0.0099462485 0.03961155 0.07007197 0.009214292 -0.01700373 0.10081278 -0.06704578 -0.05012625 0.0458061 -0.024947295 0.0038960157 0.053345755 -0.005228744 -0.031125601 -0.011066254 0.015883561 -0.01873612 0.028065806 -0.011440015 0.005559347 0.017083947 0.003973319 -0.0020602343 -0.01813339 -0.015526567 -0.039570045 -0.035656262 -0.024237717 -0.041384924 0.049485296 0.053646058 0.03598147 -0.016653625 0.00061532337 -0.035537377 -0.025730291 -0.02884768 0.048374064 0.032030176 0.025326815 -0.028962713 -0.028722351 0.010865205 0.040016375 0.002482632 -0.07222458 0.03163112 0.037899725 0.06807438 -0.024944928 0.048114166 0.029188093 0.011179168 0.04345581 0.006244765 0.077643014 -0.01710684 -0.048429936 0.012217872 0.04386545 0.015602415 0.005868808 0.06587664 -0.026300777 -0.004212464 0.055035535 0.0468466 0.009020516 0.03059118 0.019051295 0.012044004 0.0025747316 0.016807491 -0.0027253944 -0.042016044 -0.039571635 0.031625643 0.018112257 0.014178247 0.0250459 0.026125522 0.027868792 0.025331073 0.035466354 0.029354384 -0.044620566 -0.028480204 0.017403858 -0.0067092935 0.0268604 -0.004022496 0.02608748 -0.007138422 -0.026120665 -0.0042145057 -0.017518695 0.0014799593 -0.013245018 -0.08411321 0.0276164 -0.019253407 -0.00078967196 0.012629156 -0.0049918476 -0.0459068 -0.03568521 -0.026252184 -0.023610024 -0.03128914 -0.05503508 0.00769009 -0.006777714 0.050906505 0.031440314 -0.062337812 0.016240451 -0.010229782 0.017693382 -8.0989485e-06 0.023608997 0.0025494373 0.033915784 0.014041682 0.0007666322 0.022336442 0.04670758 -0.0028933887 0.06033297 -0.016732795 -0.014325136 0.041293465 -0.017569706 -0.008487655 -0.022190861 -0.026643936 -0.0123848915 -0.0022491487 0.009382752 0.01019273 -0.0182037 -0.0144553175 -0.044555385 0.02072815 -0.032337278 0.0015599048 0.026737843 -0.051898815 0.015403338 0.0025443758 0.0036369532 0.012239898 0.015211886 0.01089986 -0.0021549738 -0.008523147 -0.008798123 -0.010062905 -0.0073573072 0.00075358176 -0.034875073 -0.004246886 -0.003149722 0.022293992 0.029211286 0.037253715 -0.021102106 0.053600144 0.053870264 0.028320039 0.021635724 -0.030791037 0.014308418 -0.024146182 -0.025175199 0.0011083175 -0.050800487 0.030661965 -0.019257935 -0.023096373 0.011645797 -0.0057327794 0.0243638 -0.014762038 -0.03315737 -0.054048553 0.024714902 0.032692216 -0.0025709854 0.017365627 0.031596318 -0.017129306 -0.037768904 -0.050930295 -0.015351889 0.026941536 -0.029439714 0.03692291 0.04444757 -0.00833017 0.06500908 0.01099457 0.03337297 0.029313764 0.021083433 -0.041520294 -0.006576958 -0.070965424 0.017713897 -0.028424097 0.026942952 -0.0063933376 -0.046139333 0.028403634 -0.020829104 -0.03726674 -0.040178414 0.043220308 -0.02314864 0.00938807 0.06427794 -0.009029666 0.064106375 0.009870162 -0.019113006 -0.009635598 0.010350673 -0.05706757 -0.01570901 0.01469209 -0.025633238 0.0080678705 0.036483996 0.040450715 0.06785159 -0.022504767 -0.016371282 -0.0016103436 0.0011929123 -0.043943044 0.0025180993 -0.028943978 0.02665621 -0.012214225 0.007248882 -0.0019502663 0.0042242934 0.002599322 0.009812599 -0.040164076 -0.032582976 -0.0054716044 0.02168482 -0.005620632 -0.039148893 -0.03857471 0.05885793 0.04015362 0.021330599 -0.0005654565 -0.042679805 -0.01630536 -0.031655505 0.033602208 0.0076063173 -0.025431631 0.042173326 0.0016190204 0.0067088236 0.030069211 -0.011978235 0.03349216 -0.0221187 0.020354195 0.014587475 -0.0051026302 0.03352725 -0.004685643 0.032290976 -0.012844013 0.04481184 0.03837927 0.006958838 0.0049071577 0.014492557 -0.019657895 0.004351556 -0.016251907 -0.009786261 0.026839206 -0.0129976515 0.05307658 -0.01077016 -0.007503332 -0.026024029 -0.018392298
po 0.0048814006 0.024631996 -0.0040393225 -0.06275986 0.03334765 0.00434217 0.061165716 0.034832995 0.0077383216 0.010952782 0.07963861 -0.0656093 -0.025275113 0.051308922 -0.039654627 0.004512492 0.017381303 0.0409239 -0.04510838 -0.017711038 0.0038163455 -0.009599435 0.012434107 -0.025362989 0.016204963 0.042515956 0.006008707 0.01991689 -0.015426143 -0.023513338 -0.050577607 -0.031035157 -0.02376162 -0.025934938 0.045369655 0.064579815 0.043055177 -0.045456138 -0.013421882 -0.070143074 -0.028902229 -0.025113102 0.035437673 0.0046649715 0.04633331 -0.016982472 -0.02422497 -0.016819624 0.014830968 -0.0043709483 -0.071753 0.001448724 0.008715694 0.039220557 -0.0058750175 0.025205653 0.002972655 0.00958849 0.025269378 -0.0011639226 0.062666066 -0.04038092 -0.03853098 -0.0038277206 0.03873393 0.017702682 0.033702854 0.046207145 -0.022512473 0.0023696022 0.04118051 0.033246636 0.0120331375 0.061434172 0.0066906577 0.028645892 0.0036077406 -0.008468203 -0.02353003 -0.021046046 -0.036459558 0.0344916 0.02905343 -0.027457284 0.010457353 0.03592453 0.02215727 0.023728628 0.0111271385 0.019092752 -0.03095081 -0.017242339 0.0021234886 -0.019885674 0.0078033996 -0.017583909 0.030116217 0.003498988 -0.03520536 -0.00480232 -0.04832802 0.015638527 -0.028891684 -0.05505598 0.05179822 0.0040543256 0.014073114 0.010270878 -0.00027801402 -0.0056126253 -0.042190347 -0.017203433 -0.0585978 -0.007773963 -0.014036362 0.01763219 -0.02769482 0.07012606 0.014281283 -0.008005157 -0.01669442 0.007955982 0.0008119632 0.023109406 0.021874147 -0.03400234 0.034172647 0.013749188 -0.010430841 -0.016330423 0.030374791 -0.014414533 0.012824427 0.004823884 -0.005507857 0.0005254757 -1.3993122e-06 0.017093997 0.013111699 0.0011503525 -0.00043947127 -0.009518197 0.00042858344 -0.047316186 -0.017857682 -0.011648478 -0.015852181 0.033588488 -0.024086414 0.0038548757 0.030183507 -0.014150844 0.036832403 0.016706698 -0.034560833 0.0026370555 0.028881393 0.012715402 -0.017793408 -0.022502467 0.025308024 0.018746233 -0.00923915 -4.69571e-05 -0.00094223657 -0.039206546 0.014511964 0.027980797 0.025688846 0.021216543 -0.009372685 0.011052028 0.027742023 -0.008510823 0.0021095672 -0.056838635 0.0019583018 0.01571102 -0.0019219818 -0.027613768 -0.047638133 -0.028444214 -0.04584758 -0.027267981 0.01391127 -0.011689519 0.038881 -0.035945266 -0.028036388 -0.053171568 -0.009361994 0.013725353 0.0004602371 0.0021085097 0.05647888 0.01245675 -0.04106739 -0.04549115 -0.009521538 0.04987251 -0.05856267 0.025055304 0.041836537 -0.019555528 0.06732963 0.038647138 0.029040895 -8.577275e-05 -0.006999882 -0.018678488 -0.029254718 -0.07083525 0.012381368 -0.01635612 0.021209173 0.0045206114 -0.041312564 0.027880155 -0.017922666 0.0052137226 -0.009045922 0.033011053 -0.002388817 0.036465827 0.061288167 0.018789984 0.084598884 -0.031546883 -0.03024164 -0.0040694866 0.038788244 -0.03306327 -0.017740257 0.022461839 -0.03887562 7.814595e-05 0.0572148 0.054831926 0.05997826 0.013969295 -0.022533018 0.022446286 0.013084149 -0.03440598 -0.021818927 0.005329346 0.0059376103 0.0028728526 -0.0081679905 -0.017541222 -0.004533665 0.012815097 -0.0030398264 -0.055833895 0.007395237 -0.0065821786 0.004642426 -0.016683606 -0.0028533638 -0.030513702 0.028779093 0.026167333 0.010398683 0.007465499 -0.0058682957 -0.04302901 -0.023012707 0.0035906597 0.032703422 -0.01672196 0.042123057 -0.030235024 -0.015271605 -0.004717425 -0.020496404 0.011418098 -0.03651048 -0.0071571097 0.03391622 0.00559 0.04654157 -0.027503194 0.039587047 -0.02392088 -0.010872782 0.028737841 0.0053158817 0.013665991 0.008052327 -0.03925685 0.009449916 -0.018416997 0.01824575 0.021175243 -0.005299644 0.07053738 -0.011720702 -0.031893045 -0.025445651 -0.014205523
pwd 0.49508438 -1.3574134 -0.62666166 0.96749836 -0.039035175 0.6497948 -0.18539715 -1.2505603 -0.030863201 1.3574469 -0.62044483 0.13962084 0.06598927 -0.93279403 -0.21281281 -0.121273786 -0.17850076 0.80617577 0.7400524 0.39828163 -0.49753195 0.107883155 -0.3388302 -0.3242097 0.2250767 0.011828226 0.7938507 -0.18901424 0.17857012 -0.57003695 -0.060952425 0.5875354 -0.3001822 0.15499899 -0.2717637 -1.2885202 -0.11764051 0.17303832 -0.001746634 -0.25987738 0.123772666 -0.3148668 -0.48419535 -0.12741444 -0.79236275 -0.20419137 0.010122775 0.10017437 0.160009 -0.3306515 -0.75708866 -0.5605965 0.5953788 -0.04426614 0.3440342 0.17839484 -0.09570459 0.06543457 -0.476678 0.00386784 0.07670087 -0.80905116 -0.55399907 -0.4582493 0.17287844 -0.7132182 -0.14291655 0.0070900046 0.6605556 -0.21778978 -0.025943432 -0.6954858 0.26985574 0.23029444 0.008208934 1.0491803 0.56334484 -0.38944852 -0.03928771 0.022561649 -0.014701091 -0.5336069 0.4562797 -1.2125149 0.35667506 -0.010309348 -0.10386579 0.098391175 -0.0030900724 0.033259794 0.32069343 0.49933854 0.06360153 0.09337965 -0.5667047 0.3511372 0.2873096 0.012196743 0.0122480765 -0.09250243 -0.1270828 -0.21655379 0.6894083 0.08034359 0.14442262 -0.25884524 0.08301552 -0.18682255 0.7314926 -0.3879589 0.41603172 -0.075755455 -0.4693927 0.5956071 0.13817507 0.47515768 0.1145759 -0.3550945 -0.30887854 0.24478 -0.1213112 0.15881316 -0.06986486 -0.104303606 0.07835098 0.060522705 0.1306955 0.22645006 -0.044388663 0.33185068 0.05956087 -0.00556265 -0.22194535 0.36350963 -0.8191434 0.10205056 0.5848061 0.1954695 0.078696296 0.34652033 0.044288978 0.24437064 0.29201475 -0.10987583 0.19751373 0.44727173 -0.05029677 -0.46927342 0.35731936 0.31165305 0.079787664 0.3304247 0.2442384 -0.40284416 -0.55124736 0.373176 0.33551744 0.07447093 -0.1253723 0.108365834 0.48896316 0.112965114 -0.1935603 -0.11756013 0.12674591 -0.07933113 -0.10748158 0.23648304 0.32593971 -0.19031782 0.42001 -0.109851725 -0.7295543 0.2358582 -0.077617 0.1845323 0.14075951 -0.110029615 0.21883707 -0.12538777 0.38453516 -0.5442363 0.014113898 0.28222585 -0.453812 0.20695764 -0.9962377 -1.0087389 1.0428549 0.1796048 -0.20815082 -0.25804025 0.09178523 -0.36056542 -0.39788917 0.030306399 0.051831383 0.34567603 0.39865318 -0.14268169 0.08601022 0.19923784 -0.38408223 0.097505435 0.57115257 0.2734215 0.027162168 -0.22852376 -0.41007733 0.53738993 0.3236184 0.9588759 0.17384894 0.24099542 0.82724535 0.5296242 0.056132916 0.2076047 -0.10441191 0.3207273 -0.43769318 -0.082066484 0.39699763 0.5316194 0.04298752 0.2981584 -0.22566311 0.14972407 0.056982182 -0.13849026 -0.055827197 -0.057913676 0.043344077 -0.012933478 0.22337408 -0.32699922 -0.6095308 -0.05478097 -0.9649702 1.1635783 -0.4831852 0.1837791 0.18251006 0.49414387 0.20537682 0.48057002 -0.40104243 -0.17265676 -0.100279294 -0.48610258 0.03278356 0.13080569 -0.50965935 0.0071767466 0.7647056 -0.27089605 -0.3696848 0.2450954 0.24458209 0.58060265 -0.39598197 -0.6171515 -0.38610977 0.7767721 0.6755825 0.08490725 -0.08010753 -0.3138374 0.63664544 -0.3745734 -0.21859378 0.21352221 0.14282374 -0.2795199 -0.24029802 -0.3530795 -0.0051217885 -0.36650097 0.5322426 -0.47643048 -0.5182362 -0.016006084 0.39778134 0.30663255 0.34408864 0.4136798 0.13108987 0.04177763 0.28998116 -0.61527 -0.17119591 -0.04053378 -0.15567881 -0.56720805 -0.5582157 -0.24527976 0.03227668 0.77780855 -0.15231264 0.8665908
dk 0.029748252 0.05590309 0.00588913 -0.09135536 0.062102288 -0.011821187 0.09141687 0.07618354 -0.019623047 -0.017760744 0.1292279 -0.11752278 -0.030790593 0.11278737 -0.03886663 -0.002955417 0.043928187 0.07388739 -0.047437377 -0.0433408 0.026659675 -0.049483895 0.013440104 -0.03828372 0.015255101 0.065922044 -0.007683965 0.032202087 -0.032915324 -0.054632112 -0.066415064 -0.052443188 -0.03989294 -0.04734477 0.06509801 0.11787146 0.07761122 -0.069037296 -0.011620205 -0.12788144 -0.049984798 -0.03568926 0.055504646 0.019572387 0.070966445 -0.011753796 -0.026503902 -0.03482579 0.037941393 -0.0038508046 -0.08602061 -0.008620806 -0.0037960438 0.069841206 -0.008118379 0.044803996 -0.0012926754 0.01604883 0.04017048 -0.008542721 0.07998381 -0.039295793 -0.02710707 -0.0076992856 0.043305494 0.035679184 0.05240378 0.07153011 -0.029363746 -0.001298181 0.06540347 0.06973184 0.03523427 0.09194375 0.015209272 0.044684917 0.009642519 -0.016829085 -0.0279338 -0.029823069 -0.04889713 0.042027127 0.022104144 -0.00978919 0.01797616 0.04249422 0.04528287 0.048880786 0.01677333 0.047242563 -0.048122413 -0.011342765 0.010665782 -0.022356464 0.052529182 -0.009825988 0.06151 -0.007278069 -0.04813679 -0.0065341466 -0.06858744 0.037639808 -0.03479193 -0.07193335 0.06754164 0.022598384 0.04705735 0.0022050329 -0.010908373 -0.011069382 -0.07150721 -0.039773624 -0.067971975 -0.015864698 -0.010344971 0.024035878 -0.04405804 0.08605704 0.0046973773 -0.022005878 -0.026508542 0.03055338 0.0151807135 0.0031424027 0.009252724 -0.031466525 0.059880406 0.00404365 -0.010557725 0.015446844 0.04710143 -0.037572805 0.014047248 -0.00071341865 -0.01868459 0.021058392 -0.015734455 0.0152059905 0.014683993 -0.011051146 0.00730557 -0.034778982 0.011054456 -0.054643903 -0.02800681 -0.0065382854 -0.047180094 0.047445334 -0.027791271 -0.016215771 0.05004769 -0.043797407 0.04151831 0.010361393 -0.0645889 0.037411675 0.030483915 0.025971647 -0.041153844 -0.009208278 0.03695916 0.029318577 -0.031033024 0.0005631969 0.017207135 -0.054127462 0.009069384 0.040970355 0.027691655 0.030906754 -0.02457761 0.020188196 0.051101908 -0.027634371 0.0055927453 -0.07812088 0.009868374 0.017371543 0.018192105 -0.048702925 -0.07927431 -0.058912758 -0.10245599 -0.06467073 0.011019326 -0.03124332 0.05484635 -0.05645067 -0.035917874 -0.11580935 -0.020030074 0.024919545 -0.019449309 0.004913713 0.070051715 -0.013194096 -0.06806629 -0.07359203 0.015252084 0.070628755 -0.08829749 0.061660692 0.060601335 -0.024193002 0.12045529 0.059281 0.041817743 0.028104581 -0.018903466 -0.017117817 -0.04443311 -0.13648671 0.034446348 -0.01252632 0.055219863 -0.005756634 -0.08931183 0.062893175 -0.038243346 0.006000286 -0.0032798806 0.05033714 -0.010517009 0.039882973 0.07427795 0.012036414 0.11149723 -0.057801332 -0.05657943 -0.005966242 0.055452093 -0.080672905 -0.025454883 0.03160415 -0.065191 0.022503443 0.0927153 0.100054264 0.09047401 0.012810778 -0.029602686 0.034198042 0.004218692 -0.054536145 -0.045762967 -0.01647501 0.013603731 0.011603348 -0.02490718 0.00084747677 0.00730531 -0.014247037 0.03398804 -0.07651696 0.010598764 -0.005090694 0.015483239 -0.03871132 -0.0151332095 -0.07029065 0.04185222 0.044089057 0.030745415 -0.036953107 -0.033042002 -0.052271195 -0.009006094 0.017939705 0.008802569 -0.009270904 0.05974157 -0.0457317 -0.03394644 -0.015763769 -0.014860818 0.052191135 -0.07013623 0.033048883 0.02920727 0.015386268 0.07198691 -0.037496325 0.024396446 -0.03385744 -0.043891687 0.057470452 -0.015430255 0.01881428 0.031165475 -0.023347309 0.007784424 -0.012607682 0.017374668 0.041780528 0.04121053 0.09412439 -0.041020475 -0.0595626 -0.031390592 -0.054769542
php -2.0036106 0.22924803 0.8960978 0.4345037 -0.0310066 -0.3815167 -0.50614023 -0.11765298 -0.7024497 -0.51390344 -0.30321428 0.6394803 0.13525414 -0.12183569 0.34714514 -0.8304746 0.37490183 -0.30490237 0.5194323 0.7578767 -0.3800398 -0.6326643 -0.22287688 -0.64384204 -0.09004437 0.75240713 0.46570307 0.39130256 -0.42209303 -0.17477849 -0.3027056 0.16162546 -0.1891559 0.5855998 -0.64373994 0.0038732872 -0.013826433 -0.6086984 -0.18020931 -0.7512665 0.18609653 -0.1643589 -0.17915437 -0.08003598 0.105526365 0.78495747 -0.6396742 -0.00871089 -0.38928303 0.38738027 0.20013352 0.4922011 0.41142058 -0.33831474 0.5084796 -0.2798634 -0.5574613 0.5453871 -0.8948724 -0.24132411 -0.8042388 -0.19196041 0.08569375 -0.33489695 0.11624763 -0.5432398 0.21071503 -0.72067225 0.0961092 -0.2626644 0.5184517 0.055158556 -0.4935122 0.059096813 -0.45020735 -0.40731737 0.45882976 -0.2483191 -0.13994856 0.66646135 -0.09180496 0.22897136 0.65598625 0.41217285 0.019563485 0.5492712 0.07598692 -0.09409907 0.12677471 0.13062328 -0.41324872 0.30406266 -0.73063636 -0.7496427 -0.36414564 -0.1431652 0.2245222 -0.33437616 -0.09343087 0.6221459 -1.0048132 0.23697704 -0.19011298 -0.42024687 0.8354649 -0.2822676 -0.33126846 0.8544242 -0.22766344 -0.03138168 -0.31393895 -0.041314334 -1.1927972 0.15594311 0.28585288 0.3833754 -0.15561424 0.0899503 -0.10466275 -0.019448377 -0.58827364 -0.093942955 -0.4077416 -0.340404 -0.7080891 -0.0693156 0.06811703 -0.15318595 0.07477846 -0.41467905 0.992667 -0.22741765 -0.47517794 0.3220886 0.52256083 -0.026479837 -0.056394722 1.035368 0.34310818 0.29627073 0.11324897 0.038472526 -0.88425463 -0.4650812 -0.9611734 0.49686557 0.030572603 0.3495243 -0.45473427 0.5950351 -0.17177525 -0.012865617 0.13680387 0.28446004 0.13006891 0.6204716 0.1898836 -0.06564241 -0.28793323 0.28309307 -0.6494035 0.34026948 -0.4501244 -0.31040478 -0.36926886 -0.7176743 0.078133106 0.018444747 0.45041147 0.33354142 0.84874713 -0.1132157 0.0236184 0.3816238 0.018366128 -1.0940486 -0.0114987735 0.1715688 0.23940876 -0.36641198 -0.76778555 0.08272375 -0.2514779 -0.36015424 -0.2541433 0.5623827 0.14077842 0.2858309 0.13293476 -0.53468156 -0.19202824 -0.51722354 0.015056749 0.21499589 0.13701531 0.4818106 -0.70367366 -0.65112376 0.17866455 0.4913765 -0.07164114 0.37829286 0.81310284 -0.4949288 -0.10667071 -0.06387032 0.048357856 -0.07933527 -0.27153942 0.49717405 -0.9271088 -0.9214313 0.87148917 -0.38407457 0.4550812 0.17824788 0.005920047 0.21549182 -0.2789087 -0.32485336 0.07302609 0.07812189 -0.30404568 0.42003566 0.28856578 0.3599097 0.6068269 -0.18421689 -0.6561466 0.11746072 -0.16789468 -0.53258824 -0.46364784 0.6159408 -0.6935661 0.37033194 0.37872753 0.24087328 -0.09590648 -0.5626952 0.10754561 -0.1346981 -0.5167952 0.060298614 -0.36811444 -0.15597966 0.052453022 0.243873 -0.64297545 0.43885034 -0.17372872 0.009778272 0.39719692 -0.3691933 -0.33597964 -0.09278639 0.37945017 -0.10843534 0.41970685 -0.68380547 -0.058431663 -0.63762295 0.08536137 -0.26755235 -0.16565329 0.3929183 0.75159526 0.115371026 0.22835957 -0.09864162 -0.18211906 -0.3697212 -0.29313982 -0.040895335 0.38804206 0.88401556 -0.20125699 0.08806538 -0.26257935 1.0060242 0.3163195 0.5966519 0.031765122 -0.18978554 -0.753785 -0.011873535 -0.55070376 0.5291401 0.34624663 0.1278673 0.47399536 0.10073898 0.39366952 0.31479105 0.79626894 0.8081293 -0.8198727 -0.46281165 -0.0635752 -1.2069006
phpp -0.032499827 0.097224064 0.0018315598 -0.10231462 0.071841046 -0.02336283 0.11771536 0.104677 0.008045464 -0.030605318 0.1559664 -0.11912766 -0.065332025 0.11958491 -0.032096416 -0.028263837 0.038419608 0.0115298545 -0.0842155 -0.048438795 0.03179119 -0.081261456 0.036434393 -0.008814093 0.030526008 0.067265056 -0.0633709 0.067461774 -0.01965402 -0.047544245 -0.078682505 -0.07998636 -0.029328851 -0.04856548 0.046762947 0.15952875 0.09440818 -0.08901955 -0.013457572 -0.12567574 -0.079990506 -0.03553105 0.07646826 0.01155365 0.077887945 -0.040597536 -0.024300227 -0.04223797 0.055527385 0.031116404 -0.0966474 0.032285374 0.012211917 0.079809174 0.0057415166 0.07886672 0.011975125 0.048729964 0.050672174 -0.026622592 0.110720396 -0.07598261 -0.037910488 0.017169114 0.07445928 0.0322947 0.06277979 0.09774611 -0.045116354 -0.0072171823 0.1079561 0.060049668 0.031917624 0.093340345 0.02370331 0.023050182 -0.0040019755 -0.011789827 -0.026858414 -0.038561106 -0.07838213 0.022000331 0.038717687 -0.01989956 0.027936855 0.048375215 0.06789047 0.057997614 0.05549548 0.029931478 -0.064448684 -0.040192842 0.036374774 -0.035570126 0.012469638 -0.0023814072 0.049447086 -0.0043552257 -0.06298482 0.0007975446 -0.09608046 0.010809538 -0.026169557 -0.121957235 0.07571063 -0.019457327 0.0088515645 0.013216121 0.012122535 -0.03267149 -0.11279255 -0.04840896 -0.10782841 -0.008038872 -0.055199116 0.053165734 -0.037563164 0.11273013 0.04940859 -0.027671428 -0.018561283 0.029466346 -0.0024233372 -0.010999818 0.024444683 0.006251794 0.0681638 0.014378355 -0.025198909 -0.030660724 0.110881224 -0.031986825 0.030725015 -0.012003189 -0.032987468 0.012571525 -0.021518657 0.012448872 -0.007144418 -0.011033436 -0.020621493 -0.033979468 -0.0041439086 -0.08022555 -0.042077847 0.000859071 -0.05643752 0.030699879 -0.057297148 0.01225592 0.06984567 -0.027745282 0.035567045 -0.0065029934 -0.05344471 0.028337162 0.005819436 0.0038029475 -0.04093491 -0.0663035 0.025845993 0.0018815653 -0.03483272 -0.015399409 -0.025776 -0.08267445 0.030748263 0.056087922 0.040959124 0.089646935 -0.037265316 0.042969685 0.027420845 0.012160183 0.035549685 -0.06202576 -0.010441483 0.030171111 0.007163838 -0.012437562 -0.10127174 -0.017145874 -0.104454115 -0.056087304 0.009716363 -0.058093302 0.101818316 -0.03548825 -0.07171214 -0.17406559 -0.017348714 0.02225335 -0.0032321662 0.005859873 0.07171645 -0.023303464 -0.06281391 -0.0710837 -0.02746795 0.11088933 -0.09258941 0.04183054 0.07599285 -0.032821607 0.11041696 0.04306496 0.021200312 0.03950151 0.015368549 -0.06624291 -0.046270553 -0.16869245 0.01170474 -0.0009485174 0.038317993 -0.011502506 -0.099400505 0.059026577 -0.04678929 -0.009426038 -0.01259403 0.051665485 -0.007846602 0.03653761 0.11421901 -0.00068660197 0.1747373 -0.07113397 -0.054249782 0.012023144 0.054307748 -0.09108982 -0.013779297 0.026039239 -0.04247847 0.0055281543 0.11629339 0.11076338 0.13022412 -0.0017198868 0.026465597 0.01415581 0.0037774837 -0.051077925 -0.021621918 -0.019504266 -0.0063717845 0.03923804 -0.021380825 0.019487595 -0.0011235925 0.015463445 0.04266204 -0.09802091 -0.033913434 0.012533983 0.068629 -0.018291758 -0.054324575 -0.06801279 0.07402664 0.057953004 0.038110822 -0.021355208 -0.02465945 -0.072048336 0.0076867887 0.019144636 0.0294188 0.0015248646 0.07447301 -0.09411316 0.0025908414 0.03689078 -0.030979218 0.061393473 -0.019259822 0.026727777 0.0046420787 0.045575317 0.07101625 0.005235355 0.062380634 -0.08770066 -0.019162688 0.04167135 -0.032242518 0.061868347 0.033999056 -0.0373087 0.040077068 -0.010681878 0.038121432 0.09094639 0.029125255 0.15137385 -0.032597333 -0.0510517 -0.045976363 -0.060611986
nsf 0.0988034 0.07001799 0.018341076 -0.21553107 0.1536364 -0.115314804 0.24340068 0.3162497 -0.063067086 -0.11078569 0.3230395 -0.28913748 -0.05702861 0.3228049 -0.06475132 -0.016298303 0.1375058 0.11839954 -0.12054008 -0.17143998 0.10544622 -0.09993059 0.032328974 -0.074462585 0.105276294 0.12128878 -0.18793689 0.18562987 -0.056989115 -0.14772962 -0.1501801 -0.1452537 -0.032461684 -0.09976155 0.074493095 0.37149003 0.2086285 -0.17938562 -0.01538637 -0.34739175 -0.18175095 -0.03945414 0.10598291 -0.0058682715 0.20446716 -0.0070201224 -0.048096582 -0.12858373 0.13471673 -0.04331588 -0.23410746 -0.09443352 -0.06399611 0.20162426 0.032032505 0.11637409 -0.00066846475 0.017229017 0.14537112 -0.019460432 0.21890591 -0.07521731 -0.057567876 -0.0052588545 0.094446264 0.15227091 0.14050469 0.18990253 -0.07009665 0.018293131 0.26527068 0.19319211 0.15082812 0.17061672 0.050161745 0.10156117 -0.020682221 -0.062004466 -0.0892106 -0.109492674 -0.15066895 0.03047737 0.005284763 0.040339474 0.059706207 0.06602373 0.13752548 0.14321305 0.04420436 0.10344808 -0.1266473 -0.044002265 0.063713424 -0.044049926 0.17810297 -0.028114995 0.1393263 0.008425466 -0.0493708 0.057141684 -0.16930678 0.109040916 -0.024667034 -0.13378169 0.12989224 0.07194265 0.13472703 -0.0075493734 -0.04801767 0.02598087 -0.2030961 -0.14614825 -0.1864574 -0.0015552961 -0.031036781 0.10041495 -0.085724 0.15038565 -0.009808637 -0.04747807 -0.06127745 0.14712931 0.096436664 -0.014436869 -0.014131288 0.026507672 0.16435754 -0.016896749 -0.04193555 0.07913446 0.16839954 -0.21249399 0.042427942 -0.104614615 -0.076220825 0.05266057 -0.0560382 0.008173695 0.026312515 -0.057601098 0.0020574147 -0.096919045 -0.005132804 -0.1276566 -0.069396295 -0.02075266 -0.1221262 0.060110055 -0.04733619 -0.018443601 0.07230048 -0.13685206 0.026739487 0.024829267 -0.09033202 0.121681355 0.06515581 0.07295752 -0.066614866 -0.057205748 0.049772076 0.04358764 -0.08391808 0.022485323 0.037910465 -0.08814272 -0.0019356618 0.09284769 0.06305583 0.117361 -0.08481881 0.012883261 0.15061487 -0.06301114 0.03652587 -0.15846293 0.042715546 0.045853168 0.043360464 -0.14554113 -0.22530341 -0.13192353 -0.22047837 -0.1441109 -0.0073036156 -0.20474187 0.08965465 -0.10176973 -0.121252805 -0.35354358 -0.08000478 0.059192892 -0.023915408 0.012542774 0.09337158 -0.04410829 -0.051461786 -0.16135128 0.015798569 0.20443253 -0.17585492 0.20536776 0.10368047 -0.036907796 0.3167936 0.10958639 0.10200164 0.16938302 -0.1054537 -0.097100236 -0.10928459 -0.38121963 0.11648292 0.062695816 0.23430674 -0.07242411 -0.23499076 0.21301799 -0.13736424 0.017864648 -0.010909854 0.054814566 -0.051109377 -0.012113803 0.14025782 -0.002459705 0.34026 -0.18860044 -0.14647914 -0.017186362 0.23097986 -0.26787603 -0.072733045 0.14528117 -0.16390128 0.04854554 0.30868542 0.30248412 0.24197802 0.023733808 -0.09101413 0.10134249 0.003575113 -0.080615416 -0.14354965 -0.07674381 0.025890483 0.026141543 -0.11324449 0.010611131 0.052891135 -0.02491074 0.1343118 -0.22859289 0.0075353463 -0.00611141 0.068495065 -0.17688662 -0.08482043 -0.23486066 0.11237545 0.12863734 0.1204531 -0.1364459 -0.11535153 -0.08706897 0.028279018 0.050225247 -0.07089874 0.037959628 0.14758223 -0.16214772 -0.08999542 -0.021055052 -0.05093518 0.19571635 -0.120950505 0.15073693 -0.03564728 0.0869415 0.16503595 -0.104654774 0.0368692 -0.15228671 -0.10903914 0.1646583 -0.12129636 0.051641874 0.086074226 -0.04143641 0.04124923 0.02861307 0.04753349 0.10748268 0.2355269 0.23156565 -0.0907672 -0.18705304 -0.05697745 -0.16217649
xsl 0.092325605 0.060389098 -0.0020593125 -0.18576814 0.1359995 -0.10127158 0.20544703 0.3174232 -0.049720325 -0.13399117 0.33956638 -0.22356422 -0.046563104 0.28103063 -0.05487622 -0.024020836 0.16602245 0.071156904 -0.11017227 -0.20217443 0.14200544 -0.103389055 0.038696717 -0.083967134 0.077871144 0.1255545 -0.1488424 0.12726946 -0.09251159 -0.13758238 -0.14414097 -0.12772469 -0.047254093 -0.13783608 0.09974276 0.33292168 0.19422297 -0.17786454 0.008983856 -0.32555398 -0.15188643 -0.05537795 0.078070305 -0.007630528 0.17139505 0.010034848 -0.035473086 -0.08428401 0.12637053 -0.024560096 -0.22120175 -0.070262276 -0.0760084 0.24293566 -0.0020098512 0.105954565 0.0010251438 0.0050464473 0.10489081 0.027880952 0.22432719 -0.05184377 -0.03853623 -0.019226283 0.073496066 0.14573808 0.107078426 0.19425943 -0.09059905 0.0017063457 0.25528637 0.20673183 0.12279109 0.16123745 0.056874532 0.09993175 0.0008921999 -0.0054619736 -0.08807689 -0.10365469 -0.13013393 0.055724178 -0.0014482874 0.056092553 0.054703087 0.07047959 0.14940564 0.113381706 0.04811796 0.12630282 -0.11179426 -0.051689304 0.073596284 -0.009299349 0.16436265 -0.019906452 0.15808323 -0.035310615 -0.08575813 0.052282494 -0.14376785 0.08586773 -0.006317773 -0.13201845 0.14913158 0.02946008 0.14106208 -0.02879768 -0.069332905 -0.0029415004 -0.1906837 -0.15097514 -0.1517835 -0.02869939 -0.01917305 0.086589195 -0.08253405 0.16831721 -0.0017859201 -0.09306675 -0.055078775 0.109819114 0.08367872 -0.012538531 0.00030811937 0.011704389 0.14633304 0.024564918 -0.023763686 0.120092094 0.17824234 -0.15275706 0.088408425 -0.08630748 -0.014864987 0.10706832 -0.020975549 0.040454056 0.037612453 -0.069234915 0.034531336 -0.09689962 -0.0108021395 -0.060897782 -0.094578646 0.001957124 -0.12311443 0.073242754 -0.04875329 -0.06644835 0.0800828 -0.13889293 0.063210994 0.018007107 -0.08611532 0.13706128 0.08299303 0.0825879 -0.055749077 -0.00954936 -0.009167318 0.058499556 -0.11497316 0.028946368 0.029408049 -0.046158917 0.016980488 0.08773491 0.055214092 0.12008226 -0.09616754 0.002896844 0.14080724 -0.019041356 0.050364804 -0.16569223 0.062020693 0.01024421 0.052639045 -0.12069652 -0.22842477 -0.1081744 -0.1855872 -0.17265278 -0.023828916 -0.14181584 0.05226357 -0.10425551 -0.06701493 -0.309631 -0.07770934 0.06746999 -0.07054263 -0.005403616 0.092559084 -0.09121658 -0.08900428 -0.15298562 0.044848368 0.1815445 -0.16365618 0.22427548 0.11925427 -0.058951706 0.32660466 0.10116029 0.07932648 0.1415341 -0.046611656 -0.06283347 -0.108050354 -0.3433023 0.08732794 0.0033871233 0.2502856 -0.026340203 -0.2379964 0.19224364 -0.1231797 -0.023378335 -0.06107228 0.09053472 -0.03221146 -0.00038000237 0.1406615 0.013892826 0.29539 -0.118154965 -0.1279974 -0.0038352294 0.18743859 -0.2935773 -0.079026535 0.13692515 -0.19247915 0.062005043 0.2552586 0.24619421 0.22643448 0.0051405346 -0.087698504 0.08833166 -0.040533654 -0.09732946 -0.09536075 -0.07229875 0.06014706 0.02919586 -0.08680016 0.03615107 0.04314899 -0.07418512 0.15002355 -0.18020904 -0.038256634 -0.007961421 0.063848965 -0.19174376 -0.095193 -0.23892409 0.12681836 0.11090801 0.13788928 -0.14105037 -0.119671226 -0.03040351 0.038433935 0.07937624 -0.09505904 0.0036539775 0.13789143 -0.09999465 -0.054214917 -0.014494046 -0.035019383 0.21966477 -0.13215426 0.13720596 -0.038380083 0.05187009 0.15578914 -0.09159604 0.052142266 -0.15155604 -0.077891566 0.1568445 -0.11746829 0.05632939 0.097549394 -0.038346853 0.048301935 0.02778096 0.030247014 0.096485645 0.23470399 0.2305132 -0.09088001 -0.1393494 -0.056944083 -0.1832432
. -1.4139556 -0.64590275 1.2545965 1.1404456 0.1587429 -1.8213274 0.13637811 1.404476 -0.83596456 -2.0043163 -0.44839984 1.1729844 -0.25142306 1.134772 0.63929415 -0.83201325 0.23042454 -0.3205735 0.8967306 -0.028372427 0.39249247 -0.9357347 -0.44267258 0.18026166 0.16944195 0.51975566 -0.04225447 0.30969754 -0.3354366 -0.74778956 0.68016654 -0.08180545 0.35727635 0.8898433 -0.37200633 0.2931001 0.73144466 -0.68358755 0.09043966 -1.059789 -0.15252489 -0.43048733 0.14462371 -0.14029047 -0.02456621 0.30124232 -0.56221193 -0.21770433 0.6429687 0.42897058 -0.6043613 0.4989753 0.67908305 0.10413048 0.7606947 -0.12576017 -0.12616087 0.1920386 -1.4076118 -0.72953486 -0.6030559 -0.8478002 -0.39025208 -0.11707812 0.1491627 -0.42947784 -0.4760033 -0.3944129 0.36992526 -0.077690855 0.005893223 -0.096351735 0.047593202 0.21663743 0.38482445 0.14136405 0.6283489 0.005933024 0.23791496 -0.46623424 0.09783942 -0.47514394 -0.054323852 0.22271293 0.38623577 0.26222748 0.27510118 -0.29864523 0.19622397 -0.047034647 -0.8691466 0.531031 -0.71489465 -0.8138875 -0.075790346 0.48955777 0.1611039 -0.5409293 0.09676282 0.0046695177 -0.20696129 0.10803178 -0.3097766 -0.23373698 0.35563287 0.629522 0.444621 0.63704073 -0.041845135 -0.08068325 -0.37351725 -0.12477536 -0.0029445176 0.20174022 0.07390019 -0.25789157 -0.31337264 -0.59473646 -0.5171513 -0.2454496 -0.2967425 -0.112842955 -0.043896433 -0.48954904 -0.45245373 -0.4188498 0.22678845 -0.20719434 -0.20058206 -0.16902648 0.30562717 -0.4647088 -0.3659042 0.31825554 -0.71921504 0.08550779 -0.22413683 0.2894358 0.1938968 0.7292773 0.093363434 0.07786479 -0.4250593 -0.8261648 -0.43475834 0.44606093 -0.09930655 0.21096188 -0.12430705 0.9309406 0.12950698 -0.18815935 0.19004786 0.11021435 -0.80932146 0.9768124 -0.40038016 0.44898292 -0.4808082 0.52175474 0.4362503 0.57683873 -0.5359875 -0.119277105 0.10999987 -0.6358072 -0.31091794 -0.12008736 0.0021037236 -0.010745258 0.3991833 0.097024284 0.2514957 -0.23915806 0.12896524 -1.131458 -0.3081065 0.07840575 0.34617066 0.27945736 -0.16239178 -0.42694953 -0.8547983 0.034270406 0.33372694 0.28046334 0.3562482 -0.42574248 -0.43675783 -0.85870326 -0.02722209 0.09961303 0.18666105 0.17869578 0.27514154 -0.082655035 -0.3688624 0.0626702 -0.2697986 -0.018948171 -0.34075397 0.052536756 0.3444559 -0.25258288 0.2445691 0.22242908 0.33928713 0.10262324 -0.05303628 0.8994946 -0.6558537 -0.8749932 0.6545482 0.16076314 -0.16925916 0.39842778 0.016553877 0.42539555 0.036392897 0.20510042 0.035686933 0.17076589 -0.016487554 0.11426053 0.7586661 0.05806579 0.67744064 -0.4298418 -0.5290589 -0.267171 -0.094422065 -0.09895291 0.43172583 0.4691005 -0.40902257 -0.18290335 -0.06921212 0.060416594 -0.08363833 -0.5858847 0.31146932 -0.17338403 -0.19575597 0.303883 -0.305054 -0.26753032 0.093512975 0.3318277 -0.60213125 0.4756051 -0.6910008 -0.15161629 0.014610949 0.07157463 -0.0024881135 -0.027595218 -0.4255124 0.73772293 0.2063611 0.1416054 -0.6877803 -0.5117737 0.093419574 -0.11362055 -0.5501895 0.13790497 0.4673204 0.31078404 0.27706203 0.474685 -0.36121196 -0.37249094 -0.3485308 0.034760974 -0.11045629 0.23545533 -0.09996522 0.26883537 -0.13590822 0.2392214 0.5494935 0.44463626 -0.49323398 -0.11370629 -0.45638245 -0.16413975 0.17485648 0.49399057 0.2653262 0.5304694 -0.1070246 -0.35778314 0.70314246 0.62625575 0.33232656 0.31949684 -0.5266099 -0.5899923 0.73872036 -1.1370438
png -0.03200085 0.20036398 -0.018378615 -0.20942274 0.15375689 -0.06637908 0.25649074 0.31921136 -0.031176953 -0.07959227 0.3665329 -0.34443375 -0.07162674 0.37340522 -0.11686459 -0.04601802 0.11216163 0.08913426 -0.17582346 -0.19015181 0.117875926 -0.12733683 0.052964266 -0.09362612 0.07272474 0.14248954 -0.1813866 0.16208555 -0.073542476 -0.1255079 -0.17443807 -0.18138872 -0.04856799 -0.1382722 0.071970336 0.42460853 0.20463562 -0.23906417 -0.009236302 -0.35543957 -0.17979585 -0.07671092 0.10582149 -0.0031505553 0.23241554 0.020745115 -0.084769584 -0.16327994 0.15878381 -0.023157742 -0.2407552 -0.058518734 -0.03300335 0.22779776 0.031889495 0.15286928 -0.00525844 0.066279374 0.12859225 -0.029724669 0.25739828 -0.09695666 -0.072481036 -0.007306774 0.13747099 0.13517514 0.15441863 0.22054425 -0.0996343 0.010674939 0.32037508 0.23149276 0.12243333 0.19453067 0.09988253 0.044623982 -0.009705652 -0.07374349 -0.12651297 -0.11834476 -0.17796402 0.016885748 0.019224685 0.052303024 0.03794553 0.05811439 0.18822813 0.12549452 0.09157656 0.11766381 -0.12217198 -0.08645429 0.066825315 -0.029548937 0.12757769 0.015115052 0.17901577 -0.008072677 -0.09351777 0.10612149 -0.19751142 0.059559543 0.021114489 -0.14113137 0.17824996 0.026933163 0.11467933 0.010191711 -0.051832408 -0.027221553 -0.2819433 -0.20212412 -0.20306753 0.024719609 -0.08875005 0.1849159 -0.06599714 0.19461755 0.007215976 -0.083026126 -0.08400932 0.16940425 0.015240403 -0.09068261 -0.082510225 0.089732096 0.16581342 -0.042841934 -0.051712956 0.06469754 0.2683448 -0.2101536 0.030969933 -0.10507436 -0.06968226 0.08484493 -0.056507885 0.03555117 0.0066824704 -0.06955813 0.021367917 -0.11683974 -0.022105822 -0.14059542 -0.093622886 0.060423557 -0.11707266 0.0458933 -0.05823002 0.011989265 0.048118047 -0.14995892 0.0789475 -0.008417837 -0.11323553 0.17345794 0.061311644 0.07447172 -0.11625596 -0.05712113 0.016616829 0.029563855 -0.13354817 0.011460647 0.021986675 -0.12032468 -0.030367225 0.08591763 0.039028417 0.19104512 -0.065948516 0.012778948 0.15101735 -0.038709287 0.07520526 -0.23179768 0.028263988 0.084697105 0.07780121 -0.117253534 -0.32102993 -0.11971499 -0.30040032 -0.22780211 -0.00039730995 -0.22945854 0.15910676 -0.059090775 -0.14574532 -0.41213664 -0.112351574 0.057178747 -0.04919317 0.058903754 0.07723029 -0.028360354 -0.17174713 -0.18962234 0.014465177 0.28945643 -0.2116168 0.19836472 0.156462 -0.05168566 0.3334808 0.12790522 0.09450391 0.14621507 -0.07927854 -0.090138994 -0.17723422 -0.48708355 0.14925109 0.03564415 0.2278837 -0.07160373 -0.23923123 0.22032447 -0.15560237 -0.03455681 0.015750486 0.06737037 -0.0776665 0.0063648745 0.2139648 0.020320456 0.4385928 -0.17968288 -0.19258451 0.025026008 0.20507348 -0.29959702 -0.098333284 0.18369427 -0.16003922 0.057335034 0.31806436 0.29445508 0.3003973 -0.032513343 -0.035865244 0.05697506 -0.047344614 -0.08075521 -0.10603069 -0.08647732 -0.006990034 0.088030055 -0.1495053 0.062710956 0.049546126 -0.03073532 0.16273269 -0.24985836 -0.05847561 0.011584249 0.14320037 -0.14957057 -0.113848574 -0.29063433 0.1322534 0.13546523 0.16568479 -0.13356352 -0.15609659 -0.08318095 0.064773336 0.11130075 -0.05288489 0.02676559 0.18593916 -0.18833998 -0.057469368 0.0030383875 -0.03716063 0.28907177 -0.09952759 0.21109511 -0.058808547 0.13663283 0.1894162 -0.099738784 0.059889894 -0.20033318 -0.12948735 0.18791714 -0.13514784 0.05247706 0.13405582 -0.01184583 0.054469578 0.061361484 0.11238145 0.18316051 0.29020184 0.3594984 -0.10214234 -0.19289601 -0.04328374 -0.22439326
swf -0.02146601 0.101381876 0.03865327 -0.17992942 0.15529817 -0.13235769 0.24967551 0.33591804 -0.030835846 -0.13297415 0.35758433 -0.23576781 -0.07645793 0.31735608 -0.09866895 -0.013020398 0.11598391 0.081913084 -0.1804605 -0.2197909 0.11455822 -0.11071081 0.06520426 -0.059082605 0.10381493 0.126941 -0.17504358 0.17615098 -0.07590995 -0.13986468 -0.18087031 -0.16889201 -0.042483695 -0.11879156 0.09236202 0.40315104 0.21990837 -0.2386217 -0.0008600993 -0.34833947 -0.16469331 -0.05335139 0.090305366 -0.028651543 0.20564777 -0.009244487 -0.0524288 -0.13094999 0.15470669 0.008660841 -0.22408806 -0.033852052 -0.07786259 0.24380578 0.03963687 0.09620522 -0.006606018 0.035674214 0.14949606 0.0044123796 0.232907 -0.08935658 -0.05117483 -0.016119896 0.09509585 0.13088441 0.14793119 0.17033707 -0.110515095 0.020976447 0.29671568 0.21165816 0.120615 0.17166449 0.068340175 0.07644877 0.0074115405 -0.06261933 -0.09400437 -0.113889836 -0.15460686 0.043767713 -0.0050442833 0.0374729 0.044468813 0.07325769 0.16015647 0.11868663 0.083962455 0.14092644 -0.1294057 -0.068145975 0.10698261 -0.012697661 0.15073226 -0.036198225 0.16315944 -0.033592258 -0.066585444 0.089152955 -0.15824035 0.10208964 -0.0008093382 -0.15468778 0.1527125 0.011247502 0.12613757 -0.006754225 -0.08061063 -0.01340306 -0.25297123 -0.18039784 -0.184181 -0.011058996 -0.033731714 0.14900492 -0.08972473 0.2005067 0.005753268 -0.09744088 -0.070177555 0.118681215 0.07382592 -0.034171756 -0.052217282 0.046808694 0.15888014 -0.009441116 -0.03184436 0.08371896 0.22705069 -0.18829452 0.06866633 -0.06879278 -0.027094988 0.07993775 -0.016290992 0.063903436 0.029840957 -0.062581755 0.016553782 -0.09669973 -0.017415436 -0.10556012 -0.13857238 0.025987182 -0.12440476 0.057057176 -0.048981123 -0.04549437 0.07740517 -0.13792738 0.09008986 -0.010494883 -0.10187876 0.15081094 0.0863428 0.05482656 -0.09746368 -0.03692306 -0.0016763097 0.054681722 -0.14512086 0.035139747 0.028162405 -0.059703328 0.015291492 0.097138755 0.060676076 0.14895363 -0.09228541 -0.018763045 0.11196929 -0.015274154 0.05965815 -0.18096672 0.04866172 0.044193067 0.07280898 -0.11313678 -0.26374614 -0.11063805 -0.2335057 -0.17441978 -0.040337507 -0.18302764 0.11847383 -0.07824195 -0.07365677 -0.35040346 -0.09460271 0.056999482 -0.059459288 0.015520952 0.07455505 -0.086844765 -0.10800426 -0.17417005 0.03947025 0.23527807 -0.16676065 0.24140783 0.14269504 -0.03803581 0.36151624 0.09057288 0.10393521 0.15119477 -0.07691695 -0.07494624 -0.14381368 -0.4073426 0.099907055 -0.0017790196 0.26090637 -0.045817632 -0.22489718 0.19251573 -0.14952324 -0.03649642 -0.036065493 0.09000634 -0.02902272 -0.0016152316 0.15436307 0.021472376 0.346396 -0.14478847 -0.15747215 0.010658279 0.2267982 -0.3550062 -0.0738018 0.17191747 -0.21142446 0.050861124 0.30160403 0.2861487 0.24279808 0.0034918443 -0.071869835 0.08237605 -0.04003977 -0.071982466 -0.10927313 -0.056238946 0.025256956 0.06285456 -0.121981055 0.04726109 0.044880524 -0.08013943 0.1817816 -0.23813179 -0.060924437 -0.0046034046 0.10716405 -0.1803931 -0.11461069 -0.27602258 0.11808624 0.09552071 0.17126419 -0.14823985 -0.12397286 -0.032425083 0.090600364 0.109191 -0.097453326 0.020110667 0.14064437 -0.13710952 -0.026758268 -0.010340566 -0.063140735 0.25868952 -0.12319935 0.19157645 -0.079047695 0.080625564 0.15867554 -0.0807092 0.05113837 -0.17055367 -0.11117969 0.17050269 -0.13464929 0.015422066 0.11476235 -0.026053358 0.058393694 0.041832257 0.074339114 0.14136048 0.29535463 0.2731146 -0.09876041 -0.13641787 -0.07254231 -0.2003278
show 0.014333957 0.059596673 0.0018923485 -0.0848404 0.061145745 -0.016310079 0.11421654 0.0826206 0.008956135 0.006008149 0.13826945 -0.11763573 -0.04789135 0.12013724 -0.053272493 -0.0040334314 0.030134674 0.052669972 -0.07086826 -0.050773982 0.03535582 -0.052742217 0.026091598 -0.0232886 0.026532764 0.035572596 -0.03441524 0.049537268 -0.027750969 -0.056801453 -0.07070056 -0.06757343 -0.012810964 -0.046345863 0.05525567 0.12326946 0.10221399 -0.07237439 -0.014427543 -0.114135735 -0.07728307 -0.03109856 0.06674846 0.013443349 0.062447086 -0.037296243 -0.02370769 -0.04078324 0.05735202 0.010772306 -0.11160656 0.013728323 0.013966861 0.085518375 -0.00033341505 0.049766004 0.022736492 0.028136648 0.075947806 -0.014954927 0.1014767 -0.047585078 -0.045213137 0.010005744 0.06994864 0.03482574 0.042934246 0.08666872 -0.049838074 0.015737846 0.091878764 0.063791625 0.044301406 0.07974111 0.040833175 0.023225205 0.0063924287 -0.02850624 -0.030890381 -0.059101682 -0.07707018 0.023085052 0.022995364 -0.0072315084 0.014129383 0.036216054 0.04818594 0.049972948 0.044901352 0.04460144 -0.046590343 -0.03513517 0.032133393 -0.023749547 0.040756978 -0.013761954 0.053818163 0.0008777786 -0.062802605 0.003520261 -0.07170672 0.028778696 -0.019473925 -0.08398232 0.06411108 0.0030078697 0.029018108 0.013383322 -0.0051497724 -0.032663982 -0.100265495 -0.0615605 -0.065684356 -0.003304376 -0.046139445 0.04571112 -0.041225854 0.09043593 0.02295491 -0.040014878 -0.013033131 0.02551027 0.009035815 0.0013533103 0.015288586 -0.0061714617 0.06146244 0.013001699 -0.019517805 -0.00402939 0.07575399 -0.03514957 0.030127538 -0.012346928 -0.039392166 0.023605505 -0.020309793 -0.002127409 -0.008688198 -0.010850511 -0.0034510542 -0.02233244 -0.00061586185 -0.067288846 -0.028545897 0.0015263008 -0.040575493 0.023114622 -0.027844863 0.014134438 0.04434208 -0.053837396 0.040274657 0.008954377 -0.036855124 0.03682473 0.030506726 0.017064285 -0.03084846 -0.029985556 0.029196812 0.010357773 -0.032369073 -0.010097267 -0.0032352707 -0.040246338 0.005023106 0.031648844 0.048985016 0.059645735 -0.02656306 0.021528458 0.039810292 -0.007386817 0.017446537 -0.085296296 0.0061141993 0.016865022 0.008595619 -0.026000265 -0.091695145 -0.019581161 -0.09307786 -0.064845644 0.012473734 -0.050229337 0.07511052 -0.05443406 -0.05445286 -0.16243213 -0.008632642 0.023745842 -0.020632021 0.01132403 0.06938051 -0.008237213 -0.07063672 -0.08000222 -0.019183133 0.109128356 -0.09518385 0.06109778 0.055342525 -0.030325908 0.12292308 0.046544705 0.036426745 0.051463228 0.00899745 -0.049221013 -0.046789095 -0.14891076 0.047052477 -0.0061275945 0.048682816 -0.012775034 -0.073136896 0.062800795 -0.042943604 -0.007451635 -0.017596615 0.04985848 -0.01429061 0.015923338 0.11454264 0.013535057 0.15000594 -0.0641374 -0.052688625 0.008648891 0.05218478 -0.08557198 -0.03326777 0.041738905 -0.032646645 0.008183001 0.09405271 0.10651412 0.12976596 0.0032430263 -0.012194013 0.0265806 0.0073120194 -0.05736719 -0.022331234 -0.01799844 -0.008505735 0.024639847 -0.029631428 -0.001954066 0.004880269 0.010864094 0.02103854 -0.078521945 -0.0063671432 -0.010553155 0.06316552 -0.0378166 -0.03299907 -0.057008505 0.06501869 0.042036798 0.033742286 -0.013507143 -0.035692375 -0.06342478 0.0019831304 0.022545923 0.029148288 0.008773044 0.07008457 -0.07716373 -0.008766258 0.013906898 -0.035959978 0.050508242 -0.02895992 0.03804158 0.003812978 0.027376972 0.06018803 -0.03432478 0.052206315 -0.057765223 -0.008275919 0.045968767 -0.0104259625 0.014943043 0.04075657 -0.031348325 0.006632784 0.005325932 0.039423972 0.060932036 0.046925534 0.13169602 -0.021659268 -0.04317055 -0.032575786 -0.049724765
+ 1.9748784 -0.36266816 1.0584036 -0.49713415 -0.48090568 0.22322297 -0.1921839 -0.617272 -1.4803145 -0.18314481 0.9824971 -0.68054366 -0.30871242 0.533689 0.65999806 -0.4494597 0.86519057 0.21967156 -0.4358875 -0.6670022 0.23285018 0.5719612 -0.0537249 -0.46057186 -0.3052249 0.099190705 -0.4797624 -0.22271757 -0.33197215 0.105966486 -0.6818414 -0.090223014 0.05987911 0.08556438 -1.1808265 0.30508518 0.08520022 -0.10093172 -0.27885988 1.2813518 0.61498064 0.15367995 0.36366946 0.26132917 0.26418346 0.9051815 0.91600853 -1.2561084 0.48714703 -0.13981259 1.1627307 -0.40628278 -0.6597415 0.23739016 -0.6812172 -0.6436953 0.43476817 -0.23185293 0.62116826 0.070822865 -0.032416817 0.61012113 0.043010622 0.33882144 0.3654594 -0.09026027 0.43681484 -0.5642729 -0.4752981 0.20401892 0.03362061 0.08637159 0.34722826 -0.29527798 -0.07351653 -0.47384453 -0.3500379 0.6375319 0.20118542 -0.21487667 0.09684631 -0.18895324 0.40766692 0.8056597 -0.30405566 -0.5447812 -0.02207299 0.68453825 0.19079877 0.6073012 0.088015065 0.14148724 -0.5260223 -0.17325176 0.83721876 0.05402349 -0.03263748 -0.13139172 -0.4627879 0.48407665 0.52196115 0.016251028 0.30862972 0.5972571 -0.14613171 0.57678545 0.16165192 0.04209064 -1.0148457 0.02963796 -0.43012562 -0.3898972 1.0075679 0.010387897 -0.49614877 0.19074126 -0.20041472 -0.2294298 0.35016137 -0.5886551 0.5767718 -0.10758706 0.17002723 0.74370605 0.20507535 0.06730654 0.14588037 0.8420385 0.07474271 0.49234802 0.4497204 -0.2529283 0.16775663 -0.8008244 -0.0721146 0.5995172 -0.44608727 -0.383595 -1.2321205 -0.14783043 -0.2699358 -0.15854818 -0.30272922 0.027237078 -0.09963229 -0.2523973 0.04738323 -0.1423369 -0.3759726 0.8293486 0.30926356 -1.1030515 -0.61309546 0.6665752 -0.3908946 -0.1424546 -0.95761836 0.1665386 -0.22394542 0.6803899 0.18581969 -0.25039268 0.042883314 0.24106133 0.17672691 0.67656595 -0.37805703 -0.69661367 0.61268014 -0.33794188 -0.28062448 0.46747863 0.48578638 -0.69444585 -0.08227978 -0.72658247 -0.036958992 -0.18191694 -0.09532417 0.2521642 0.8345324 0.50382596 0.55443 -0.36404917 -0.002797776 0.057082776 -0.32206404 0.716163 -0.047780525 -0.39233106 -0.32683212 0.41026154 -0.2674132 0.16105166 -0.06625296 0.0056327097 0.5701671 -0.099174775 0.3988956 -0.82734495 -0.22306204 0.003806258 -0.9480495 0.16471878 -0.7136466 0.04317828 -0.17626101 -0.003223012 -1.063788 0.37455112 0.06829342 0.24333423 0.21400355 0.8575024 -0.40181363 -0.33032426 0.45564142 -0.36901012 0.20447658 0.29493156 0.019401146 -0.61775833 0.8588968 -0.65763754 -1.3985089 0.031696755 -1.4672438 0.22484559 0.58237386 -0.12026484 0.026950253 0.05351165 0.174101 -0.21939965 0.4149163 0.3968511 0.7490543 0.7244472 0.2435609 -0.29041722 -0.59990585 0.506654 0.8164804 0.33301517 -0.23562364 -0.60817224 0.104895025 0.2831343 -0.10507892 -0.6210122 0.3665426 -0.5447304 0.3409904 -0.2210966 -0.520389 -0.4311113 0.43443027 -0.07397786 0.16422248 -0.33633012 0.12997054 -0.077557206 0.0061527006 0.8458147 -0.6509576 0.3120016 -0.29535106 0.26132223 -1.7614288 0.23634353 -0.8011951 1.0706087 0.22821167 0.28200272 -0.31570557 -0.46703377 -0.4822522 -0.18189754 0.40887675 -0.34117997 0.041955672 -0.6099636 0.5036071 0.6325322 1.2063867 -0.5322086 0.42150205 -0.30292982 0.27358088 0.30503735 -0.80026126 0.6273947 0.13401222 -1.0027695 0.3184877 0.19103232 0.6970054 -0.28325564 1.4051205 0.076153666
main 0.031045005 0.07857666 0.043964796 -0.11248569 0.08432339 -0.12215733 0.18242128 0.28920913 -0.1318882 -0.16285959 0.27586082 -0.20642747 -0.06850261 0.32753283 -0.10490754 0.0030492235 0.109514676 0.14779925 -0.14661375 -0.18787034 0.06355968 -0.06492392 0.07623839 -0.06505635 0.029460331 0.17427021 -0.097648405 0.12103658 -0.08243054 -0.13673718 -0.1440289 -0.09058872 -0.017665245 -0.10801831 0.08234848 0.3276724 0.16905802 -0.1557626 -0.029041206 -0.2949667 -0.12602009 -0.055646043 0.07994695 -0.0133462725 0.19287257 0.029256556 -0.111994974 -0.07009866 0.10057671 0.014288376 -0.20466468 0.012393678 -0.057629816 0.17697781 0.058761675 0.02267122 -0.04255754 0.015285093 0.087271295 0.0041165953 0.13596785 -0.04176428 0.0018951424 -0.035273634 0.06858993 0.09691878 0.11397332 0.123478465 -0.066659056 0.0016979055 0.17547378 0.18591921 0.045702793 0.16320732 0.059554525 0.0743092 0.039287217 -0.018904826 -0.030706557 -0.10186574 -0.11506388 0.104592934 0.023044357 0.03527029 0.011013471 0.062945016 0.10579969 0.07432174 0.033545155 0.15490589 -0.13711314 0.00045767607 0.06792478 -0.037253864 0.15845515 -0.011963306 0.108076215 -0.02986674 -0.022595847 0.06493075 -0.12730162 0.072961345 -0.035106402 -0.13326222 0.11686918 -0.014171465 0.09718297 0.028440235 -0.05788926 -0.027294688 -0.14114831 -0.10491256 -0.16826393 -0.02151092 0.0040238607 0.11002239 -0.05421426 0.18721986 -0.013368774 -0.071380086 -0.039592315 0.0739538 0.06066936 -0.02694443 -0.0438171 0.01500595 0.11001662 -0.027343288 -0.0309098 0.04852687 0.14135022 -0.116571896 0.057202414 -0.048157766 0.03674245 0.03366554 0.0059472863 0.10586203 0.06436923 -0.027456818 0.057690486 -0.08908218 -0.05185643 -0.05037467 -0.11231475 0.008600524 -0.1122929 0.06996965 -0.052172337 -0.063046224 0.09327967 -0.08005815 0.083468385 0.0058216946 -0.087622896 0.09747446 0.07231177 0.013233656 -0.05965789 -0.024178233 -0.008143679 0.06634799 -0.08432623 0.021704497 0.018681321 -0.0070320936 0.05316206 0.07712695 0.07256577 0.06577951 -0.044567488 -0.00016398502 0.09309613 -0.016661556 0.0003505008 -0.12026231 0.022524906 0.036217615 0.061578456 -0.12971547 -0.22333768 -0.099587195 -0.198772 -0.12257365 -0.016639119 -0.08450422 0.07999842 -0.100430824 -0.018783927 -0.1731794 -0.055334873 0.03843517 -0.034405172 -0.035783 0.064765394 -0.037401333 -0.105966784 -0.1443333 0.03511296 0.14009936 -0.13044976 0.18257152 0.14997777 -0.071931124 0.2890854 0.103349335 0.09330766 0.044303887 -0.08495141 0.0028324055 -0.12001656 -0.2723497 0.093188375 -0.06912758 0.20473817 -0.018835342 -0.1753697 0.17093077 -0.0998285 -0.002148747 0.0037562482 0.0962347 -0.01667296 0.068780184 0.122754715 0.004543135 0.23715653 -0.10587751 -0.14638391 -0.01797184 0.17996666 -0.2585449 -0.036041286 0.09386085 -0.20174555 0.097221896 0.1804466 0.24563307 0.13831836 0.015485519 -0.09619541 0.06783967 -0.036133196 -0.06934692 -0.11015176 -0.050232705 0.037896592 0.018673537 -0.05094061 0.008428739 0.04966772 -0.05941258 0.15024972 -0.23725647 -0.0153941335 0.008224516 0.010990369 -0.14192034 -0.0439677 -0.21369778 0.024377836 0.01569699 0.10384251 -0.13588876 -0.080058254 -0.011506885 0.058679268 0.03783853 -0.054168224 -0.023033148 0.07380379 -0.1016412 -0.060983755 -0.009067203 -0.04665665 0.19030163 -0.11464284 0.07762016 -0.017772362 0.069129616 0.13894685 -0.04332144 0.0114736315 -0.09140236 -0.13592075 0.14319494 -0.09104863 -0.01407906 0.07530492 0.0014016111 0.045179103 0.0012713913 0.057299472 0.042124003 0.2106449 0.18534249 -0.123071484 -0.12478099 -0.051961944 -0.17314292
pfx 0.055522714 0.10836548 -0.0015437977 -0.19711049 0.1445046 -0.07020167 0.21209122 0.26636177 -0.03368144 -0.08153843 0.33609492 -0.2518683 -0.056531247 0.26156205 -0.07455926 -0.02584877 0.14652315 0.1010898 -0.13916814 -0.20418942 0.12026603 -0.092847034 0.053692933 -0.11258477 0.091299854 0.13471314 -0.13347654 0.12944272 -0.084072545 -0.14395191 -0.16336994 -0.14488916 -0.0685172 -0.14692087 0.1130349 0.34078974 0.19353808 -0.2106837 0.012055615 -0.34267074 -0.15777177 -0.071347244 0.087647334 -0.0038565944 0.19914134 -0.009785874 -0.06562506 -0.12116016 0.13848439 -0.03387548 -0.2684724 -0.0685826 -0.06936318 0.2576826 0.017618408 0.10916278 -0.006576962 -0.00080880855 0.12699713 0.030952457 0.24137211 -0.07454398 -0.054042853 -0.030460138 0.091389015 0.1599049 0.13212496 0.19822006 -0.10580223 0.030224105 0.27021486 0.21711545 0.12413937 0.16633494 0.062683865 0.099174336 0.015134268 -0.045369163 -0.10160005 -0.122102164 -0.14442746 0.03433517 0.013648189 0.03973234 0.062970124 0.077680394 0.1508985 0.11086209 0.068862215 0.1430227 -0.09351953 -0.08556601 0.08953463 -0.013132631 0.13760604 -0.0107636945 0.1735571 -0.037734546 -0.07557637 0.08921664 -0.14991236 0.10627814 0.002796232 -0.12991904 0.15235037 0.03309271 0.13196549 -0.016204616 -0.08001415 -0.023572851 -0.21573913 -0.16944632 -0.16006203 -0.009371859 -0.00893718 0.12070762 -0.0792699 0.17908898 -0.020412188 -0.09475994 -0.06911338 0.112801485 0.050106447 -0.031372987 -0.039727055 0.034776647 0.15548682 -0.01097672 -0.011676823 0.11211262 0.20815058 -0.18411547 0.043625966 -0.0711862 -0.030217545 0.08692014 -0.004809293 0.066003785 0.03793686 -0.07055206 0.034966484 -0.076566 -0.020544339 -0.105730295 -0.12301844 0.02683573 -0.13386297 0.07949054 -0.037296295 -0.042834416 0.06766931 -0.15186419 0.07324203 0.010152035 -0.10870177 0.16145857 0.098815046 0.08102617 -0.07349167 -0.012191225 -0.00786441 0.064821474 -0.13507129 0.011526133 0.05523521 -0.06294631 0.010687245 0.07418082 0.067207135 0.122926906 -0.089504555 -0.0055656084 0.1279701 -0.04730037 0.032653175 -0.20413236 0.05057641 0.04499302 0.051448368 -0.11661009 -0.23590006 -0.12722738 -0.20868778 -0.1677716 -0.010827456 -0.14297548 0.08918602 -0.095697775 -0.06723738 -0.32937536 -0.096230365 0.085587196 -0.044892345 0.007951762 0.1011096 -0.06083847 -0.1206206 -0.1620958 0.055255637 0.21063913 -0.16656274 0.22150895 0.12857656 -0.07128451 0.34200254 0.114450544 0.100804776 0.120991595 -0.05368124 -0.05713943 -0.12059948 -0.36903766 0.10859097 0.0021590947 0.22803177 -0.016282218 -0.205578 0.1821397 -0.12939394 -0.026154228 -0.044847287 0.088086054 -0.041835222 0.020369338 0.14501318 0.028338544 0.28675497 -0.10895787 -0.13662294 -0.00026165528 0.17586182 -0.2833038 -0.0896284 0.11774914 -0.19693731 0.041593853 0.27819514 0.24541612 0.21208403 0.031022694 -0.07943574 0.08665527 -0.0020493795 -0.08515541 -0.090812124 -0.060544044 0.03407078 0.0381116 -0.10149441 0.035936702 0.027367525 -0.0631529 0.13171415 -0.19001253 -0.046137407 -0.012605198 0.07507375 -0.17889166 -0.10588735 -0.25202218 0.12438883 0.09857285 0.12944268 -0.109922804 -0.09765218 -0.03908873 0.04432824 0.050206993 -0.07155407 0.0017705201 0.14131394 -0.09651058 -0.05728856 -0.03583207 -0.035039004 0.231796 -0.14577726 0.16101956 -0.04070657 0.0619728 0.16304944 -0.08622664 0.040603828 -0.14239563 -0.09452485 0.16686633 -0.13402598 0.056283705 0.10412348 -0.032324813 0.053236667 0.04078294 0.042839315 0.09907249 0.24790294 0.23119077 -0.096864365 -0.12804997 -0.06601601 -0.1601715
