336 300
cat -0.9388364 -0.5676827 -0.034074016 0.41157025 -0.28685552 0.092919774 0.56074595 0.8210896 -0.31066132 0.25275525 0.030895228 1.1104163 0.34342384 -0.4127433 0.030767115 -0.18037973 -0.38286817 -0.966258 0.05738642 -0.3476608 0.2205737 0.07413152 0.3701819 -0.14755715 0.011507044 -4.4599125e-05 -0.37238076 -0.09519438 -0.2732958 0.16598016 -0.03173163 0.4210244 0.40162507 -0.37563038 -0.47481778 0.90491956 -0.10421772 -0.3177914 -0.44799712 -0.36220062 0.056182913 -0.35428974 0.24257284 -0.31485876 0.34577605 0.57492226 -0.49691737 -0.65277535 0.28707948 0.3577144 -0.31645602 0.78695333 -0.771108 0.4551169 0.46834844 -0.90086997 -0.23982581 -0.40028915 0.110913366 0.083019994 -0.23506467 0.8671048 0.2967794 0.0651142 -1.2833173 0.52440834 0.25929362 0.41330102 -0.4892334 0.021611305 0.5849938 0.19486304 -0.63817686 -0.027097993 0.015911361 -0.41982204 -0.13957432 0.5002234 0.07465195 0.18306345 -0.12075524 -0.30905727 0.0024119073 0.661114 0.0070451843 -0.096348815 0.04297987 -0.1291992 0.6347647 0.46153492 -0.2822411 -0.46885428 0.5890396 0.59357625 0.34257963 0.12080481 -0.016002284 0.31873494 -0.18893324 0.34172654 0.34845385 -0.7123491 0.23100209 -0.25434256 -0.12935384 -1.0129048 0.37112978 -0.13117959 -0.761489 -0.2718189 -0.12149356 -0.09572574 0.095982224 -0.38611934 0.39834592 0.4080262 0.19345164 0.3547644 -0.26037925 -0.6602241 0.06877874 0.68034756 -0.28011078 -0.80186015 -0.043738905 0.94449675 0.02075991 0.05275889 -0.22572935 -0.3329571 0.1859891 0.3115885 -0.30141866 0.21536711 0.47657725 0.2836255 0.2622519 0.60721076 -0.15128809 0.061175834 -0.70128465 0.46526968 -0.056575764 -0.20554811 -0.34394902 0.7017325 1.0081781 0.27371925 -0.66205186 0.587461 -0.18035533 0.37471053 0.1405348 0.48967376 -0.31811714 -0.5545972 0.18816108 0.16933075 -0.2824588 -0.18368512 -0.49351746 -0.110864185 0.04610794 -0.06529611 -0.53424764 0.09813179 -0.093021825 -0.16319312 0.29909456 0.85591155 -0.031321906 0.06508527 -0.28489295 0.020815069 0.17509128 -0.42795363 -0.22992645 0.4330645 0.0098082535 0.33332106 -0.12804553 0.50831324 0.13435897 -0.8711474 -0.64239246 0.007969703 -0.1823396 0.16239917 -0.09246652 0.34178856 -0.489457 -0.49066278 -0.07956779 -0.04809278 -0.16084404 -0.07532731 0.41622296 -0.4447873 -0.03695039 -0.035958625 -0.21444364 -0.28526136 0.32848433 -0.038052365 -0.5614798 -0.87721133 -0.20322864 -0.06615408 0.23873442 0.06520182 -0.17315574 -0.18671669 -0.5308129 0.0966419 -0.45020148 0.040962826 0.25392067 -0.14589305 -0.2797248 0.10214332 0.5405765 0.40272653 -0.23670948 -0.013408469 -0.16982187 0.34686443 0.552118 0.35325655 -0.24656029 0.42793673 0.31440014 -0.60909194 0.20520179 0.19348706 -0.6591618 0.57686 0.24405049 0.8810902 0.058841784 -0.4564106 -0.20007412 0.10138989 -0.09565122 -0.15041678 0.37373307 -0.8761113 0.3674601 0.22902434 0.09696188 0.4562807 0.7562228 -0.57166547 0.83118886 -0.49265632 -0.9767017 0.26930135 0.2590592 -0.16364084 -0.5703176 -0.69044495 -0.786268 0.33629423 0.9678613 -0.42469049 -0.31415474 0.7018366 0.9030356 0.5303544 -0.32490423 -0.07589319 0.31381968 0.12336591 0.5996337 -0.17347652 0.0059127575 1.251163 0.08402844 1.0130651 -0.79622364 -0.12386234 -0.086679205 -0.15207969 0.2906091 -0.7115363 -0.31349343 0.030184304 -0.46183878 -0.19301991 -0.3423055 -0.36562797 0.18495582 0.19712244 -0.28522965 -0.35527775 -0.16829504 0.07425311 -0.005561565 0.15917405 0.19786406 0.18970601
table -0.9238547 -0.6631972 -0.015436471 0.05062223 -0.56979 0.16441144 -0.5202291 1.1489183 -0.82460505 -0.60590756 -0.48173058 0.35322195 0.28350082 0.35373083 0.65847737 -0.32114935 1.0564331 -0.9742277 0.61951387 -0.5890818 0.12810417 0.11856294 -0.19293326 0.17516656 0.16270691 0.1142454 -0.45074126 0.7596926 0.5217485 0.40659428 0.40749347 0.3325465 -0.6385237 0.78119695 -0.3028552 -0.588739 -0.073739074 -0.007982032 0.10124574 0.6394964 -0.06674889 -0.13235562 0.12534817 -0.022418352 -0.36844483 -0.35084036 0.05154079 -0.20923522 -0.005640931 0.14813559 -0.18755127 0.53402245 -0.16286686 -0.27730024 0.5903118 -0.22061072 -0.39404756 0.13182852 0.25546473 0.46589953 0.29005706 0.36535677 1.0246693 0.061908636 -0.94884515 0.54657453 0.3826176 0.8550555 0.22027098 0.42067668 0.3087668 -0.25684753 0.19423969 -0.020052763 -0.0075950883 0.50028336 0.07957449 0.57241005 -0.2440515 -0.15130402 -0.10469417 -0.3331783 0.57566434 -0.052723322 0.6195034 -0.01166431 0.14337417 0.40597084 0.36313912 -0.33197758 0.49815246 -0.33054093 0.14759143 0.29840797 -0.7940687 -0.12716235 0.16867095 0.3095756 -0.0688607 0.2568029 0.21397184 0.25387415 0.5194707 -0.20620373 -0.19305669 0.20956022 -0.152027 0.1187921 -0.31598938 -0.07382316 0.50119436 0.53197074 0.09474901 -0.2974223 0.0163984 -0.20581774 0.6082866 -0.17000322 0.21335691 -0.4170847 0.09508185 -0.46717885 -1.4069966 0.3406684 0.262024 -0.26206774 0.043600224 0.06608142 -0.26138136 -1.009096 -0.24290593 0.11637197 -1.1538036 0.5019315 -0.06252016 -0.2136726 0.5884571 0.8691898 0.5830224 0.08295887 -1.0670547 0.8872052 0.5914422 -0.696572 -0.29062495 0.6898817 0.7443411 0.7943942 -0.16608307 0.59213483 -0.35380113 0.8527783 0.34964278 0.3513616 -0.09736614 -0.45408577 0.0848644 0.656768 0.15097725 -0.22473262 -0.40871847 -0.03610853 0.043085665 -0.3549973 -0.296259 -1.2630111 0.49106765 -0.3105616 0.15342619 0.35039607 0.2665068 -0.15419309 -0.5704211 -0.44763747 -0.031116797 -0.5706181 -0.03492302 0.33385247 -0.036438733 0.45372167 0.293186 0.25659528 0.59992635 -0.12308777 -0.18272865 0.2384195 -0.5225116 0.060226303 0.2737598 0.44705206 -0.54972047 -0.077452786 -0.1066243 0.12258837 -0.45084345 -0.89688075 0.22868396 0.16495058 0.4746304 0.14739445 0.45706102 0.1558326 -0.050291017 -0.5048687 1.1033328 0.24546488 0.029842814 0.5549997 -0.13120201 0.6231602 0.24849777 -0.66412085 0.36824664 -0.3601802 0.6381986 -0.355015 -0.7478999 -0.21221983 -1.0431173 -0.7179155 0.10262943 0.055805027 0.06545292 -0.2702597 -0.72606385 -1.0588084 0.45605794 0.13502206 -0.13562287 0.22813481 0.4993244 -1.0989968 0.13047968 0.05665414 -0.527067 0.047993723 0.4442452 1.0194846 0.5288416 -0.1668809 0.41818288 -0.47423428 -0.6386558 1.3064626 0.2980378 0.00734561 -0.23457325 0.26410356 -0.51254165 0.28003678 0.1896935 -0.08676363 0.07963367 0.41934735 -0.6910856 0.24076663 -0.51492363 0.36870766 -0.44237003 0.08459486 0.29062456 0.27285513 -0.03999104 0.44335124 0.59204924 0.5130698 0.64169693 -0.17726131 -0.59371495 -0.7721335 -0.17227904 0.77359 0.3680196 -0.31660414 0.47144112 0.58193374 -0.4161028 0.3855501 0.2746291 0.102851175 -0.65146226 0.8031441 0.098275684 -0.50730956 -0.1301843 0.38258702 -0.30139765 -0.20001394 0.70306414 -0.43241268 0.40944517 0.12114618 -0.5778882 -0.12486837 0.92623276 -0.33573326 0.101164065 -0.3726446 0.23055138 0.23247898
history 0.038698502 0.004502217 -0.09101155 0.09058437 -0.11558413 -0.15412503 0.4571209 0.42727798 -0.7983663 -0.33775884 0.1038618 -0.20554455 -0.13829245 0.5501694 0.080615446 -0.38177416 0.6943114 0.51151276 -0.05504683 -0.41432887 0.60356843 -0.47346246 -0.1389608 0.2671217 0.23378353 0.0056983614 -0.10599427 0.27636287 0.23218694 0.20752297 -0.54694474 -0.10389799 -0.4411814 -0.31812337 0.1810158 -0.16130006 -0.23107839 -0.1402888 -0.043679584 -0.33572647 -0.24391608 -0.048347045 0.13842957 0.46259952 0.25364155 0.008838922 -0.51695687 -0.11743595 0.074692465 -0.24146247 -0.5170911 -0.28649953 0.22083603 -0.14447725 0.053166162 0.0016404802 -0.18180214 -0.40867737 -0.44006765 -0.26522225 -0.17927964 -0.3040149 -0.67294437 -0.29790246 0.007607303 0.6024102 0.29242364 0.5764927 -0.051571283 0.03958888 0.065094315 0.4741984 0.00835849 0.14558694 0.14310536 0.38207114 -0.14833502 0.21402684 -0.17795244 -0.6041066 -0.392609 0.12517808 -0.1335775 -0.031975467 0.5833484 0.10807994 0.55149364 -0.022626197 -0.21754473 0.37197185 -0.029538743 0.083606 0.070218936 0.04342095 0.27744406 0.5031473 0.0855868 -0.20752944 0.23187253 0.11326617 -0.1935329 0.21802478 -0.1224988 0.16548978 0.48385334 0.007520876 0.38546276 -0.30084282 -0.2920909 0.07182883 0.06978689 -0.0474447 -0.18317443 -0.13548346 0.56335086 0.03517232 0.10216819 0.40322438 -0.23319945 0.52289784 -0.11597132 0.30612952 0.060900923 -0.10618134 -0.05206146 0.21999453 0.1055234 -0.15548137 0.05700112 0.4632438 0.1490036 -0.52029175 -0.083848335 -0.29173556 -0.17504436 -0.12066371 0.16498269 0.4697793 0.30862504 0.06737432 -0.013775529 0.0794729 -0.10882033 0.047457926 -0.3601341 0.014166173 -0.37624386 0.031334497 0.039264977 -0.16331014 0.034714717 -0.21910092 -0.6170958 0.10607997 -0.26944143 0.05119467 -0.14586161 0.27650845 0.09082191 -0.047622673 0.03699644 0.12245491 -0.054307 0.09114175 -0.23849945 0.17923558 -0.118276976 -0.15013899 0.11230381 -0.3332936 -0.29914746 0.35409164 0.13706222 0.06085711 0.07102501 -0.059728026 -0.11525716 0.5597689 -0.16164856 -0.33322185 -0.1209389 -0.16734445 -0.3027702 -0.081150174 -0.4323605 -0.069837205 0.12904622 -0.22715579 0.13072519 -0.38824368 0.16083534 0.3619247 -0.23495835 0.15245833 0.15684007 -0.3777069 0.4437779 -0.12823114 -0.12797157 0.0919569 -0.034804743 0.003906213 0.3774297 -0.10572472 0.377045 -0.005450538 0.2317915 0.1652301 -0.09230306 -0.12125595 0.18523782 -0.4855727 0.18340746 -0.24240182 0.43875608 -0.28686148 -0.5497769 -0.08982448 -0.41258577 0.051369894 0.16243823 0.4368311 -0.0764329 -0.3935691 -0.29203773 -0.19020137 0.07928447 -0.070019506 -0.2005334 -0.043464787 0.18274434 -0.60520875 0.17582926 -0.16778946 -0.5672176 0.5506385 0.42397863 0.825941 0.24372712 0.09167576 0.21426585 -0.123517625 -0.1298887 0.66132617 0.40050748 -0.21104509 0.07219181 -0.2889929 -0.0654413 0.17538159 0.29076612 -0.17638789 -0.21262032 -0.46093446 0.24117665 -0.013511291 0.43952152 -0.29429454 -0.41430673 -0.27941996 -0.68146366 0.23993042 0.23089695 -0.2748739 -0.36827803 0.22854684 0.1627844 -0.25050268 0.21701899 0.17188525 -0.20411853 -0.3922897 -0.39204848 0.21976571 -0.042799097 0.34266496 0.34874094 0.013582477 -0.607914 -0.35567328 0.17220521 -0.5105276 -0.22478749 0.136022 -0.110796645 0.6161703 -0.37293747 0.48200822 -0.086100586 -0.3504186 0.007542359 -0.2666996 0.22969835 -0.15382764 -0.03848053 -0.024940828 -0.35153672 -0.19811884 0.21272075 -0.6460089
old 0.16716193 0.32989368 -0.25086796 -0.007142538 0.06611446 -0.0892894 0.54868895 0.89534056 -0.38770014 -0.8930153 0.59052706 -0.09032109 -0.26771763 0.39353356 0.055085666 -0.2304811 0.613072 0.38244474 -0.018958835 -0.059989665 0.70717984 -0.2706773 -0.19333987 0.297924 0.32159105 -0.0807186 -0.18994589 0.49861664 0.24723962 0.14941487 -0.26258674 -0.5901945 -0.28543308 0.3455974 0.28512976 0.26498008 -0.056073006 0.0003874746 -0.18160836 -0.024287395 -0.22997913 -0.07791401 0.2708605 0.7213219 -0.05568426 -0.007914281 -0.13553286 -0.07882259 -0.32068962 -0.0940522 -0.063137226 -0.060480706 0.47565207 -0.3113814 -0.12481774 0.2944279 0.14784817 -0.034770973 -0.40036914 -0.54402375 -0.27467576 -0.38239783 -0.93467265 -0.3436856 0.5022081 0.28373 0.13878074 0.4437776 0.2056662 0.1312573 0.0077577517 0.15761505 0.3362152 0.65315694 0.34364125 0.6227556 0.0040125055 0.11765666 -0.44618642 -0.20712923 -0.5115159 0.27329358 0.065605685 -0.6857566 0.5449129 0.29101783 0.5150419 -0.13132529 -0.5750849 0.03453491 0.33825433 -0.018129505 -0.32542694 -0.1904303 -0.41546774 0.4479085 0.18654402 -0.0077172955 -0.2685462 0.06968409 -0.7240223 0.13709374 -0.24585871 -0.0008278704 0.8573374 0.37683323 0.37748525 -0.09333659 0.007420444 -0.11389293 0.056660663 -0.28704134 -0.17102288 0.22083466 0.3701938 -0.2620726 -0.17287546 0.27951917 0.05541122 0.59339774 0.12379839 0.019575829 -0.3047363 0.09742918 0.06463061 0.28239104 0.2713474 -0.18367478 -0.42022505 0.46303833 0.11127039 -0.6391654 -0.38872716 -0.1508982 -0.3802333 -0.35176373 0.24464874 0.43258145 0.41579467 0.032789055 -0.22904906 0.072194956 -0.045740213 0.1729686 -0.21797325 0.07626165 -0.13952193 0.13377067 -0.22345337 -0.1895453 -0.03332456 -0.1611269 -0.19106665 -0.10324036 0.0035892832 0.15078014 -0.09031147 0.3252032 0.15696862 0.1387229 0.055864807 0.07599269 -0.24722898 0.23506542 0.19525287 0.093005605 -0.32107776 -0.12073288 0.108436435 -0.1284687 -0.16060048 0.25822347 0.4079845 -0.23897551 0.08688371 -0.17280988 -0.017349748 0.19826569 -0.095243625 -0.25721267 -0.37755755 -0.20527208 -0.016727699 -0.08849657 -0.0011972202 -0.11344979 -0.18333043 -0.2824165 0.22420749 -0.24805103 0.07893292 0.30311468 -0.035740837 0.32009962 0.2210856 0.06198326 0.15643808 0.096067496 0.14140455 0.09837612 -0.13105807 0.3780841 0.27084285 -0.123757 0.6584369 0.43008775 0.22778046 0.18988468 -0.19929713 -0.21398407 -0.07306881 -0.52061194 0.6516708 0.112959705 0.6089203 -0.1307146 -0.76256394 0.266037 -0.30886394 -0.016618304 -0.09865644 0.2728501 0.0320012 -0.15378445 0.14387688 -0.09902074 0.1679201 -0.10533977 -0.38500693 -0.17281541 0.338089 -0.68597186 -0.109612785 -0.08314897 -0.42411417 0.37181652 0.22946838 0.5037906 0.21872501 0.19030301 -0.052288175 0.09246055 -0.19494936 0.30168647 0.114686966 -0.29245943 -0.20702997 -0.4990826 -0.28992286 0.1432226 0.15989755 -0.037116826 -0.6120908 -0.0763086 0.2573771 -0.21945247 0.0066714254 -0.0919559 -0.49558628 -0.16189617 -0.27020603 0.37072706 0.29642275 -0.06341848 -0.27117023 0.1162687 -0.01909694 -0.6248075 0.2865803 -0.12339388 0.2978489 0.063385434 -0.35897118 -0.23167725 0.2639984 0.33122754 -0.015537696 0.21181759 -0.21800342 -0.19009675 0.05112821 -0.55400926 -0.037960958 0.052676287 -0.15726113 0.40487435 -0.2593005 0.0019446547 0.24425326 0.5479781 -0.19394962 0.06661156 0.13869283 -0.31460348 0.49820632 0.39345098 0.0515405 -0.6154252 0.029352833 0.04989012
open 0.022028543 0.0564783 -0.07949261 -0.020740172 -0.0012909449 -0.052042782 0.10610934 0.10370316 -0.07873425 -0.07134432 0.047584403 -0.056421112 -0.025572402 0.02695331 -0.002811286 -0.046780784 0.0700098 0.06970108 -0.016354904 -0.0061443425 0.08167413 -0.07413781 -0.036517233 0.05158813 0.009619358 0.019325478 -0.014919658 0.032541335 0.02494216 0.018489309 -0.063753426 -0.041004203 -0.041474186 -0.0003140797 0.015339771 0.005778717 0.0040119714 -0.024058258 -0.045735545 0.00847082 -0.040897515 -0.049171086 0.058768902 0.06805211 0.04732892 0.019698221 -0.06799977 -0.024147877 0.01968576 -0.02771343 -0.059580963 -0.015269995 0.07712727 -0.011842343 -0.027139612 0.01813218 -0.01202985 -0.05981406 -0.03619035 -0.039333813 -0.020539735 -0.07461513 -0.1286231 -0.019010948 0.015316791 0.10410347 0.034233242 0.08253493 -0.027064983 0.030931907 0.014848399 0.02957768 0.056853693 0.054820653 0.06439471 0.116663426 -0.024819583 0.06910323 -0.06540699 -0.0907883 -0.08786776 -0.010819805 -0.015222593 -0.072132766 0.10581576 0.044421677 0.10079638 -0.021770278 -0.0510988 0.01117116 0.03957845 0.009163905 -0.026976295 -0.01179525 -0.047716614 0.04934948 0.039138254 -0.027727209 -0.022005562 0.014112555 -0.042203255 -0.009110492 -0.008076682 0.010448077 0.122609474 0.0041996134 0.07067503 -0.035032302 -0.04688087 0.004878968 -0.0031255286 -0.0075501455 0.008779405 -0.005760424 0.078321636 -0.021976873 -0.028880194 0.054984014 -0.0032250227 0.05393105 0.003256573 0.03942419 -0.046763975 -0.03196378 0.0063439338 0.058545247 0.050844874 -0.0025483733 -0.0337446 0.069382 0.030851878 -0.058117934 0.0060225134 -0.050024588 -0.06658317 0.010280348 0.0065932674 0.06362008 0.020863138 0.0008255157 0.0018729022 0.044031736 -0.024946855 0.03149951 -0.03194544 -0.025409507 -0.052463602 -0.013835652 -0.0021768096 -0.061057214 -0.02919365 -0.032949638 -0.049302835 -0.015012968 -0.040952396 0.020480556 -0.05533609 0.06010037 0.019668218 0.00026601081 0.044884834 0.031799886 -0.039185107 0.034736354 -0.007979094 0.036356866 -0.034013655 -0.02592302 -0.009284005 -0.05936011 -0.054356042 0.04399127 0.02528129 -0.040038355 0.036263496 -0.011805545 -0.02023386 0.067535765 -0.027539993 -0.014398834 -0.020596959 -0.026071718 -0.03793969 0.00015141105 -0.0077168434 -0.018741155 0.027028173 -0.020986632 0.035191204 -0.061586887 0.039930068 0.0834765 -0.0136687355 0.05605369 0.032921113 -0.016662387 0.07405172 -0.0023658327 0.008452807 -0.0012517647 -0.008154928 0.029888524 0.05077906 -0.0047984314 0.07192077 0.022964956 0.034294847 0.0039330204 0.021785716 -0.036730133 0.008015068 -0.06621527 0.06186511 -0.020168016 0.0194222 -0.027022952 -0.08273267 0.017223103 -0.013202383 0.014088114 -0.008106086 0.04576759 0.0060252394 -0.054527745 -0.016889248 0.0013287073 0.015095546 0.006397702 -0.023356348 -0.028896945 0.0010915151 -0.06293007 0.0018153326 0.0034501613 -0.06667864 0.04776612 0.07003509 0.08493204 0.033385314 -0.015354127 0.0039691175 0.0009311459 -0.017677406 0.063753456 0.03844363 -0.05600227 0.01375652 -0.06405735 -0.0044176984 -0.026960758 0.011252106 -0.03207275 -0.06467322 -0.011719431 0.004554744 -0.01955547 0.06405982 -0.048624292 -0.08865825 -0.03635934 -0.06862982 0.054249234 0.052781317 -0.019994346 -0.03314132 0.0261757 -0.010401001 -0.07950085 -0.005874347 0.016357781 -0.014109245 0.0024083324 -0.067879744 0.044970937 0.0023535565 0.029299626 0.01518621 0.009368672 -0.054883994 -0.06557754 0.012271979 -0.03196829 0.019905629 0.028975539 0.00527274 0.024648085 -0.047701877 0.07903177 -0.024839107 -0.060794517 0.031028837 -0.026781369 -0.041072283 -0.06808779 -0.063341185 -0.025155041 -0.05585465 -0.067351244 -0.0018443522 0.0651234
address 0.032543123 0.06678766 -0.04115773 -0.028591538 -0.014268827 0.00016724902 0.023003655 -0.0018971972 -0.037702404 0.006891586 0.015551183 -0.02157377 -0.009442919 -0.016030591 -0.009786195 -0.016419461 -0.022576697 0.02415869 0.0017709929 0.03174429 0.0068588695 -0.019542025 -0.03327566 0.0031513819 -0.022468135 0.01799936 -0.0044152583 0.0018063784 0.011981756 0.011404441 -0.024464505 -0.058938045 0.00095896714 0.0107832635 -0.001778467 0.009625812 -0.011810936 0.015745815 -0.03097421 0.012164266 -0.018099671 -0.025333604 0.007095096 0.052431636 0.024617016 0.010878947 -0.04228617 -0.01770139 0.0049948967 -0.015771678 -0.032442518 -0.003194147 0.060642164 0.010656196 -0.007344816 0.02064729 -0.017854884 -0.034937896 -0.0011667383 -0.026276868 -0.022945018 -0.027756162 -0.08460185 0.01339571 0.026954694 0.023372762 0.01565826 0.0049530603 -0.024549067 0.029450404 0.00048397132 0.029076038 0.04216845 0.012804663 0.039513905 0.09068839 -0.014152967 0.027896207 -0.022080105 -0.062001124 -0.05848454 -0.029293923 -0.020620512 -0.033458438 0.052617487 0.024103886 0.037539132 -0.013053675 -0.026938986 0.016120652 0.010467351 0.013706584 -0.027867397 -0.0058342735 -0.036531907 0.02414335 0.009593284 -0.004020042 -0.012168156 0.021197565 -0.008461105 -0.032768097 -0.01435456 -0.00042071147 0.07590007 -0.01138973 0.043362487 -0.011859228 -0.042248785 -0.004009187 -0.020873073 -0.024840353 0.021742744 -0.004178561 0.05693024 0.0021795724 -0.039821364 0.017436102 -0.007634334 0.022035081 0.0071994714 0.017767403 -0.037411228 -0.03368592 -0.0111838095 0.058908153 0.034292016 -0.0033930296 -0.021130795 0.0312127 0.023570836 -0.035228938 0.006210529 -0.019917239 -0.019792646 -0.0077272407 0.011446952 0.03039598 0.0007600372 0.020331183 -0.012242938 0.025684848 -0.020919237 0.04311259 -0.026213048 -0.004754227 -0.029274294 0.0071836696 -0.019652216 -0.025070906 0.0033570153 -0.024502806 -0.02416723 0.0019361646 -0.010274799 0.0018753941 -0.02315189 0.023901746 -0.0024290944 -0.011632059 0.005586975 0.031118825 -0.036183078 0.024485767 -0.0065259566 0.034849714 -0.05345125 -0.0063309176 -0.003938258 -0.029274143 -0.027072296 0.022704434 0.022833675 -0.04395459 0.03233311 -0.02489403 -0.020005498 0.020410355 -0.008703539 0.016041322 -0.02283117 -0.021832915 -0.01843133 -0.009517682 0.015588878 -0.014514226 0.008776842 -0.008146978 0.019200414 -0.038249765 0.039129186 0.062101144 0.009452395 0.03709514 0.0053834943 0.016928807 0.058121316 7.5127595e-05 0.009462674 -0.019059507 -0.004432231 0.034866594 0.039930988 0.00041804116 0.004986554 0.0067869243 0.007874827 -0.019643463 0.009868251 -0.02844472 -0.018240968 -0.03657538 0.041332856 0.001085182 0.0035746503 -0.022344962 -0.022631448 0.02051396 0.012253022 0.004164783 -0.022658503 0.0012630023 -0.004820745 -0.025777988 -0.008151443 0.022612263 -0.007921486 0.019223189 -0.011972069 -0.035735648 -0.018533051 -0.013848986 -0.00052069884 0.0031433487 -0.024066757 0.011065784 0.046312235 0.0123383235 -0.004575348 -0.01875271 -0.018066073 0.008430841 0.024578115 0.004684746 -0.0069500348 -0.02420414 0.00849306 -0.028775627 -0.016333573 -0.033158753 -0.008262708 -0.01782683 -0.022275725 0.008798088 -0.015903004 -0.021009658 0.011348226 -0.015575038 -0.035004918 0.009176854 -0.021422844 0.053074926 0.016059104 0.0028006989 0.015696874 0.01129937 -0.023205586 -0.044763673 0.001929442 0.0019702048 0.010575535 0.035516985 -0.033435173 0.0067620785 0.03199302 0.005474671 -0.0155227175 0.018811535 8.803369e-05 -0.044409517 0.00907809 0.019634621 0.014522701 0.01563785 0.013087768 -0.009169134 -0.018292556 0.058894787 -0.015410283 -0.06676415 0.030016296 -0.017098466 -0.04638486 -0.05391314 -0.102480054 -0.03644016 -0.049773335 -0.05710549 -0.0121504115 0.11875672
xp_cmdshell -0.0072586033 0.2127297 -0.20654124 -0.02784095 -0.07429287 -0.13046865 0.055106018 0.314837 -0.14837942 -0.27947572 0.16546436 -0.22303434 0.0028410978 -0.0116630765 -0.005427418 -0.037569143 0.02933995 -0.2071488 0.040166102 -0.02143846 0.06637485 0.02731037 -0.0053913943 0.08082941 -0.11593583 0.14678738 -0.14562342 0.09424037 0.059030827 0.029295757 0.057702105 -0.0125023555 -0.03958035 0.061917063 -0.14451605 0.026105352 0.05513937 -0.034422986 -0.01785597 0.011929598 0.0064194254 -0.06670837 0.1184794 0.043780115 0.028103428 0.097334616 -0.14407396 -0.05089802 0.09713222 -0.009577496 -0.12354826 0.11936176 0.10030867 0.065918006 -0.022158323 -0.004136392 -0.17133757 -0.10091377 0.026950326 0.00012467858 -0.02515669 -0.024809591 -0.00532327 0.08919419 0.02059979 0.027467534 0.053982772 0.05964756 -0.086662844 0.07755527 -0.059126526 0.10681095 0.10412998 -0.01593094 -0.023952417 0.20010811 -0.07279698 0.22065002 0.015927162 -0.25061968 -0.10549813 -0.018780896 -0.029908113 0.13978124 0.1839614 0.01091137 0.12392736 -0.009151937 0.0029245894 0.0788963 -0.06628958 0.04798008 0.015049106 0.10705025 -0.047531214 0.07332188 0.054056324 -0.008408948 0.002607189 -0.09695343 0.12952797 -0.12940112 0.06488863 -0.08472957 0.093852416 -0.15803042 0.058851402 -0.035521336 -0.054365825 -0.093215264 0.0068610874 0.0044722334 0.00079968345 -0.084739745 0.06036172 0.12211521 -0.017875856 0.003691804 0.08088416 -0.08609867 -0.028927825 0.08585818 -0.25048012 -0.1835944 -0.013951538 0.16455975 0.05134063 0.026726155 0.020828119 0.021014785 0.11442224 0.13079879 0.09439023 0.051963486 -0.016584752 0.25449008 -0.062313903 0.020887062 -0.034886714 -0.036666237 0.091525644 0.024066681 0.0069233878 0.13104095 -0.0522448 0.16599382 -0.05521971 0.040390637 -0.08330113 -0.00011511837 0.04626182 0.024182087 0.16680348 0.022022104 -0.110254124 0.027002854 -0.005892362 0.078157835 -0.11052211 -0.054303806 -0.018158663 0.13145219 -0.1503464 0.03525515 -0.08619329 -0.014721205 -0.025544727 -0.03182754 0.004585208 0.06630196 0.029196776 0.02319002 -0.041386086 -0.051578384 0.14836133 -0.14859565 -0.07141138 0.0055485805 0.0028630497 0.16916473 -0.011568013 -0.006359463 -0.06881343 -0.010401817 -0.0016772792 0.058023524 0.08244115 0.014640647 0.07969758 0.07248863 0.036185004 0.0688531 0.036566276 0.034106795 -0.067713454 0.011092962 0.025067315 -0.101745255 0.03208585 -0.051388692 0.008337506 0.040143847 0.1626064 -0.057820585 0.12353857 -0.058036964 -0.03632553 0.005924749 0.060905717 -0.009033636 -0.07918599 -0.11072988 -0.0652791 -0.07693927 -0.029407047 -0.039941452 -0.13362244 -0.04756871 -0.064750955 -0.15576215 -0.051819913 0.029183077 0.08322782 -0.057400323 -0.019033043 0.058232766 0.15345289 0.082684994 -0.08759615 0.062082108 0.0029836907 -0.2567589 0.09850937 0.14568378 -0.20433947 0.047810044 0.11553132 0.16587193 0.07363977 -0.15264788 -0.1272323 0.007680147 -0.13451858 -0.07535265 0.0149564 -0.1716905 0.14943919 0.06917775 0.061146103 0.07413455 0.071437545 -0.19037366 0.11970362 0.00020087196 -0.12109378 0.081264816 0.03695059 -0.027683858 -0.16669819 -0.15207209 -0.13698797 -0.02045309 0.24859604 -0.12970564 -0.16639549 0.07088273 0.10104585 0.08304472 -0.16498761 0.060230035 0.01154609 0.029941823 -0.044932667 -0.046227984 -0.12226128 0.072218254 -0.08030774 0.1456992 -0.038063813 -0.04397891 0.071771555 0.06586086 -0.039233673 -0.0061584376 -0.05521131 -0.017714491 -0.031122312 -0.07112261 0.009211116 0.020778546 0.09337339 -0.011438007 -0.08222198 0.02068504 -0.02486786 -0.06660674 -0.030924069 -0.030929428 -0.089971006 0.16282439
include-once 0.010120299 0.031003559 -0.019494038 -0.016647208 -0.0069028847 0.007369756 0.017761236 -0.0007583045 -0.009541199 0.010966331 0.0052267136 0.01004799 -0.004656866 -0.011182081 -0.0028780142 -0.011852931 -0.01607811 0.016919008 0.005459747 0.0101225 0.008024141 -0.008522189 -0.015067966 -0.002103589 -0.012090458 0.01676185 1.0884367e-05 0.004881528 0.0046666237 -0.0049391063 -0.016266476 -0.026439268 0.0035834191 0.00090252835 0.0026479992 0.01783682 -0.010523491 0.009214633 -0.011422746 0.0034640927 -0.0059067747 -0.008222737 -0.0033502285 0.027625294 0.014942739 0.002151799 -0.02280117 -0.008997448 -0.0010867066 -0.0064421417 -0.017829506 0.0005107939 0.024123738 0.011372845 -0.0053970795 0.0040849405 -0.001209997 -0.012225342 0.017703496 -0.016020482 -0.0011052331 0.0007634999 -0.032170225 -0.0047091977 0.004945056 0.011182326 -0.0014773688 0.0032515652 -0.015138166 0.010910574 -0.0012175738 0.025161324 0.01731113 0.0014789184 0.019116117 0.042740565 -0.006544022 0.007579936 -0.008842835 -0.02556792 -0.026023136 -0.012606653 -0.010101661 -0.011746337 0.027110517 0.007296137 0.013286535 -0.005876298 -0.0018744525 0.010727086 -0.0002893344 0.0032634968 -0.008886967 0.0053561586 -0.0025218 0.01632191 0.010134069 -0.008277944 -0.00065820117 0.010516517 -0.0012614811 -0.016949926 -0.0027949077 -0.0035776698 0.02883476 -0.009847957 0.019343777 -0.007499045 -0.029163405 -0.0035606762 -0.012343494 -0.024785725 0.01913266 -0.010680136 0.022852534 0.009130148 -0.018396351 0.014679892 -0.0013215113 0.0019863762 0.006537941 0.012916319 -0.012419639 -0.016070966 -0.011581022 0.026318524 0.024649281 -0.009337621 -0.004475263 0.022135487 0.020642238 -0.01647907 0.009369643 -0.023520123 -0.012069435 0.008118151 0.010097836 0.01812206 -0.0030983996 0.0048136804 -0.0023625286 -0.000934385 -0.017618794 0.01886412 -0.01797299 -0.004503765 -0.018740356 0.011177319 -0.014875709 -0.007025551 0.005716996 -0.0012120467 -0.016582882 0.008857032 -0.015575117 -0.0046969247 -0.013087708 0.009000966 0.0010063043 -0.002800045 0.003480854 0.020899754 -0.011619235 0.0072787716 -0.004601349 0.015731156 -0.014028606 -0.007674954 0.0078010224 -0.0072817486 -0.011755407 0.019700492 0.007942135 -0.010608339 0.017122032 -0.008112591 -0.004577595 0.012983587 -0.011968877 0.007054145 -0.012977036 -0.01360377 -0.0036069402 -0.010293899 -0.0042984886 0.0007231819 -0.006151645 0.0007191065 0.011844358 -0.008222932 0.006498947 0.029268796 0.0049073976 0.021797609 0.0059997267 0.006479005 0.0350116 -0.008986914 0.011094678 -0.00978009 0.0018190522 0.013415214 0.025105435 -0.004550685 -0.0058926987 -0.0036470026 0.011208266 -0.011357443 0.0013024175 -0.016690334 -0.0071592405 -0.021244131 0.014966344 -0.007917522 0.0053934706 0.001047946 -0.010850489 0.0055652377 0.0045500034 0.0015815974 -0.0106773935 0.010058039 -0.0030940026 -0.010733882 -0.008543451 0.010130888 -0.004675166 0.007920798 -0.0043173935 -0.017207311 -0.0040871953 -0.014911041 -0.0036437195 -0.0042965617 -0.020866778 0.013220954 0.029828958 0.016876979 0.0037777214 -0.012938915 -0.0044132946 0.0034474025 0.010769857 0.013165411 0.013884257 -0.015362572 0.0010072191 -0.011148654 -0.013679008 -0.007182181 -0.0004154639 -0.006542038 -0.005840658 0.0063190423 -0.012064217 -0.006089442 0.009126312 -0.002510406 -0.014959993 -0.00345759 -0.018476278 0.03255577 0.011594135 0.009578498 0.0049387813 0.009314589 -0.010878777 -0.02360092 0.007478844 -0.008176992 -0.005764222 0.021655755 -0.013241526 0.009164795 0.020447843 0.012167004 -0.010799178 0.010932821 -0.0055508306 -0.026104799 0.010061867 0.00916248 0.008843427 0.007284684 0.004568194 0.0009127884 -0.015445717 0.036491547 -0.004160379 -0.040217813 0.015645815 -0.0049700993 -0.026083453 -0.022773834 -0.036280137 -0.0072239805 -0.033196095 -0.028050821 -0.0073860004 0.047987595
/ -0.62437475 -1.1432911 -0.42336777 -0.12204125 0.46342614 -0.028922467 0.39242223 0.22919719 0.110719554 -0.31577402 0.42597368 -1.027245 0.2022513 -0.12100874 -0.23316333 -0.060430273 0.5325184 -0.28790185 -0.11829797 -0.2606481 0.26977465 -0.13156088 0.3709018 0.09926529 0.37372264 -0.21975078 -0.44202283 0.3642464 0.039529014 -0.24758716 -0.0042200987 0.42456943 0.10406704 -0.36480826 -0.18966936 0.4031729 0.27232233 -0.6888047 -0.32340658 0.34649044 -0.2968924 0.08821155 0.3828658 -0.63739306 0.5550952 -0.39319 -0.27429426 -0.20052408 0.12643208 0.37068993 -0.11505726 0.10146794 -0.3296657 0.43123868 -0.14741288 -0.90328145 -0.006919206 -0.5312843 0.41507834 -0.06367212 -0.14759292 -0.02843397 0.25720716 0.006329652 -0.26898685 0.270603 -0.43405694 0.27670693 -0.19322032 0.08309804 0.35083672 0.16161956 0.13908276 -0.1430222 -0.48924625 0.32304293 -0.067550205 0.23859726 0.25492087 -0.004880055 -0.5792202 -0.50431174 0.0923171 -0.7170246 0.2142034 -0.11745561 -0.1899269 -0.15392442 -0.52593744 -0.5017252 -0.36071172 0.27786446 0.045168813 -0.27099892 0.33602273 0.01976333 -0.24664529 0.21899122 -0.21489583 0.060583025 0.04527945 -0.5704351 0.23369327 0.0497209 0.41518357 -0.17395684 0.48767817 -0.38541818 0.259009 -0.10304204 0.06814875 -0.23971455 -0.139327 0.1424626 0.31557044 -0.11440556 -0.3387782 -0.055090684 0.36947933 0.06228304 -0.0741525 0.29677147 0.30291656 -0.8058797 0.26852047 0.7752061 0.3855028 0.48115155 -0.73735833 0.16243546 0.39493874 -0.0690245 -0.025336945 0.6369194 -0.1145714 -0.5663507 -0.06136782 0.386939 0.2362485 0.67780215 -0.042049333 0.6895398 -0.30912706 0.1107312 0.21779148 -0.23880824 -0.061857853 -0.24079695 -0.03277767 -0.2323299 -0.74052423 0.19335698 0.16425599 -0.08717411 0.42534095 0.0067602154 -0.18132393 0.583766 -0.08467184 -0.03918219 -0.13521351 0.22807123 -0.101680964 0.74117386 0.042792678 0.21378851 -0.44053143 -0.28069228 -0.23238093 -0.10604063 -0.13315879 -0.17977919 0.40232962 0.14794408 0.3746249 -0.4915643 -0.02293663 -0.19298498 -0.24138583 0.56087744 -0.039562073 0.0097115915 -0.4691686 0.45976707 0.21993764 -0.112943955 0.44749588 0.011382931 0.15539578 0.19811478 0.2354438 0.78771377 0.2254758 0.2588337 0.4983576 0.61557376 0.124993615 0.10586965 0.34329894 -0.25410447 0.09280617 0.14565569 0.31452465 0.024787936 -0.66724676 -0.14257658 0.17372128 -0.44552827 -0.1296469 -0.74746 0.082196034 0.3601015 0.004721622 0.147433 0.16951971 0.072084434 0.0960379 0.082980596 0.40739453 0.11815917 -0.23918533 0.08897588 -0.5780277 -0.39363316 0.23689058 0.23170051 0.30240467 0.31695917 -0.24383356 -0.3715594 0.42558804 -0.09882307 -0.36247414 0.30645144 0.040653437 0.10115839 -0.11505668 -0.8128016 -0.110497706 -0.16790135 -0.47710618 0.24719177 -0.1461856 -0.01772941 0.34478664 -0.016434139 0.23200357 -0.48595902 -0.27445474 0.0047467947 0.25440928 -0.3463198 -0.4442199 -0.16957013 0.17603888 -0.5781551 -0.4661819 -0.32600397 -0.60823894 0.3115503 -0.21164617 0.4261887 0.7582241 -0.55946356 -0.30035678 -0.47076702 -0.26096332 0.042860903 -0.2247042 0.05919405 0.43425396 0.25776166 -0.26747218 -0.11728141 0.18621147 -0.30914006 -0.1739964 0.41767836 -0.36994147 -0.50619024 -0.1355367 -0.61108315 0.06326819 0.042926677 0.4664145 -0.039142508 -0.2227931 0.09218483 0.039078403 -0.8348965 0.0285027 0.17325316 -0.061979577 -0.07389674 -0.779294 -0.18782924 -0.03128078 -0.6154371 -0.09805007 1.448891
red 0.076069534 0.108727865 -0.09923386 -0.022527747 0.0070527936 -0.054963265 0.1755129 0.15729015 -0.10609683 -0.102834925 0.082895055 -0.0758333 -0.029298529 0.06863527 -0.0058901813 -0.061833024 0.07296855 0.13801439 -0.015490784 -0.019709487 0.11620794 -0.11767837 -0.06335058 0.060319647 0.0063377586 0.023593405 -0.022146393 0.036747873 0.03148615 0.008943145 -0.09429023 -0.058924787 -0.05239641 -0.014426044 0.029990064 0.0061020134 0.00024360379 -0.026461788 -0.0548733 -0.035778172 -0.064869195 -0.051567163 0.071006894 0.10222407 0.050509464 0.032763697 -0.08447657 -0.0347188 0.022207133 -0.06371034 -0.10008458 -0.04830249 0.087168194 -0.0329049 -0.021403674 0.047018863 -0.014272769 -0.09480093 -0.053840123 -0.084953085 -0.014465263 -0.099072546 -0.22042072 -0.035414405 0.05174364 0.16030703 0.068196155 0.15723228 -0.024538767 0.05468072 -0.0092658615 0.043595165 0.07764763 0.09808009 0.089051776 0.17887126 -0.03456761 0.06913957 -0.108755775 -0.13550818 -0.10338577 0.007910171 -0.016409773 -0.112599775 0.15432787 0.053451326 0.14241768 -0.024071153 -0.073909245 0.028157616 0.06427461 -0.0024113597 -0.05223511 -0.00086670346 -0.09993745 0.08921267 0.049947884 -0.014248582 -0.02293064 0.011633718 -0.06348498 0.00715478 -0.043202136 0.016891465 0.17045622 0.025727864 0.09761481 -0.03812871 -0.05383935 0.00097303896 0.01584168 -0.010107168 -0.010280591 -0.0066985595 0.11989288 -0.009904831 -0.023184683 0.074826635 -0.03585922 0.08750751 -0.009358698 0.070059955 -0.09144177 -0.03668281 0.005577303 0.064446695 0.07092698 -0.041928608 -0.0224321 0.08854711 0.028121227 -0.08361166 -0.014642788 -0.08286418 -0.118048586 0.046240605 0.018799087 0.05938572 0.0141789075 -0.017482467 0.026575964 0.04414562 -0.023787074 0.012347597 -0.038409762 -0.014201293 -0.06307491 -0.0048235324 0.008942765 -0.070218064 -0.02308285 -0.080318585 -0.071408615 0.00055359624 -0.08366238 0.03696481 -0.046784285 0.08173829 0.030009462 -0.006761977 0.080197126 0.059621844 -0.04925393 0.0076256595 0.03030938 0.057740107 -0.037689213 -0.044099793 -0.022419542 -0.10465937 -0.082359664 0.044961028 0.047437202 -0.08208619 0.019364674 -0.046052903 -0.025753865 0.111600675 -0.04052621 -0.036461823 -0.02258855 -0.052691292 -0.064315945 -0.029848138 0.007371804 -0.018989677 0.024626227 -0.047431935 0.037207372 -0.08846217 0.022670949 0.11432902 -0.05726922 0.0774864 0.044992752 -0.016075071 0.078189194 -0.012888722 0.015886195 0.01630251 -0.024015998 0.014255391 0.07346248 -0.008636952 0.1309387 0.04923222 0.038887583 0.024868682 0.018503426 -0.007871568 0.018712204 -0.12769313 0.09127424 -0.017625494 0.022221744 -0.048952386 -0.1283558 0.030578366 -0.043066554 0.037130695 0.023077447 0.06819068 -0.001927966 -0.06774079 -0.028600443 -0.03789343 0.04254918 -0.00218065 -0.042052604 -0.043416362 0.020671375 -0.10061517 0.0003534269 -0.0069797738 -0.10660603 0.071663246 0.11197535 0.16896938 0.07415599 -0.0074367467 0.01804873 0.005647519 -0.037556987 0.123300314 0.053222295 -0.09039779 0.012290241 -0.091750994 0.00814766 -0.02842279 0.035523713 -0.04065806 -0.07790547 -0.06843249 0.03635614 -0.013171633 0.07925701 -0.08055242 -0.13307135 -0.08352004 -0.11236317 0.07521958 0.10342319 -0.05934277 -0.07026646 0.0342419 -0.014683516 -0.104241595 0.011040002 0.025111426 -0.01912781 -0.02644854 -0.11412138 0.05824733 0.006878869 0.08190936 0.01442492 -0.00081157644 -0.07263877 -0.088305235 0.018200245 -0.068600796 0.008230188 0.028127454 -0.035549317 0.059244405 -0.058417685 0.08767947 -0.028444044 -0.026458515 0.017682193 -0.02855842 -0.020684427 -0.07277485 -0.042923123 -0.016241444 -0.056088444 -0.07896233 -0.004853527 0.045898214
incl -0.032805555 0.006484094 -0.002241913 0.005533759 -0.03824701 -0.062167138 0.10234062 0.07174044 -0.044453975 -0.029532567 -0.026531871 0.014987281 -0.02104461 -0.083920956 0.011392704 -0.046920363 -0.009755231 -0.040836174 -0.007993834 0.030254954 0.036680933 0.0061105215 -0.014125777 0.003997556 -0.02094234 0.030323917 0.041522518 -0.019856747 0.10013613 0.08896788 -0.031982247 -0.041017596 -0.05827263 0.06192327 0.0373745 -0.073013954 -0.047455635 -0.037189618 -0.0024511644 0.040814362 0.0025787211 -0.02983472 0.022050217 0.052873567 -0.009146187 0.008628563 -0.05661327 -0.039652426 0.005624311 -0.028486291 -0.02776219 -0.01433834 0.116922446 -0.036912683 -0.026683645 0.029389586 -0.011332889 -0.018055493 -0.038992714 0.0026260195 -0.031815495 -0.08164797 -0.07352309 -0.06305599 0.014895204 0.04785809 -0.027236655 -0.00791211 -0.04949007 0.013400256 -0.02750972 0.043547448 0.0730978 0.016360078 0.048587397 0.09111841 -0.0028244182 0.054172043 -0.077676944 -0.14703722 -0.10105559 -0.0058436804 -0.02243722 -0.068382 0.049277004 0.015963892 0.09430725 -0.026428333 -0.044364564 -0.0040095113 0.012773468 0.039688278 -0.011188222 -0.008125408 -0.014397427 0.025230866 0.042309567 -0.043284915 -0.022043401 0.0073620672 -0.04822717 -0.038406402 0.03079312 0.0051350696 0.13587794 0.0006477193 0.026213538 -0.039094437 0.0044005965 0.026806196 0.020425677 0.02830736 -0.003743948 0.049476177 0.07632794 -0.006703702 -0.016339814 0.054143038 0.055767197 0.10873439 -0.04396143 -0.0153781315 -0.103689656 -0.043283015 0.0029152567 0.028498795 0.049431313 0.0058311652 -0.05881355 0.06210042 0.06630177 -0.027808897 -0.0066288617 -0.047949765 -0.0921373 0.01852188 -0.006732348 0.08125131 0.043538135 0.02447123 0.07518941 -0.0077187046 -0.05170152 0.028703297 -0.027403945 -0.042622395 -0.089600176 -0.025889155 0.04510757 -0.1070147 -0.011048333 0.028219007 -0.017484533 -0.027005093 -0.094186 0.06960338 -0.100011304 0.073971055 -0.0070014754 0.030552885 0.07134519 0.041572817 -0.030191578 0.046519 0.0031644416 -0.0014844448 0.013148415 -0.042539436 0.0212889 -0.054717153 -0.054727398 0.03203155 -0.040392958 -0.00071030506 0.085446484 0.0011431016 -0.052773595 0.08460975 0.022274295 -0.009355476 -0.011209426 -0.06937822 -0.0355447 0.013352643 -0.046343982 -0.011192209 0.06545221 -0.006464217 0.06970756 -0.033162624 0.06351682 0.06742642 0.0022105216 0.035578698 0.016976725 -0.05498414 0.05517901 0.026615959 -0.023323802 0.017410165 -0.01496778 0.041236263 0.009368059 0.0021745644 0.05266902 0.023312066 0.045892395 0.028269453 0.011323066 -0.035271376 0.0033551592 -0.0074247723 0.037206937 -0.0681891 -0.0043656584 -0.0060611535 -0.032106426 -0.01595637 -0.0027522657 0.0039030665 -0.018283622 0.041027714 0.0023764155 -0.06746338 -0.012494118 0.01606031 -0.00047453155 -0.042782705 -0.032773886 0.013869342 -0.03924697 -0.04304683 0.004279241 0.016100874 -0.04561046 0.053816885 0.026865343 0.032312296 0.021766307 -0.020226741 0.02634612 -0.028040282 -0.04881722 0.03091237 0.03912151 -0.033921946 0.010706785 -0.03718213 -0.029675843 -0.013895966 0.0008400561 -0.041201875 -0.04514897 0.017632615 0.016215324 -0.0059746015 0.04565676 -0.053746536 -0.07129344 -0.008977471 -0.09152282 0.007153661 0.04832693 -0.0029914803 -0.029196724 0.014461539 0.024802286 -0.035366595 -0.03036146 0.026034744 -0.0033847538 0.0032437958 0.014802395 0.033016462 -0.015240509 -0.009054371 0.0074352934 0.021566369 -0.0801796 -0.044720925 0.06264777 -0.016572816 0.0054018926 0.005430658 0.013855019 -0.002392458 -0.08502226 0.077895075 -0.02335305 -0.10562986 0.061897527 -0.0050511933 -0.06872092 -0.05654846 -0.057959978 -0.06570107 -0.08438074 -0.005065618 0.021153893 0.023578241
jsf 0.029164186 0.07043567 -0.09314354 0.01882251 -0.06429856 -0.1769524 0.29673994 0.33112633 -0.23196915 -0.2396696 0.1319866 -0.100997984 -0.0760171 0.17396647 -0.03330211 -0.122331545 0.22986741 0.16406596 -0.05393676 -0.1383029 0.24120164 -0.2144517 -0.07550307 0.1657914 0.029190598 0.02311937 -0.078753404 0.12628947 0.084454924 0.0073956503 -0.15151584 -0.031770006 -0.081181474 -0.07363913 0.0388041 -0.012635037 0.08376716 -0.13480635 -0.08266676 -0.04416275 -0.10731573 -0.08581041 0.15490602 0.11356395 0.12603852 0.013560652 -0.17914079 -0.070965886 0.07834092 -0.04827877 -0.14654912 -0.04009057 0.10389802 -0.023585007 -0.031708587 -0.01695904 -0.042974986 -0.14687866 -0.059502233 -0.09293132 -0.035052177 -0.17814693 -0.20659947 -0.065857746 -0.0119153075 0.25779054 0.07831268 0.18653025 -0.11673471 0.04994826 0.0461984 0.1224108 0.10459603 0.08772215 0.16648856 0.19314338 -0.056695107 0.19034183 -0.11042604 -0.29070485 -0.24708572 -0.00096169964 -0.094263054 -0.033456516 0.2352906 0.03122204 0.26672518 -0.05696975 -0.08037621 0.09283483 -0.010943953 0.054392096 0.032495588 0.006345155 0.1002559 0.1541979 0.057051674 -0.10239821 0.03688807 0.022217086 -0.055133957 0.006546218 0.046418898 0.06717881 0.22026935 -0.035107177 0.13830805 -0.11285778 -0.095463365 0.0058861873 -0.035963297 0.021942994 -0.01215805 -0.024396017 0.20177932 0.012268362 0.019105105 0.19663161 0.01441849 0.09912901 -0.055850692 0.14526273 -0.033244044 -0.13342817 -0.024633264 0.21524273 0.022935824 -0.003206275 -0.0672366 0.2638523 0.10982186 -0.12039441 0.077963516 -0.17760086 -0.17051913 0.10817513 -0.030204544 0.1147408 0.068973295 -0.028167399 0.13452213 0.010478861 -0.10350016 0.1256808 -0.08945146 -0.10304948 -0.22248319 -0.109030746 0.057039928 -0.1906587 -0.04645977 -0.10924233 -0.14489102 -0.07121932 -0.12874292 0.12781562 -0.20947388 0.14169127 0.034563202 -0.0033428094 0.1343342 0.049715266 -0.10812308 0.113136545 -0.026978059 0.14810236 -0.07386815 -0.082411215 -0.00034329572 -0.13454379 -0.18363859 0.15954587 0.042212334 -0.0054423073 0.1209357 0.02250619 -0.092224054 0.17882001 -0.0049811844 -0.06727243 -0.05918266 -0.05974386 -0.15670691 0.03734457 -0.13292918 -0.051085036 0.15389146 -0.073664255 0.10065558 -0.20355435 0.18794902 0.15823963 -0.07105741 0.07408298 0.0646181 -0.17615686 0.15512475 0.015617451 -0.07111013 0.016810907 -0.03202439 0.05430748 0.11822657 0.015880564 0.21372539 0.03069791 0.09659965 0.08198518 0.028302893 -0.10329828 0.02833251 -0.15391563 0.083871365 -0.10555022 0.0725421 -0.09084099 -0.20489302 -0.03927269 -0.06328434 0.001819924 0.0067311707 0.12082676 0.040444158 -0.17718333 -0.078964874 -0.05086646 0.043290835 -0.051716395 -0.06902292 -0.003962873 0.021036403 -0.20812719 0.054644194 0.016807955 -0.1615201 0.19591185 0.12855086 0.25442392 0.094131164 -0.04626211 0.08746418 -0.06133546 -0.10114583 0.16094455 0.12026156 -0.1360283 0.067816556 -0.11696301 0.02691114 0.059294175 0.094781876 -0.12708469 -0.0498296 -0.09582388 0.018459268 -0.0109450165 0.26189777 -0.13634881 -0.2636693 -0.1311301 -0.23524655 0.05308716 0.20093508 -0.18034281 -0.23080951 0.07886922 0.09329499 -0.07545399 -0.063926764 0.1420364 -0.027092332 -0.13602714 -0.08845615 0.16622575 -0.079632945 0.096614204 0.120309986 0.05320906 -0.24553682 -0.13799205 0.08803675 -0.11615902 -0.024886165 0.060575742 0.013587873 0.096041076 -0.14035149 0.17744449 -0.05876625 -0.09946355 0.08829947 -0.1044725 -0.031480376 -0.07555571 -0.09294337 -0.043421663 -0.16951156 -0.11265874 0.017544571 -0.06300208
eml 0.022093862 0.031358957 -0.030264154 -0.00029314889 -0.0047417255 -0.008774747 0.026059207 0.008246526 -0.021738198 0.007349709 0.003245037 -0.03386985 0.00026470947 0.00031680288 -0.0053161853 -0.014056818 -0.0008055507 0.028414704 0.0052847676 0.007481992 0.008633192 -0.012015074 -0.023676695 -0.00016950164 -0.008955967 0.025411941 0.0081160385 -0.0020899468 -0.0108172605 -0.0044479454 -0.016235776 -0.011272278 -0.0034900196 -0.009624843 0.0013925848 0.0018111913 -0.0014148281 -0.0029284814 -0.021402422 0.00072136195 -0.021710401 -0.02387492 0.005088011 0.02307797 0.016690703 -0.0028610653 -0.027806135 -0.012506086 0.009694605 -0.016779922 -0.0338782 -0.0068472982 0.027450358 0.01173239 -0.007879039 0.0063476865 -0.011797879 -0.03561553 0.0072364598 -0.0034996325 0.0031592608 -0.02219563 -0.0443027 -0.004362683 0.010652361 0.028995821 0.0035371685 0.019155173 -0.02992269 0.02476468 0.0028959299 0.024732731 0.0327731 0.0060556782 0.030295365 0.06352531 -0.0060377275 0.025394289 -0.016849434 -0.046937525 -0.032921765 -0.020611595 -0.009016819 -0.024041433 0.033549696 0.013796062 0.024666062 -0.010277884 -0.004049425 0.0052259834 0.004459418 0.0013573744 -0.0036045236 0.008807608 -0.017403293 0.016983101 0.011539186 -0.00051942293 -0.0019431467 0.009924931 0.0049104905 -0.012566681 0.016685557 0.0028344698 0.031950973 -0.012640179 0.033374034 -0.009944526 -0.020987298 -0.004935707 -0.007985954 -0.016631668 0.014188964 -0.010739991 0.029392213 0.018826326 -0.01982805 0.010944237 -0.006091937 -0.00043330528 0.0073397397 0.025693068 -0.0121776415 -0.031289924 -8.9509675e-05 0.047880925 0.02184821 -0.006225073 -0.0084269345 0.026650243 0.016674029 -0.005463429 0.014556407 -0.030690659 -0.03178444 0.022407802 -0.0059476723 0.0134657975 -0.011812376 -0.0062491214 0.015189016 0.014774799 -0.0134939095 0.012897389 -0.012650761 -0.012586154 -0.030692954 -0.00090695766 -0.0047018286 -0.011907734 -0.007555333 -0.017612705 -0.010839381 0.004584976 -0.01335116 0.0020622173 -0.020802865 0.014582513 0.01532797 -0.0053321477 0.015382861 0.018164607 -0.018253129 0.007121285 0.012929917 0.03462238 -0.018306501 -0.0091136005 -0.0015062158 -0.029823845 -0.027254516 0.022108523 0.010020699 -0.0263511 0.010807016 -0.013992569 -0.009748002 0.016047098 -0.004139894 0.009096861 -0.011819916 -0.008619313 -0.024350988 -0.005172969 0.014368331 -0.005440255 0.0067478027 -0.011941923 0.014425455 -0.026527936 0.018719362 0.038169403 -0.008411067 0.019602641 0.004456949 -0.0014064074 0.023464771 -0.005449894 0.0033498288 0.001638685 0.009185734 0.010542509 0.022235997 -0.008744758 0.015068257 0.00426645 0.007218582 -0.0087372605 0.006544823 -0.0074241143 0.0041076974 -0.024668176 0.028020745 -0.00839578 -0.005718299 -0.004739495 -0.023262234 0.0073401527 0.012640732 0.011228885 0.005462025 0.008175661 -0.0012818555 -0.014788561 -0.008684747 -0.003290948 0.00090748013 0.0053118607 -0.003518258 -0.019361181 -0.00846691 -0.0052562915 -0.006797725 -7.8987454e-05 -0.009274078 0.008684839 0.02787257 0.020972298 0.01036004 -0.009931308 0.009590288 -0.0006086923 0.010261395 0.028067963 0.014202656 -0.01961351 0.0018126599 -0.017051293 0.0006827215 -0.0148284305 -0.0016952398 -0.00053487875 -0.0113046365 -0.013174613 -0.0032467553 -0.0050076623 0.012544483 -0.009102222 -0.018627519 0.001645684 -0.021544082 0.02591373 0.014127816 0.008965169 -0.00031670136 0.0008804325 -0.013101444 -0.034691468 0.008620643 -0.005756709 -0.014593273 0.007871525 -0.023897998 0.02121849 0.012623166 0.0067078033 0.0031763616 -0.009700358 -0.011598307 -0.027094958 0.001431857 0.013209192 -3.6323152e-05 0.010581521 0.011185408 0.0017495935 -0.0039612665 0.029536452 -0.009566688 -0.037988074 0.022824965 -0.0170379 -0.017543096 -0.025615126 -0.034975134 -0.012784993 -0.035102364 -0.027325112 -0.0015227033 0.047213778
= -0.0319722 -0.77291906 0.5861239 0.5275904 -0.3532561 0.4975468 0.11208734 -0.28782165 -0.042854194 0.19859903 0.06890261 0.1446555 0.16300486 0.07933709 -0.067431554 -0.012473783 -0.2076249 -0.5794425 0.3110703 -0.48768932 -0.18854678 0.0815087 -0.098392494 -0.39460862 -0.2287439 0.39030853 -0.12448326 -0.45832777 -0.056694906 0.34417805 0.26150483 0.22864203 0.2722669 -0.1251354 0.008108244 -0.5387941 -0.021040905 -0.45548442 -0.086824134 -0.0043036123 -0.20195979 0.22837828 0.10784593 -0.38711518 -0.7240495 0.010744777 0.3828784 -0.19666605 -0.4012089 0.07620085 0.2124111 0.08778201 -0.5532632 -0.011505202 0.21021223 -0.099171825 -0.3313886 -0.27834845 -0.13046524 0.102971725 0.10853484 0.40434545 0.6339804 0.2036369 0.036448263 -0.44616705 0.7375761 -0.5918003 -0.2723122 0.28056002 -0.2161784 -0.15337664 -0.16746661 0.2026502 0.09038335 -0.21875302 -0.101459645 0.21970573 -0.15532233 0.20298079 0.3912489 0.20768687 -0.22270249 1.0363542 -0.07859446 0.12952143 0.29684445 0.09326915 0.05051495 -0.0682966 0.30650666 -0.28543824 0.019996878 0.4133505 0.10542637 0.039454244 -0.43718797 0.47575 0.5718789 -0.17798135 0.48532492 0.09031888 0.5052207 0.4043541 -0.2858101 -0.26365966 -0.08966678 -0.31655443 0.068797186 -0.26953605 0.19286254 0.6205178 -0.043916892 0.07404287 0.23793846 -0.08317829 0.42488754 -0.16233158 -0.124615684 -0.34763137 -0.07443398 0.75683784 -0.2884535 -0.40312183 0.21754228 0.22752199 -0.29813513 0.19370115 0.41185397 -0.21172778 -0.4244326 0.5425456 -0.06747106 0.24829377 0.66489345 0.61570317 -0.062996514 -0.74222183 -0.12821215 -0.81367224 0.16013028 -0.56778604 0.035538953 0.2113026 0.22856481 0.20951422 -0.04669814 -0.21556579 -0.19335714 -0.35610768 0.35842392 -0.19082598 0.2807211 -0.21938498 -0.0052315854 0.51691675 0.2369165 0.04253328 -0.015067016 -0.046650875 -0.08147011 -0.37530044 -0.02373575 -0.22119729 0.8061738 0.20251575 0.22922444 -0.023811394 0.01842194 0.12553327 -0.48350197 -0.35588592 -0.22699644 0.023598457 0.1064161 0.46980134 0.008182574 -0.58888334 0.7279917 -0.0067884517 0.4917554 0.48287752 0.45485234 -0.13151203 -0.07544306 -0.3591113 -0.09601966 0.10181955 0.3442173 0.4578574 -0.084128015 -0.6261773 -0.26373303 -0.27572808 -0.489417 -0.34002352 0.13952737 0.32793108 0.15998806 -0.2881456 0.44916573 0.13946013 -0.47248942 0.0073743663 -0.16480966 -0.26095206 -0.12491898 0.5231496 -0.04265038 -0.38705564 0.43600234 0.13269903 -0.18223909 0.36494166 0.18193969 0.11406781 -0.36223802 -0.3049526 -0.18194616 -0.2726356 0.0077089015 -0.3441421 0.31337875 -0.09085014 -0.028648088 0.059570033 -0.47453582 -0.14639798 -0.014039336 -0.107186206 0.31269288 -0.17194623 0.03778864 0.4693428 0.17189394 -0.19731882 -0.14164259 -0.45836487 -0.1148025 -0.08486384 0.19225533 0.28947204 -0.38185737 -0.2239725 -0.09794635 0.18476848 0.068576686 0.530302 0.24204817 1.0051643 0.41555923 -0.45050004 0.7148195 0.43752027 -0.17409658 0.42350414 -0.042808764 0.38821465 0.71696836 0.05362057 1.2022456 -0.19890212 -0.8099944 -0.10200559 0.30491734 -0.20677073 0.01505682 0.36780113 -0.24710031 -0.5371491 -0.13998477 -0.24915515 0.07800751 -0.09659351 0.061568655 -0.45756835 -0.019804161 -0.18299654 0.801624 0.14911988 -0.44109467 0.41352966 -0.42714918 -0.16666205 0.019482456 -0.22115052 0.8493537 -1.4282253 0.5017163 1.010422 -0.13524172 0.29035065 0.69466853 0.16841927 1.4491863 0.44242793 1.011677 0.1979012 0.3066324 -0.10434581
xls -0.0044914 0.06766064 -0.09319568 -0.002156391 -0.09207226 -0.13040401 0.3291516 0.32090905 -0.21574497 -0.18988109 0.1032338 -0.020430615 -0.082602896 0.10069544 -0.029045012 -0.1198819 0.21432622 0.13762279 -0.044831842 -0.11583059 0.22529402 -0.18364424 -0.062845536 0.14607856 0.010419371 0.059568696 -0.053114567 0.111168616 0.1145981 0.075009115 -0.15457982 -0.045641582 -0.09157087 -0.03966759 0.028709808 -0.056477603 0.014410821 -0.10518967 -0.081657425 -0.008625016 -0.092437506 -0.11815993 0.15321551 0.14552657 0.11014669 0.019659443 -0.22640027 -0.08593035 0.07578901 -0.061182722 -0.15872572 -0.038504153 0.17286767 -0.07224828 -0.03019251 -0.015401549 -0.049290832 -0.1332338 -0.0998201 -0.09171325 -0.06086088 -0.20372677 -0.2274211 -0.08160422 -0.026216691 0.25448182 0.054299552 0.15954752 -0.10598611 0.04135189 0.031090679 0.106675684 0.10165381 0.0818987 0.15539205 0.17069164 -0.037236314 0.18250167 -0.1257905 -0.29324588 -0.25593364 -0.00013553559 -0.07100048 -0.09303731 0.23791407 0.044119224 0.26455835 -0.07360044 -0.0730391 0.072093606 -0.0025320617 0.061238304 0.02273972 -0.00477162 0.06939222 0.14335988 0.07698186 -0.10802102 0.010197242 0.030189794 -0.07246901 -0.024549138 0.039474376 0.04658954 0.24181403 -0.03896454 0.13531707 -0.096427284 -0.0931696 0.0025047217 -0.0048384992 0.03143635 -0.0042516957 -0.03361346 0.18963753 -0.0075869653 0.00669872 0.19321777 0.032254837 0.102263935 -0.04384017 0.09543107 -0.07641277 -0.12223902 -0.015143126 0.16642651 0.051106535 0.0069634514 -0.08032557 0.21932249 0.11004114 -0.11528898 0.094617404 -0.17234427 -0.19345467 0.11603127 -0.025046827 0.120946 0.054862753 -0.03366063 0.14228891 0.021372953 -0.120204724 0.12687662 -0.095999554 -0.109315105 -0.23149489 -0.093421884 0.062525935 -0.19604155 -0.06904896 -0.066691056 -0.11063491 -0.069599606 -0.14557594 0.09378566 -0.21718779 0.13437095 0.028359957 -0.010688466 0.15543234 0.06892471 -0.10692237 0.108379655 -0.028181657 0.14698759 -0.061357133 -0.08747379 0.011979439 -0.13314599 -0.17827328 0.17356683 0.010544361 0.010032681 0.13559265 0.028784448 -0.097953506 0.19241999 -0.015689416 -0.0539793 -0.05858297 -0.08709637 -0.15515383 0.058637153 -0.1659534 -0.0329909 0.15366617 -0.081947476 0.1107387 -0.18988846 0.2056559 0.17085394 -0.0692232 0.10481173 0.062084746 -0.20161238 0.15449004 0.017479366 -0.05574798 0.018390262 -0.01428403 0.06055873 0.12536786 0.007970268 0.21168739 0.025076674 0.11094811 0.06707338 0.03720121 -0.108845435 0.023225665 -0.14638095 0.082520716 -0.14180093 0.06459344 -0.06637102 -0.19571435 -0.042735867 -0.04928635 0.0012490574 -0.017017592 0.13192011 0.048460547 -0.16922402 -0.053062208 -0.017307851 0.012077953 -0.056191623 -0.05906202 -0.0071998257 0.0037762048 -0.19505237 0.057920914 0.027578305 -0.17075208 0.21484816 0.12046874 0.22536412 0.095450796 -0.05785065 0.08855701 -0.0705192 -0.10062469 0.15130006 0.14628217 -0.14108807 0.06082497 -0.10319517 0.015739726 0.04695862 0.08705121 -0.12203371 -0.058126204 -0.06547916 0.008321629 -0.003215463 0.23487483 -0.13260883 -0.24097458 -0.115122825 -0.24255921 0.05496156 0.18209583 -0.12503329 -0.19126245 0.084654786 0.076193 -0.084896296 -0.042159427 0.110537596 -0.029793281 -0.09185164 -0.043916598 0.1680276 -0.06095118 0.097615965 0.106792025 0.04012816 -0.241209 -0.13775326 0.09192629 -0.11900123 -0.0013560407 0.05494647 0.016930478 0.08190924 -0.14701143 0.18098901 -0.07009982 -0.17195599 0.08337606 -0.08339852 -0.067828484 -0.08854285 -0.08164836 -0.036581613 -0.19944431 -0.086811125 0.013825059 -0.053197883
java 0.009010641 0.09906808 -0.19792217 0.04138752 -0.05160859 -0.18466453 0.46633285 0.62984633 -0.35335964 -0.56006384 0.24977878 -0.1956291 -0.15664606 0.29776984 0.005880663 -0.2044847 0.50511646 0.31387827 -0.060075995 -0.14152068 0.5149033 -0.28708553 -0.13782899 0.2990943 0.18408762 -0.03283887 -0.18944028 0.33590177 0.18134582 0.06506469 -0.26556227 -0.20856073 -0.23297144 0.13408285 0.13238244 0.07106918 0.08252487 -0.119867496 -0.16772975 -0.00828366 -0.20704086 -0.084471844 0.2699301 0.38797188 0.06386263 0.046322104 -0.14825787 -0.047327433 -0.08009541 -0.07303637 -0.11072071 -0.08856053 0.2894554 -0.20528191 -0.08529473 0.13286605 0.024021965 -0.09725319 -0.2530743 -0.26286113 -0.16525164 -0.29444766 -0.52322835 -0.19881523 0.15631802 0.34428003 0.09336514 0.3768169 0.020058395 0.0468036 0.04950552 0.16125883 0.24430259 0.34854427 0.21552703 0.4003805 -0.061626535 0.21373022 -0.28496513 -0.27232173 -0.37711623 0.13989222 -0.025139533 -0.3091214 0.4049237 0.17657018 0.42510164 -0.046885945 -0.26998636 0.048449982 0.11358372 0.059679892 -0.090456955 -0.0884944 -0.058941048 0.28630605 0.15084839 -0.087361164 -0.092461504 0.020334557 -0.3453807 0.102633126 -0.06836454 0.037096158 0.5158482 0.15314142 0.2817104 -0.12954772 -0.094566874 -0.004872102 0.01586898 -0.041746624 -0.102919586 0.07196613 0.2849013 -0.09829335 -0.047764733 0.27190143 0.032504696 0.32118782 0.0044916603 0.14364971 -0.10564394 -0.057671394 0.0395458 0.2168335 0.14351317 -0.08659436 -0.22249933 0.40138027 0.14544599 -0.3229145 -0.11775612 -0.2216525 -0.28417644 -0.0857624 0.057610456 0.31816682 0.21523453 -0.02612306 0.026728652 0.10200724 -0.07504793 0.1164796 -0.12171594 -0.056191966 -0.23487708 -0.07335931 0.020959428 -0.21953385 -0.07611361 -0.15081704 -0.2459201 -0.08687852 -0.14890139 0.18129349 -0.22150679 0.26340416 0.07443833 0.074532725 0.19117731 0.080312744 -0.18702774 0.16609943 0.030960618 0.10123383 -0.1304997 -0.10007714 0.031609178 -0.17276399 -0.18626936 0.22478613 0.17233351 -0.08659381 0.119986586 -0.03833782 -0.04248896 0.2254479 -0.100697406 -0.16158935 -0.13706146 -0.10532383 -0.13054271 -0.05662385 -0.10744961 -0.07731521 -0.0006452185 -0.110162616 0.14082666 -0.2549703 0.06865165 0.23661362 -0.061912183 0.14966384 0.18908696 -0.08036558 0.21521923 0.054590654 0.0028871335 0.057740796 -0.09164284 0.15274496 0.15831731 -0.059231836 0.4698446 0.22097363 0.166199 0.14692868 -0.018766673 -0.13102783 0.005162521 -0.30666375 0.30001372 -0.027754618 0.25655392 -0.087329835 -0.450278 0.12731764 -0.18275468 0.023644814 0.0447289 0.2492617 0.00994772 -0.20214878 -0.0037426264 -0.10634216 0.14804758 -0.14373648 -0.20662278 -0.08364114 0.104866065 -0.35960776 -0.010449591 -0.03765565 -0.29471767 0.30256104 0.18852735 0.46068528 0.21193361 0.08085505 0.10733936 0.008477659 -0.18139794 0.31281582 0.14126357 -0.22483413 -0.061206702 -0.3470513 -0.07837072 0.0018429684 0.13500662 -0.064396344 -0.30596268 -0.13191271 0.1396024 -0.0884279 0.2690233 -0.20623347 -0.4226295 -0.1659183 -0.27995268 0.1885575 0.26323152 -0.20582439 -0.24965012 0.10782047 0.020839501 -0.34425855 -0.008253338 0.024598459 0.025201388 -0.09037289 -0.27271008 0.10363554 0.04510025 0.18665455 0.10784036 0.08801246 -0.29860893 -0.19460087 0.03775487 -0.27727962 0.009727223 0.018102475 -0.049140356 0.2593915 -0.20958048 0.20615771 0.052086208 0.07761209 0.019659048 -0.040919047 0.0031282315 -0.19992621 0.0982501 0.09216795 -0.12241308 -0.30722207 0.06412008 -0.012699936
cgi -0.3043192 -0.17334308 -0.29768854 0.17381576 -0.001633662 -0.41171777 0.0034717522 0.4805816 -0.41976395 -0.15305875 0.15835235 0.13323577 -0.15712577 0.19608353 0.009228639 -0.0818652 0.35234243 -0.07772513 -0.0450816 -0.18453191 0.4641928 -0.3273782 0.12570193 0.20646876 0.15727092 -0.18946657 -0.35070717 0.33719847 0.24679404 -0.0014663211 -0.10840072 0.056351442 0.028498918 0.08854564 -0.15378106 0.28870368 0.19525237 -0.45147574 -0.28870332 -0.028578 0.02948418 -0.12648825 0.43307683 0.016692372 0.32017565 0.252135 -0.3909714 -0.3628275 0.046553146 -0.025731547 -0.10160451 0.13081706 -0.19561954 0.20838097 -0.06283318 -0.36010107 0.0070331986 -0.32185322 0.17083463 -0.09983615 -0.23546696 0.16050805 -0.14494954 -0.17346647 -0.2122084 0.26193056 -0.06403995 0.16287158 -0.16403352 0.03480906 0.056792274 0.04543616 -0.159743 0.08453759 -0.064755596 -0.052061107 -0.18142027 0.22476788 -0.10031014 -0.03883743 -0.29552013 -0.05109759 -0.06433763 0.03705998 0.17444377 0.111211 0.09844728 -0.12598084 -0.007169943 0.14932977 -0.26569232 0.007362185 0.045983434 0.06544253 0.2568501 0.24517141 0.06106273 0.0034727093 0.11515755 0.20543146 0.0976365 -0.28134546 0.11311682 0.059435807 0.24493675 -0.21424538 0.3366956 -0.09845114 -0.063592084 0.050951444 -0.05163035 -0.038383033 -0.28428072 0.19188225 0.3518359 0.094367504 -0.18589295 0.17018247 -0.16805467 0.22981185 -0.04883017 0.47441337 -0.15133698 -0.3853893 -0.045109093 0.7150435 0.20177351 -0.029830959 -0.26031432 0.4086452 0.21109127 -0.23743026 -0.056349117 -0.26494372 -0.09859257 0.05259248 0.038120918 0.34068033 -0.008909592 0.18703781 0.12553932 0.15186617 -0.36152887 0.2090344 -0.06532339 -0.031959537 -0.1285669 -0.2659964 0.1650797 -0.07493102 -0.30930948 -0.16580857 -0.2658022 0.045495167 -0.11439589 0.17379229 -0.28889516 0.09703573 0.03559493 -0.043606445 0.01362838 0.03191093 -0.01914864 0.23991105 -0.32024676 0.5193024 -0.3376295 -0.005001488 0.034471404 -0.06587155 -0.17600569 0.20826064 0.15888244 -0.13302253 0.13750745 -0.22620188 0.010025375 0.36690584 0.054556627 -0.119388625 -0.2415337 -0.11781151 -0.35071263 -0.1394174 -0.08966325 -0.2164682 0.19077042 -0.0716874 0.024157664 -0.3123662 0.12284133 0.2006959 -0.018960198 0.15937614 -0.07768272 0.07839188 0.27221423 -0.10279208 -0.26908514 0.12104188 -0.24411117 0.16655263 0.1962897 0.08328196 0.0014087087 -0.14066572 0.13064305 -0.041939832 -0.041561123 -0.1374313 0.012681025 -0.14894202 0.23369925 0.029957308 0.11288882 -0.38690066 -0.1811134 0.094261035 -0.14734137 0.20486687 0.17468634 0.230298 -0.20097223 -0.25009856 -0.15526043 0.18302183 0.045794133 -0.05477093 -0.14681344 0.013236696 0.21836749 -0.2816045 -0.09877145 0.10429245 -0.32497004 0.44079792 0.12756854 0.3578445 -0.034152616 -0.18665513 -0.08886715 0.08200179 0.0021128228 0.07777665 0.11882023 -0.2927653 0.09265869 -0.14676797 0.003085872 -0.056551203 0.30667174 -0.1287035 0.03244342 -0.2179868 -0.07799751 -0.0630782 0.33009857 -0.3950927 -0.3141754 -0.18819164 -0.5341918 0.14930762 0.36753002 -0.4258257 -0.25214478 0.100062035 0.1368724 -0.021378843 0.13999358 0.028934622 0.029518886 -0.26121184 -0.16779959 0.201594 0.07721323 0.23458767 0.21191953 0.056944925 -0.5579322 -0.17949799 0.028176576 -0.29245532 0.07241881 -0.06419948 -0.03929382 0.048134748 -0.1952629 0.33864114 -0.27402526 -0.45223424 0.2208316 -0.034117457 0.0043536057 -0.32188177 -0.4917911 -0.17579186 -0.2747074 -0.018888459 0.05864073 0.01890322
0-pl1 0.030500721 0.05835046 -0.040214676 -0.018493077 -0.013820184 -0.021583205 0.05351726 0.037205193 -0.041754346 -0.022784002 0.032077413 -0.033972472 -0.022322712 0.00507795 -0.00586262 -0.021610413 0.008690222 0.023718389 -0.014077586 0.0253295 0.03365718 -0.036258806 -0.02652237 0.032719053 -0.006826514 0.012962598 -0.008572498 0.016281707 0.017884826 0.011023307 -0.035370678 -0.037870277 -0.0030477901 0.010852616 0.0036222904 -0.0017354138 0.023120578 -0.015165175 -0.033034764 0.0018013988 -0.03725111 -0.03560155 0.037183043 0.04215161 0.033759672 0.013926948 -0.044903606 -0.02715943 0.024241408 -0.02753834 -0.03974099 -0.0075552873 0.06329274 0.0025732513 -0.0096415505 0.011160167 -0.00901595 -0.043115333 -0.020086484 -0.033258103 -0.019334517 -0.047894143 -0.09169497 -0.0076157143 0.024280671 0.044024553 0.0113134105 0.023634791 -0.023210313 0.030150363 0.0064664762 0.016306104 0.03458718 0.033591244 0.042723265 0.07189944 -0.009716159 0.03290466 -0.035792902 -0.06479615 -0.053316474 -0.019256296 -0.012324171 -0.042058155 0.05592546 0.023634737 0.051735964 -0.012822406 -0.036180068 0.019629732 0.023777476 0.012302175 -0.03487657 -0.022640241 -0.037021182 0.026809266 0.018624578 -0.0133067025 -0.016359055 0.01831661 -0.029970169 -0.02190776 -0.003519298 0.00043079111 0.082355976 0.005789338 0.04338285 -0.020834407 -0.024139388 -0.001814918 -0.015412269 -0.009798595 0.008061326 0.00418612 0.053399414 -0.024153009 -0.03716676 0.025595786 -0.0026997277 0.03705131 -0.0001426994 0.019071858 -0.039380565 -0.021876717 -0.007657959 0.04523423 0.03310414 -0.003936331 -0.037110966 0.044305127 0.021278836 -0.040353112 -0.0016889193 -0.022421496 -0.042719245 -0.012827609 0.0043472154 0.037094258 0.0125848325 0.025862765 -0.0051110643 0.032576196 -0.022591425 0.028181642 -0.015345418 -0.01637757 -0.023681486 -0.013924063 0.0027490319 -0.035099596 -0.021442872 -0.023071004 -0.021133758 -0.012264906 -0.019042013 0.017699268 -0.046876196 0.037108354 0.006856337 0.00096068636 0.024589902 0.022975966 -0.02881664 0.026132284 -0.0075436663 0.031736914 -0.039049532 -0.0133286705 -0.012602305 -0.028368447 -0.03724237 0.037746694 0.02819019 -0.047172755 0.033368066 -0.020007325 -0.01970189 0.035341 -0.01272235 -0.0019543173 -0.016277278 -0.026578873 -0.03524568 0.008871661 0.012036513 -0.022589961 0.02506935 -0.010513939 0.014299625 -0.053992484 0.040878188 0.06518845 0.012632687 0.030193849 0.016165748 0.0020122968 0.052648317 0.010226579 -0.0011725544 -0.015560215 -0.016247436 0.035750985 0.030576231 -0.003643244 0.03213425 0.012597427 0.021832595 -0.0071965447 0.01758701 -0.025288226 -0.009471311 -0.042063676 0.049505033 -0.0010562467 0.00998459 -0.022199227 -0.037298948 0.017318537 0.0020368965 0.006928607 -0.016615257 0.012787278 0.00027526508 -0.024120457 0.002693532 0.017141202 0.0033780255 0.0060656597 -0.012837936 -0.024118481 -0.005724175 -0.024659151 0.0016726021 2.734772e-05 -0.021356214 0.018310659 0.03322842 0.028629191 0.010528729 -0.019297812 -0.012879621 0.00653125 0.008202241 0.008322039 0.0062269773 -0.031210173 0.0052910564 -0.036775067 -0.012623899 -0.02104281 0.004681949 -0.015039621 -0.035352163 0.0014782521 0.003522145 -0.01974992 0.0229601 -0.018411431 -0.061641496 0.0025602959 -0.033989795 0.02858629 0.028145624 -0.00314249 -0.011372611 0.00318583 -0.01947823 -0.057348147 0.012067122 0.017227693 0.009316592 0.0073803226 -0.04272213 0.023885231 -0.002417555 0.0050380155 -0.00035043794 0.013883106 -0.018043103 -0.03735429 0.003012692 0.00906641 0.016491126 0.01670911 0.014377419 -0.005484353 -0.02416868 0.05424974 -0.011575499 -0.05316181 0.027845243 -0.022097133 -0.05101615 -0.061723158 -0.105422206 -0.030728832 -0.035964247 -0.050871383 -0.015113947 0.100288235
insert 0.010221639 0.08484589 -0.054714337 0.019694738 -0.08361784 -0.10720264 0.18092221 0.15503445 -0.14450802 -0.092327006 0.013637056 0.0047895648 -0.013969638 -0.08864472 0.0016797248 -0.07914645 0.037435077 -0.076506115 -0.0013866813 -0.030113759 0.067356646 -0.034737665 -0.0089983875 0.012568474 -0.033365015 0.06357998 0.026565328 0.00061612844 0.065456405 0.07003712 -0.03545538 -0.032970153 -0.031571254 -0.0046688356 0.023592342 -0.060742073 -0.032913394 -0.046992384 -0.031442735 0.025404368 -0.013162004 -0.1115148 0.073961675 0.07153731 0.033868123 0.04534248 -0.14259145 -0.08469576 0.08397162 -0.00348483 -0.107709125 0.045158274 0.16116704 0.016243296 -0.02232616 0.010711015 -0.074691 -0.0725575 -0.042959277 0.010546482 -0.024111476 -0.084745616 -0.060284678 -0.0037826994 -0.06696835 0.13377586 0.026164107 0.033785935 -0.09907695 0.010136806 0.007096491 0.08920194 0.069062814 0.0011569643 0.09855608 0.11912572 -0.007881225 0.15602091 -0.06288392 -0.24009022 -0.17341991 -0.04683823 -0.033120558 -0.03196859 0.119926594 0.008976276 0.16426286 -0.05130991 -0.01051304 0.032012653 -0.004375961 0.035821233 0.011860437 0.043186013 -0.003216112 0.0793199 0.070921965 -0.07008872 -0.024934525 0.020895526 -0.020623032 -0.12488073 0.08299355 0.0038227043 0.21395001 -0.091806196 0.086533956 -0.06887967 -0.033366468 -0.020423207 0.02759998 0.047429558 0.009142156 0.01218121 0.13836707 -0.0050710198 -0.005448579 0.09130217 0.041414134 0.082232326 -0.06148022 0.047269937 -0.20335785 -0.16916826 0.017751455 0.11946265 0.0352646 0.042696856 -0.07468762 0.07131858 0.07963217 -0.0043276073 0.012586208 -0.058269456 -0.13222194 0.1060045 -0.013786994 0.081497125 0.04196915 0.01368777 0.07820746 0.03182211 -0.05811176 0.085644186 -0.042755336 -0.0020646933 -0.090370215 -0.015185588 0.025209863 -0.11038153 0.003381637 0.037582565 0.033546045 -0.020987924 -0.13377415 0.07579935 -0.12250704 0.13512766 -0.023230923 -0.013781554 0.072029434 0.06342222 -0.086982176 0.053966332 -0.02836772 0.06497713 -0.041115664 -0.064469635 0.049726006 -0.0451174 -0.11902352 0.077670015 -0.03286371 -0.019153574 0.14080216 -0.01827539 -0.09677155 0.0908649 0.037417572 0.04783147 -0.025429897 -0.0486672 -0.06175269 -0.00018345012 -0.07781028 -0.009323174 0.10818992 -0.048513383 0.119120464 -0.09131971 0.14653787 0.101598464 -0.017218813 0.06620781 -0.014458545 -0.1256955 0.05245173 0.024809001 -0.04433837 -0.011087737 -0.0057742265 0.074279375 0.04685953 0.017993659 0.096091144 0.006528904 0.03422108 0.011351386 0.055001758 -0.05068429 -0.0041945176 -0.05774759 0.06945782 -0.10267805 -0.0073602973 -0.0637973 -0.07450851 -0.019345202 -0.01013904 -0.04481974 -0.053238925 0.046415314 0.021928523 -0.09121018 0.008258824 0.046160728 0.016762959 -0.004735934 -0.05517319 0.015742471 -0.044110384 -0.10037544 0.04718073 0.049074907 -0.08732799 0.07099416 0.046431374 0.056139957 0.046748552 -0.10225378 0.016428256 -0.046373803 -0.05078566 -0.00074256025 0.057572152 -0.1143483 0.076356284 -0.006270893 0.006898483 0.031948984 0.03847168 -0.1420136 0.025759349 0.013350356 -0.07370603 0.01716024 0.09660664 -0.067470595 -0.14063121 -0.033743776 -0.11213964 0.049227346 0.106045015 -0.02011799 -0.062328126 0.093483515 0.068947814 0.01770775 -0.084961265 0.051574837 0.029484265 0.03491205 0.06669569 0.06399371 -0.025094384 0.043359973 0.014755118 0.10467745 -0.115701154 -0.1092745 0.09435606 -0.020807588 -0.019308489 0.028093403 0.048010033 0.00015324299 -0.09586152 0.058958597 -0.032808058 -0.12835124 0.069512084 -0.02177062 -0.07216089 -0.084445335 -0.06296573 -0.038890913 -0.0972733 -0.054310936 0.041056212 0.006827476
class -0.2490092 0.019993274 -0.05699692 -0.03238391 -0.21352057 -0.26027262 0.50612664 0.5131977 -0.31311178 -0.3727696 0.044587772 0.14044115 -0.16165757 -0.06219955 -0.062439963 -0.1143139 0.15575369 -0.061627597 -0.16025658 -0.18673639 0.28270474 -0.14497223 -0.112785384 0.1953135 0.013897099 0.05888438 -0.184305 0.14232315 0.27227807 0.2685344 -0.22326194 -0.025809746 -0.16372432 0.062011603 -0.013804845 0.009082149 -0.11346665 -0.24012922 -0.07257486 0.031181304 -0.03256239 -0.13964608 0.21572249 0.20749003 0.23088646 0.14326058 -0.40591887 -0.19909832 0.14230105 -0.043946937 -0.079137124 -0.024643905 0.39861888 -0.10589279 -0.032433834 0.013842331 -0.10457383 -0.026949948 -0.21050909 -0.05986595 -0.24197033 -0.29352692 -0.23022144 -0.18245235 -0.12219747 0.2644018 -0.00072365673 -0.068024166 -0.24588758 0.009009566 0.008216117 0.26772684 0.15156643 0.09429553 0.29909053 0.163256 -0.0679562 0.2912154 -0.2593473 -0.5620196 -0.4141739 0.020287719 -0.19556732 0.0024103168 0.23843127 0.10908805 0.5071076 -0.13004938 -0.12799552 0.17640732 -0.01179637 0.20015849 0.12125419 -0.05490685 0.35143915 0.16853705 0.15734814 -0.32274702 0.0014904516 0.09068316 -0.115848355 -0.090817995 0.10178317 0.02592161 0.46203077 -0.028757505 0.21661568 -0.2258771 -0.24984564 0.12113555 -0.08956863 0.083343096 0.14723663 0.04059185 0.32837918 -0.012307662 -0.0072128205 0.36658204 0.12251364 0.20070675 -0.059190653 0.09942418 -0.13662168 -0.2227277 -0.19289985 0.26445544 0.17852575 -0.037508957 -0.18687113 0.46424678 0.383947 -0.18421198 0.24815296 -0.2892439 -0.1743743 0.20219576 -0.11966452 0.33457896 0.09750094 -0.04470711 0.42725247 -0.09152886 -0.32695416 0.3122696 -0.17767978 -0.14311565 -0.5785343 -0.26447162 0.13665988 -0.5312818 -0.14782543 -0.108579464 -0.22690804 -0.22938289 -0.37590295 0.37159845 -0.54679936 0.27935076 -0.0756281 0.13806662 0.3490397 0.11229748 -0.25910732 0.302126 0.05438732 0.26269493 -0.089200854 -0.22468776 0.034025334 -0.18275046 -0.34659675 0.23648837 -0.07620695 0.08790138 0.38394204 0.07555817 -0.2300088 0.38708988 0.07699054 -0.08879291 -0.114762515 -0.267015 -0.3158239 0.06877944 -0.36236036 -0.13919704 0.39291582 -0.054007806 0.28263706 -0.23638122 0.3878734 0.31486842 -0.038818642 0.16620621 0.10951516 -0.34051734 0.32241714 0.012579496 -0.08691314 0.03901447 -0.053754143 0.1606261 0.16059788 0.05586094 0.32603025 -0.026623407 0.23549102 0.17028718 0.08986751 -0.15953831 -0.09587341 -0.17189774 0.117081605 -0.3160175 0.09920899 -0.081939615 -0.25795472 -0.12279983 -0.15902756 0.013746184 -0.042252146 0.3090248 0.035420503 -0.35076818 -0.03932476 0.09215293 0.043231178 -0.21014789 -0.2250738 0.06810717 -0.072376795 -0.41241005 0.15284921 0.13051334 -0.35212606 0.41804597 0.20627107 0.41357246 0.12506212 -0.16297561 0.112376265 -0.15938503 -0.22982876 0.1379366 0.22871266 -0.2854462 0.06540371 -0.14930275 -0.10874717 0.04999348 0.07472351 -0.2983772 -0.124574855 -0.045751516 0.0908144 0.028339392 0.42385602 -0.28140643 -0.45212406 -0.21200822 -0.58318496 0.02784331 0.34082273 -0.23141159 -0.33303002 0.17064668 0.21323553 -0.14003512 -0.170381 0.22516964 -0.028517418 -0.05737932 0.031813066 0.1669978 -0.19359718 0.11340506 0.15461783 0.23203364 -0.56274956 -0.2250218 0.2662413 -0.15755087 0.01618695 0.05558078 0.010681895 0.116292685 -0.43225968 0.33453888 -0.14314285 -0.33975562 0.21253489 -0.023433983 -0.17415966 -0.18701799 -0.15375562 -0.19140038 -0.4042758 -0.062075812 0.08198351 -0.05249273
create 0.6226636 0.26453486 -0.4721311 0.041584335 0.5560404 -0.8971926 -0.43012282 0.6161088 -1.0531313 -0.54204726 0.54672694 -1.1488578 0.16219959 0.60949785 -0.04625704 0.37438452 0.29284817 0.64525974 -0.08912275 -0.2642185 -0.49276662 -0.42484277 0.07266853 -0.2758831 -0.14737637 0.30077213 0.11432453 -0.09496026 -0.6204719 0.030149505 0.30652174 -0.18137322 0.08501834 -0.5040762 -0.19366387 -0.4098371 -0.15930994 1.0148693 -0.49518132 -0.1153626 0.0012417145 -0.17977957 0.041810397 0.20652117 0.07216526 0.01516928 0.30608177 -0.0043837363 -0.10300177 0.09833652 -0.5073602 0.21507514 -0.05298938 0.2349559 -0.10784897 -0.124932535 -0.5997579 -0.5914684 0.349567 -0.23958935 0.4295286 -0.07394996 -0.38717332 1.060709 0.11922021 0.09776874 0.9947375 0.57819265 0.27747425 0.32306188 0.054106742 -0.5650506 -0.2560512 0.18935992 -0.38703635 0.52595073 -0.37318954 0.009327141 0.2668444 0.022896253 0.24012971 -0.2385594 0.591058 -0.8748632 0.41957733 0.046026815 -0.04167666 0.32610023 0.08200284 0.028742632 0.36308697 -0.044154692 -0.5520244 0.31001002 -1.4456629 -0.17749494 -0.32693282 0.7576247 -0.21514833 -0.32993153 0.21899518 -0.4374721 -0.6725785 -0.4704367 -0.27848387 -0.16535798 0.039879743 0.41870087 0.43913275 -0.20764072 0.42256072 0.19694425 -0.20992115 -0.5038548 -0.10895158 -0.085999034 0.051757656 -0.5009439 -0.39097336 -0.32212496 0.07212852 0.57805794 -0.31872582 -0.48933232 0.63110167 0.36774257 -0.12799594 0.13772723 0.37602848 -0.5153658 -0.8553584 0.36156604 0.11624762 0.522968 -0.43658608 0.5994601 -0.50155103 -1.1282319 -0.37088344 0.28538775 -0.48302191 0.60116434 0.48058122 -0.2054553 0.24394073 0.16359693 1.2890586 0.5134105 -0.91244954 0.7145988 0.37257528 -0.018716557 0.6369352 0.61163133 0.5202632 -1.0018896 0.7340003 0.065484725 0.21910128 -0.98212093 0.055693015 0.05863483 -0.072661325 -0.455559 -0.12592965 0.29328394 -0.4787592 0.0019305467 -0.22116032 -0.34642696 -0.00844815 0.062444326 0.1336247 -0.74591005 -0.21563701 -0.018476842 -0.12234818 -0.2578061 -0.28065506 0.5963147 0.25459504 0.5938152 0.06514416 0.2804548 0.48990634 0.007350715 -0.011847685 -0.62703216 -0.47507057 -0.50216186 0.68213445 -0.060641732 -0.07908749 0.1318498 -0.16360381 0.074606374 -0.18944958 -0.5076611 -0.15435664 -0.21646816 0.30668828 -0.22355 -0.11935753 0.07047313 0.4863023 0.12418895 -0.5964481 -0.028069787 0.3031706 0.025368107 0.6338319 -0.36546493 -0.14781253 0.37903723 -0.46794754 -1.0407151 -0.49422076 -0.07845893 -0.0087380055 -0.1377418 -0.3577927 -0.9308891 0.439271 0.028297711 -0.33899072 -0.31356657 0.20559095 0.64664644 0.60491955 0.09600439 -0.020162541 0.24816477 0.18429516 0.012751585 0.4220581 -0.57525486 0.38958877 0.043830633 0.054734614 -0.31220838 -0.51025605 0.067618035 0.3342715 -0.13871162 -0.5594931 -0.028522583 0.87464345 0.3491974 0.9918859 -0.0143852085 0.2597853 -0.31115332 0.51730907 0.14378972 -0.6858254 -0.037064847 0.09329137 0.38588864 0.76621306 0.016974889 0.8795803 0.41040668 -0.09751405 0.19396105 -0.1637862 0.17136203 -0.3612374 0.21032876 -0.49194688 -0.053678162 0.11731271 0.08761973 -0.010571424 0.20058428 -0.19873948 -0.1566196 -0.18562359 -0.12028443 1.0692288 -0.16818143 0.18673119 0.2664793 -0.21514487 0.12085805 0.26177248 -0.19170396 0.51339793 -0.5978434 -0.11100472 0.60264874 -0.19245459 -0.33555177 -0.031532597 0.32030186 -0.51247615 -0.036609087 0.48169544 -0.44415766 -0.33110932 0.41054332
applet 0.15041031 0.2700184 -0.14825106 -0.15152831 0.019117577 -0.08302108 0.32774383 0.15058123 0.00081507553 -0.09777251 0.12706897 -0.31871042 -0.012567358 0.10338616 -0.03849809 -0.08767674 0.12434512 0.13944021 -0.0224556 -0.092276625 0.104237586 -0.10924325 -0.14513256 0.16474716 -0.005933479 0.011141965 -0.0045157047 0.102137014 -0.029775117 -0.14770478 -0.06848781 0.015722616 -0.037466317 0.01931343 0.018409733 0.023525674 0.30819744 -0.1326419 -0.051844716 0.11761726 -0.13986655 -0.022355031 0.09395532 -0.020838577 0.1492488 -0.08743436 0.025592512 -0.000111535075 0.17766945 -0.037085235 -0.1277936 -0.023644537 0.0030253914 0.07311418 -0.028561424 0.032233182 0.046543982 -0.09580273 0.1965563 0.035477735 0.101691395 -0.031999502 0.034649163 -0.042411774 0.015117308 0.22661085 0.03786608 0.22524765 -0.0706901 0.11016845 0.04039439 0.039366856 0.23910819 0.073359996 0.124775894 0.30834866 -0.04265057 0.097710244 -0.18200256 -0.19284669 -0.12171222 -0.081550926 0.03390021 -0.11830472 0.20227651 0.09611344 0.14387542 0.016166879 -0.030647866 -0.032114286 0.16615191 0.013122688 -0.042175803 -0.066960685 -0.11873229 -0.037827425 0.114001624 -0.081953995 -0.057352785 -0.0018093894 -0.037829556 0.12473342 0.058333345 0.017787283 0.17784688 0.13056505 0.075154446 -0.018322418 -0.17817616 0.0148267895 -0.028366411 -0.010847117 0.13402113 -0.004723285 0.09353117 -0.1145928 -0.092285216 0.05396334 0.038740143 0.038789097 0.012248173 -0.12144323 -0.13281836 0.104034305 -0.00064246624 -0.123790294 0.15508638 -0.020353284 -0.063455075 -0.08501012 -0.000116224015 -0.08961337 -0.10303637 0.046581894 -0.055669144 -0.025771685 0.13877015 0.12797606 0.11165157 -0.011950032 -0.09319207 0.055899896 0.08338819 -0.03262059 -0.019692907 0.013014865 -0.039427716 0.07362612 0.035173737 -0.12928948 -0.06464481 0.010034918 -0.05174477 -0.04375155 -0.10130207 -0.020585246 -0.10210004 0.18343528 -0.005945711 0.046978794 0.09205229 0.14251083 -0.040862873 -0.011818817 0.08542246 -0.12910531 0.037437353 -0.0976393 -0.028328346 -0.054554634 -0.07143395 -0.0016216472 -0.024576273 -0.13160042 0.13119239 -0.079887874 -0.026052013 0.06859146 -0.00725314 0.06703803 0.11519178 -0.12119727 -0.039493218 -0.008051503 0.00074721954 -0.009972361 0.03217642 -0.040857516 0.11691652 -0.057412706 -0.015848652 0.25204533 -0.083775684 0.07020044 0.037953023 -0.06705984 0.07547857 -0.017402438 0.18964304 -0.032293804 0.022253832 0.038460564 0.017926259 -0.10940688 0.050137635 0.08417104 0.064347856 -0.00011600506 0.024956165 0.054249182 -0.011973758 -0.051490948 0.08442109 -0.04040348 -0.023114381 0.034534506 -0.07556728 -0.041234143 -0.012958815 -0.018292282 -0.08717729 -0.011147059 0.060112707 -0.09896226 -0.10248643 -0.012218113 -0.051728908 0.036993954 -0.031138938 -0.019036742 0.053921297 -0.18945734 -0.0070188288 0.04729709 -0.076204285 -0.09695536 0.12046517 -0.04460878 0.043718226 0.013925171 -0.10052145 0.00095110707 -0.017374592 0.123502694 0.063449666 0.005962949 0.015311947 -0.040504526 -0.08857915 -0.10638888 -0.070421144 -0.09580581 -0.13742848 0.10752165 0.09013997 -0.07293157 0.012548903 -0.07521883 -0.25825524 -0.07834647 -0.06814354 0.058070783 0.13338514 -0.042691458 0.05126963 0.012080697 0.020016218 -0.09216043 -0.025818754 0.030703204 -0.014554511 0.055785153 -0.13689236 -0.0776813 -0.047297183 -0.0072934376 -0.12443444 0.034828354 0.0245453 -0.109704696 -0.061481465 0.013282754 0.037886348 0.0935106 0.026312439 -0.057307743 -0.018582322 0.20137282 0.017434716 -0.23740025 0.048218433 -0.010272261 -0.15772171 -0.13626017 -0.123754494 -0.12984136 -0.038673762 -0.10829684 -0.048449676 0.3144915
hexstring 0.8722642 0.9072848 0.18246616 0.090979844 0.26048374 -0.70023185 -0.23028372 0.06359031 0.13431081 -1.6418097 0.7663218 -0.18783204 -0.19709362 -0.16533756 0.10630396 0.046742447 -0.63975996 -0.9176143 0.45020682 0.18844979 -0.76146406 0.016990542 -0.08729165 -0.43709376 0.44560286 -0.6662515 -0.12804987 -0.7732484 -0.69124013 -0.42720625 0.39239278 0.39014646 0.13585353 0.2372803 0.8340289 -0.030448392 0.029069975 -0.05290552 0.25925785 -0.38044053 0.42790282 0.6195846 -0.5114874 -0.3980961 -0.8791897 0.34866315 1.816833 0.16411933 0.09004079 0.18728164 -0.1718633 -0.17751782 -0.9860347 0.9192569 0.5373892 0.6578318 -0.09431921 -0.068917535 -0.15516767 0.8640464 0.37404206 1.3091877 1.8362721 0.3739102 -0.12052014 -0.2973642 1.4069799 -1.0510587 -0.18761984 -0.055135854 -0.45101497 -0.07713424 -0.38363358 0.6540994 1.0966644 -0.66809064 0.10311719 -0.1263862 -0.85666203 0.3738355 1.2197981 0.5511325 -0.5853901 2.1590998 -0.6981078 0.70642424 0.7602996 0.17375408 0.48477697 0.32199052 0.8784637 -1.0014913 0.12814428 0.55890435 -0.0052271765 -0.17444693 0.16162157 0.1438954 0.6272623 0.17844458 0.052540656 0.32805145 0.5912097 0.25000367 0.119825214 -0.23972897 0.4407941 -0.9653996 -0.07643707 -0.36920178 -0.021219293 0.8417963 0.078459226 0.3371076 0.5506929 -0.7000137 0.26473895 0.05071523 -1.4701004 -0.6949822 -0.19410479 1.5452815 0.47528815 -0.529661 -0.07376312 0.61674345 -0.69203675 -0.3398338 0.95158654 0.8342016 0.14066502 0.8733336 -0.49805462 -0.40102002 0.9520979 0.7852748 -0.089113876 -0.59421045 -0.6628333 -1.3831943 0.39086804 -1.0491875 0.2072778 0.040387128 0.5352383 0.35399058 -0.8797064 -0.5672378 0.5752875 -0.7391853 0.62557775 -1.1397523 -0.35311198 -0.39945382 -1.0059973 1.9733044 0.21385169 -0.042519033 -0.06413673 0.96122503 0.25619277 -0.4959719 -0.2517554 -0.6893208 1.1364146 0.06561697 0.4140531 0.28697276 0.2342553 0.2616976 -1.0472724 -0.5305852 -0.12087817 -0.1040064 -0.27938777 0.893259 0.20477411 -0.6583067 0.6874562 -0.45022914 0.8978598 0.28228247 0.46770197 -0.6639166 0.18387526 -0.2566698 -0.42613816 0.43190303 0.20194827 0.48323533 -0.7917435 -0.83716416 -0.37254933 -0.67397124 -0.40816715 -0.2256154 0.5234457 -0.10308737 -0.0637329 -0.43747175 0.014013887 0.3089101 -1.1425697 0.10892187 0.7297212 0.05107124 -0.30302787 0.9183419 0.61234766 0.55789745 0.72969157 -0.27400473 0.17705518 0.3461099 0.5706878 -0.3079353 -0.83113116 -0.09901361 -1.5665656 -0.46242926 0.44809866 0.26018554 -0.09863834 -0.11599704 0.6704006 -0.3250792 -0.41043264 -0.7269576 -0.3534129 -0.1877608 0.2286135 -0.5465528 0.5673588 0.11985673 -0.69019645 -0.46119317 0.084646925 1.2787954 0.510669 -0.27640945 0.29288808 -0.116180986 -0.02177573 -0.23696372 -0.26057288 -0.807454 0.3925613 0.6534506 0.63695914 1.5113875 0.23420168 -1.3199531 1.2117759 0.1950514 -0.05091401 0.9893781 0.4419482 -0.21679021 0.43471426 -0.62730515 0.81587154 -0.43594036 -0.71518505 -0.6388699 0.16161509 0.18641023 0.10860031 0.665113 -0.5683101 -0.47851223 -0.44234842 -0.08171146 -0.16595729 -0.25524437 -0.1358681 -0.19235307 0.032366503 -0.18981071 0.6958787 -0.26993823 -0.5869853 0.53640616 -0.7328115 0.0036268868 -0.45167646 0.42086118 0.75183517 -1.654765 0.49994084 1.6751447 -0.89645296 0.6485702 1.1039606 -0.15778884 1.1493835 0.17668834 1.7641531 0.7911491 0.6132838 -0.8411017
tpl -0.08575589 0.0630154 -0.03814069 0.009314041 -0.16294235 -0.2362576 0.41743004 0.4583379 -0.34973282 -0.32842466 0.08542602 -0.0011090944 -0.13931105 0.0553724 0.013094012 -0.16463727 0.23666425 0.01358574 -0.08408363 -0.12978403 0.28272575 -0.19041471 -0.09099191 0.1853789 0.036017697 0.03648342 -0.062302254 0.1124986 0.24485405 0.21046205 -0.2126912 -0.08032858 -0.1662645 0.014435161 0.08795462 -0.09321399 -0.026210727 -0.20485958 -0.055182777 -0.019936204 -0.11810488 -0.12628691 0.20987959 0.19314343 0.16038255 0.04150103 -0.3167452 -0.1329616 0.13987043 -0.0710182 -0.15409695 -0.04177871 0.31943986 -0.06759846 -0.008916979 0.012792392 -0.08955723 -0.12802546 -0.19130959 -0.0854578 -0.15360613 -0.2962249 -0.2628538 -0.15633622 -0.058239933 0.32187733 0.06650622 0.07724833 -0.2067914 0.033962928 0.0030984804 0.23926488 0.16476664 0.108594626 0.29999512 0.2833116 -0.028727666 0.2565893 -0.21130471 -0.5474485 -0.3962384 0.013324282 -0.18290055 -0.036471985 0.27125543 0.055377092 0.43122378 -0.08662653 -0.14863376 0.13415313 0.0050451653 0.13747627 0.063957766 -0.02443653 0.21980816 0.18062876 0.103431106 -0.22408223 0.0146956695 0.051941518 -0.14803714 -0.028356824 0.08374258 0.076313205 0.41770983 -0.02126727 0.21010971 -0.2224877 -0.13697311 0.06428778 -0.053019658 0.061216116 0.05267328 0.028422073 0.31715024 -0.011648353 0.012894027 0.3177769 0.0934942 0.22384302 -0.13073465 0.13152118 -0.11274146 -0.22740713 -0.11078925 0.2599209 0.089410745 0.0015928992 -0.16248985 0.4111484 0.2933718 -0.16164173 0.14737505 -0.23827106 -0.23064354 0.12528254 -0.060873367 0.25987124 0.13142008 -0.019992573 0.2957943 -0.048062865 -0.22655816 0.18283927 -0.17983481 -0.16275544 -0.45500502 -0.16168377 0.091627486 -0.40727887 -0.061007965 -0.090450026 -0.2039803 -0.14246169 -0.27435285 0.2987269 -0.40319228 0.25134972 -0.009794404 0.093124844 0.22696084 0.08052165 -0.18388718 0.24086669 0.024005007 0.16469818 -0.058706142 -0.17778729 0.03865756 -0.19531213 -0.30485633 0.20985529 -0.018257651 0.06962966 0.27554256 0.042152043 -0.19905551 0.30006033 0.047950253 -0.085293606 -0.09775212 -0.17618565 -0.22740181 0.08085738 -0.29285538 -0.059788622 0.2868482 -0.08017193 0.24367434 -0.23401737 0.30348864 0.26273498 -0.060602915 0.11583717 0.1333821 -0.33499625 0.28263035 0.058856722 -0.073963046 0.013442786 -0.05297136 0.12084254 0.17556258 0.04007385 0.2942562 0.039545495 0.16406788 0.16051203 0.042791307 -0.1626929 -0.053053536 -0.16445667 0.108947046 -0.24668185 0.12871753 -0.051508587 -0.29353315 -0.093101576 -0.12358858 0.014840362 -0.036274254 0.25905898 0.023117576 -0.3009236 -0.0601661 -0.025412114 0.013150448 -0.18091099 -0.17490971 0.021555284 -0.031566758 -0.3413696 0.106654555 0.08205725 -0.2913292 0.34378225 0.17460485 0.3536918 0.12636292 -0.089443296 0.154364 -0.14262837 -0.20433164 0.17758496 0.20244646 -0.19789568 0.060966358 -0.15969402 -0.09761781 0.110602796 0.07200633 -0.2229111 -0.1348219 -0.06526424 0.058087666 0.015214269 0.3461408 -0.25196347 -0.39726853 -0.1555349 -0.42041543 0.073777124 0.2692652 -0.25594568 -0.32956034 0.13002461 0.19950461 -0.09929763 -0.10846846 0.22896196 -0.0011216631 -0.09654496 0.004332794 0.1688267 -0.11374904 0.12456274 0.15107952 0.12593712 -0.45585093 -0.21171883 0.21548228 -0.19112901 -0.03970153 0.08515611 0.0063537643 0.139177 -0.3287781 0.2690906 -0.08579435 -0.24978812 0.122001044 -0.08514501 -0.11580921 -0.12100333 -0.12961374 -0.11165721 -0.31276762 -0.09367953 0.0544677 -0.12847337
page 0.023881508 0.04922234 -0.030634494 -0.021028956 -0.01940462 0.006889708 0.067336366 0.026367994 -0.039210003 0.0040954044 0.013705872 -0.00012565419 -0.014985066 -0.0006848152 -0.021961637 -0.05333338 0.013323038 0.042529155 0.0070111407 0.0031612178 0.0389823 -0.052739207 -0.040558662 0.014310563 -0.004727306 0.023927137 -0.00085112546 0.005090614 0.01325351 0.00013185535 -0.052070413 -0.023687152 -0.01727358 -0.026535926 0.01779545 -0.0011610088 -0.015566722 -0.020410705 -0.027835684 -0.017567774 -0.032191716 -0.044769265 0.023958832 0.046249893 0.026547797 0.0045154407 -0.06988323 -0.02750562 0.010834237 -0.02008323 -0.05595519 -0.010156142 0.059665393 0.009843983 -0.006728647 0.00015556846 -0.010769638 -0.054313082 -0.031969756 -0.024355147 -0.007996106 -0.05925342 -0.09842007 -0.017120743 -0.001880474 0.08382271 0.039233744 0.0475109 -0.042642474 0.031113403 0.0082652625 0.045401156 0.030899761 0.020742169 0.07025679 0.08683433 -0.011467468 0.04727296 -0.035691798 -0.09424845 -0.07258474 -0.02157017 -0.035172913 -0.03492976 0.067374244 0.0137149915 0.06701162 -0.026996247 -0.027718958 0.025247049 0.02124111 -0.00061792793 -0.010980915 0.0073684035 -0.010780218 0.04543327 0.013726931 -0.01989079 -0.0019366164 0.022357155 -0.020067606 -0.024376357 0.0046140635 0.022058567 0.09223583 -0.02191123 0.05258429 -0.035944507 -0.046008497 0.0014133028 -0.012655255 -0.019871501 0.019133622 -0.004663894 0.074796624 0.00078494725 -0.013707275 0.05603564 -0.00576047 0.0322036 -0.017659994 0.037186287 -0.035143282 -0.03881072 -0.01089929 0.053904872 0.024694668 -0.0031200177 -0.019034076 0.04305968 0.022298364 -0.04075447 0.017461633 -0.050502673 -0.042176526 0.021070434 0.011284673 0.032433953 0.0099755945 0.0029173847 0.0015766302 0.011900769 -0.03817021 0.03618689 -0.041736707 -0.017706005 -0.045618646 0.00772012 -0.013798521 -0.042946115 -0.0021541084 -0.019075766 -0.041688956 0.0037535005 -0.034478303 0.022348596 -0.03603459 0.040110853 0.012724375 -0.0052667875 0.018408686 0.024627246 -0.021547498 0.023836043 -0.0025723632 0.02755396 -0.03668151 -0.018600944 0.007040547 -0.043455537 -0.04155938 0.041088775 0.020974841 -0.02417603 0.026182605 -0.021282434 -0.03331274 0.05328434 -0.01103743 -0.013193153 -0.026331365 -0.01930661 -0.02819593 -0.010037553 -0.01646882 -0.0071326224 0.027266828 -0.021389313 0.033467557 -0.03949531 0.046462122 0.059626445 -0.020004414 0.049172025 0.026220478 -0.024236469 0.061851405 0.001600667 -0.010227999 -0.00302618 -0.011160212 0.017598677 0.061112937 0.00851795 0.022476746 0.0030095035 0.021357032 0.0018650753 0.015094717 -0.037456777 0.004026161 -0.05008994 0.041599125 -0.025285902 0.013959805 -0.016784715 -0.039126024 -0.0035209188 -0.001509757 0.013143484 -0.0029895192 0.039186023 -0.0048395074 -0.043035217 -0.014920059 0.0025702876 -0.0019300851 0.006317463 -0.019769948 -0.028417245 -0.010642351 -0.041668583 0.0073464783 -0.0049892045 -0.05505439 0.048449922 0.05720249 0.06648091 0.018272629 -0.02476942 0.017415836 -0.012301851 -0.0046837563 0.041456137 0.035143793 -0.04473663 0.015923573 -0.044942442 -0.0147458585 0.0054078614 0.008849536 -0.028033702 -0.037338354 -0.020255387 -0.007281222 -0.016197091 0.03598341 -0.022113312 -0.070514135 -0.0120484205 -0.066328615 0.048690576 0.042828154 -0.0067818845 -0.03132034 0.020403767 0.0064997687 -0.040668663 0.015737282 0.0387021 0.0047655404 -0.0055608917 -0.029976608 0.037947316 0.016330104 0.025203295 0.013369912 0.011374181 -0.051675726 -0.058331486 0.028501915 -0.022521025 -0.0010383812 0.026377454 0.004083526 0.009867266 -0.039386824 0.06400152 -0.03159792 -0.06889328 0.023781404 -0.034635764 -0.023455292 -0.049420174 -0.06989301 -0.021945463 -0.056181125 -0.047370706 -0.0049187415 0.043172505
svn 0.06727995 0.017684279 -0.03169156 0.08245709 -0.09951071 -0.20346461 0.47843313 0.4486864 -0.82785845 -0.4418359 0.122847065 -0.17809623 -0.16524553 0.57564974 0.09177747 -0.34411263 0.67404944 0.4596826 -0.058997907 -0.4520791 0.62683755 -0.46128508 -0.16448902 0.27120754 0.27479237 -0.03263298 -0.13918662 0.3283766 0.2336961 0.19670735 -0.5440141 -0.073124126 -0.44028112 -0.32824758 0.21585168 -0.09734036 -0.25093353 -0.20451993 -0.010390872 -0.33591202 -0.2028158 -0.029927406 0.11368909 0.45011315 0.3050594 0.003627264 -0.50062716 -0.14813966 0.10964503 -0.21846728 -0.45412523 -0.27771774 0.22274397 -0.09034093 0.060346033 0.003496298 -0.1799856 -0.3948967 -0.42316297 -0.27914962 -0.18186012 -0.27236322 -0.60899043 -0.3532625 -0.010544178 0.6233235 0.29817352 0.5225701 -0.06405829 0.01912216 0.072412565 0.53794545 0.0026403773 0.12782219 0.24012324 0.35627243 -0.14644483 0.19160807 -0.20909853 -0.6496984 -0.3953397 0.14984386 -0.18202153 -0.0068477085 0.5662644 0.09808651 0.58303005 -0.031902466 -0.23364876 0.41175276 -0.019291503 0.107148014 0.086629465 0.055874355 0.3475775 0.5063046 0.086690664 -0.23077789 0.28234008 0.1715088 -0.23540106 0.24841571 -0.09006492 0.1649937 0.5030515 0.026192637 0.3643661 -0.35568064 -0.29787126 0.06828058 0.07349122 -0.07251124 -0.15888013 -0.13186385 0.60375553 0.032066375 0.12383718 0.44849983 -0.23133932 0.51893264 -0.13596474 0.32599086 0.10562609 -0.10010188 -0.114647664 0.24839136 0.10301459 -0.20668465 0.070503704 0.53699076 0.17942645 -0.5646485 -0.09204704 -0.2994513 -0.16596559 -0.09064535 0.18463345 0.51148844 0.3243552 0.036151733 0.0021154147 -0.005588841 -0.14565648 0.08640692 -0.40378892 -0.012933688 -0.43927982 0.040210668 0.02579802 -0.2191644 0.0032123441 -0.21820545 -0.66351646 0.07875166 -0.27016285 0.10058747 -0.17800346 0.2756829 0.10499337 0.005065185 0.028481029 0.1110673 -0.048927687 0.13718702 -0.1702343 0.21339896 -0.14508292 -0.17382768 0.13805516 -0.36270905 -0.34320492 0.38778964 0.11782793 0.096704036 0.08946347 -0.019551363 -0.10420454 0.55204993 -0.1421358 -0.36572686 -0.11191443 -0.19843237 -0.29942352 -0.056265377 -0.4984756 -0.082319506 0.11246989 -0.22502789 0.17643905 -0.39066008 0.20828758 0.37548903 -0.22452351 0.18578514 0.14361109 -0.4188521 0.48420846 -0.12796566 -0.10492437 0.07737922 0.016581362 0.080373354 0.39733103 -0.09275605 0.38466057 -0.065222755 0.28800863 0.23623379 -0.12691236 -0.17956637 0.19706191 -0.5241847 0.19097753 -0.29301175 0.5403465 -0.30217424 -0.61370033 -0.16333242 -0.46925613 0.0075855604 0.13630016 0.43689975 -0.06997741 -0.47242337 -0.36036333 -0.21463151 0.01920535 -0.09400835 -0.20357291 -0.042919148 0.22042575 -0.701689 0.19499627 -0.1508833 -0.59023356 0.58526284 0.43627977 0.84023213 0.22345495 0.07812557 0.23881966 -0.1519376 -0.13259225 0.69882137 0.42541337 -0.19826844 0.07448304 -0.27308246 -0.09723679 0.26959813 0.2954072 -0.2070905 -0.19194995 -0.44591016 0.271596 -0.021392398 0.46419865 -0.29624605 -0.43168262 -0.27956286 -0.7365231 0.24993521 0.23708776 -0.28641516 -0.41173595 0.2315358 0.19799188 -0.26417875 0.26548073 0.18836887 -0.18548161 -0.41515848 -0.37832853 0.18600251 -0.0365675 0.34806672 0.3677751 0.026729377 -0.6623292 -0.3834355 0.1942877 -0.5346836 -0.24105328 0.1530562 -0.09092559 0.6770501 -0.41408372 0.50115913 -0.07204652 -0.35610995 -0.008696762 -0.29156193 0.25204307 -0.18540506 -0.028170442 -0.04381376 -0.34170672 -0.19097723 0.21604647 -0.6498615
sub -0.022983667 0.04948857 -0.082626015 0.02438044 -0.067780524 -0.10514062 0.26636204 0.1887442 -0.045400735 -0.08970173 0.010393118 0.023224683 -0.01751509 -0.18582311 -0.022990564 -0.07242939 -0.047917817 -0.09881202 -0.028385853 0.0027313966 0.103687696 -0.009039105 0.030542701 0.0064497115 -0.011890546 0.072205216 0.04564061 -0.038962156 0.101064816 0.11505476 -0.05022817 0.016086737 -0.014130197 0.0046182605 0.009798969 -0.0532172 -0.10324215 -0.075903475 -0.0012743791 0.034682542 0.011944904 -0.13569914 0.06492529 0.034981705 0.033502154 0.076377586 -0.15332635 -0.109734535 0.1162635 -0.007958745 -0.052202486 0.031656455 0.10997441 0.026670605 -0.04542008 -0.03523432 -0.054165356 -0.10808009 -0.06564969 -0.021454476 -0.052094202 -0.10092443 -0.10918684 -0.068800725 -0.070814654 0.1464108 0.0024103818 -0.011008957 -0.13001229 -0.0031622953 -0.013524602 0.08895223 0.07047794 0.04140612 0.12517881 0.07239905 -0.00016402239 0.18572055 -0.09927087 -0.23232403 -0.16167426 -0.023647659 -0.10447918 -0.011959878 0.07548938 -0.005468982 0.15691668 -0.08576043 -0.037192468 0.0102886325 -0.016220976 0.03955283 0.034234177 0.045225985 0.0633202 0.06816117 0.03485882 -0.07012827 -0.050936572 0.004483801 -0.026908629 -0.09896962 0.120933786 0.07120419 0.20715775 -0.114074156 0.08666248 -0.113999374 -0.028479302 -0.02980575 0.0034940399 0.029464237 0.037828047 0.02273928 0.15894979 0.0051523526 -0.017178454 0.149857 0.06718487 0.090385355 -0.07217611 0.1012657 -0.115300834 -0.21142271 -0.032828994 0.18654081 0.027774012 0.071572974 -0.07203095 0.15996629 0.10846878 0.021711508 0.073849425 -0.08925886 -0.16696359 0.12827776 -0.051313236 0.10371524 0.04294064 -0.025858808 0.15442371 -0.024909353 -0.09411251 0.065759495 -0.06682703 -0.09667888 -0.14194298 -0.07569808 0.031080568 -0.17753594 -0.03801921 0.033973802 0.0133013455 -0.060484596 -0.15590885 0.10948423 -0.15666229 0.12402874 -0.009764536 0.032035902 0.13753423 0.03524689 -0.07770397 0.09232228 0.033850797 0.10920305 -0.00809207 -0.09267749 0.02425914 -0.09271858 -0.1774745 0.10146005 -0.04002716 0.020463599 0.1595932 0.027009156 -0.1273367 0.14386399 0.05572648 -0.032633625 -0.038751177 -0.042978648 -0.11696968 0.009943608 -0.1284841 -0.0065855454 0.16921015 -0.048996303 0.14341918 -0.0839031 0.13551375 0.067050286 -0.08135352 0.07807156 0.037505984 -0.14134885 0.04994741 0.02387626 -0.041221965 -0.0026704723 -0.0099503575 0.03711904 0.10186236 0.043154232 0.04798069 -0.034246575 0.06786713 0.052503843 0.07430636 -0.12513013 -0.0033852083 -0.041868296 0.018182743 -0.12622696 -0.059450056 0.040028248 -0.087126076 -0.040863987 0.0409802 0.028879344 -0.016507763 0.10311709 0.028684514 -0.122656964 0.0024253386 0.071365505 -0.0003237245 -0.04023112 -0.067995965 -1.5038928e-05 -0.059416197 -0.09469526 0.041979868 0.08983034 -0.09857311 0.15414254 0.042990196 0.09230279 0.057844702 -0.107154585 0.035514876 -0.020726295 -0.11138739 -0.014767901 0.10889429 -0.16254757 0.07677626 -0.04140666 0.029799977 0.061228734 0.06394574 -0.15262233 -0.0045425217 -0.07869511 0.0026156593 0.031383924 0.13612194 -0.10288348 -0.1804511 -0.08266023 -0.24648277 -0.008042737 0.17913002 -0.060320035 -0.15439184 0.034854867 0.09805476 -0.022086881 -0.00836621 0.14307876 0.033246644 -0.10154177 0.019264229 0.09510877 -0.10723606 0.057032276 0.07289921 0.07053986 -0.23072058 -0.11231729 0.113434836 -0.06165215 0.00017912457 0.02530476 0.0039061867 -0.023057744 -0.120791055 0.03833279 -0.10102002 -0.1155098 0.07265222 -0.058178585 -0.080894865 -0.0725058 -0.10762112 -0.051370513 -0.1262398 0.010963584 0.013617561 0.010321197
bat 0.032896493 0.17166407 -0.18032232 0.0329034 -0.12428137 -0.20793673 0.35252774 0.30291688 -0.24240613 -0.118565924 0.09651327 0.0015226251 -0.10880042 0.09282283 -0.075593084 -0.06861266 0.11735427 0.13043517 -0.103164114 -0.076869614 0.16596195 -0.25450942 -0.15006736 0.15500565 -0.004928023 -0.0060846037 -0.11967628 0.13645183 0.048473645 -0.06726526 -0.10741083 0.041199274 0.032143828 -0.050727613 -0.02398146 0.09615676 0.35665894 -0.3135604 -0.21551836 -0.06699209 -0.1486537 -0.14315604 0.3201613 0.019415913 0.26917392 0.078371644 -0.28894588 -0.11893226 0.15581428 -0.05934845 -0.13186046 0.04135503 0.114368856 0.03638777 0.03750934 -0.06470104 0.024961928 -0.13761534 -0.016871616 0.015110343 -0.06598837 -0.17827721 -0.076509446 -0.085535295 -0.16652218 0.33620042 0.11652744 0.1885699 -0.16621673 0.061126664 0.015544637 0.06409856 -0.01596513 0.18083297 0.25180653 0.10801858 -0.052702446 0.16823688 -0.1505776 -0.28997156 -0.23849379 0.058175735 -0.104637824 -0.02989923 0.17352901 0.089433715 0.28743824 -0.016612211 -0.0780759 0.1276892 -0.01672582 0.11633287 -0.0007976882 -0.061474483 0.08837682 0.050901104 0.069886796 -0.129313 -0.008750836 0.059988607 -0.11854924 -0.10242264 -0.03697432 -0.06462566 0.26677254 0.031726368 0.19562747 -0.11476389 -0.120111935 0.11084899 -0.050596353 0.0327882 0.014208194 0.064741395 0.1901805 -0.01615989 -0.04722448 0.23807335 -0.02157452 0.083050124 -0.10777184 0.17465551 -0.16325405 -0.136936 -0.073411904 0.10845113 0.15174073 -0.035713747 -0.16368823 0.1242701 0.17386237 -0.15862116 0.09101597 -0.13117993 -0.0709001 0.08409173 0.00042439485 0.17510502 0.015001499 0.0626175 0.16058294 0.04192699 -0.21017659 0.1142591 -0.05433465 -0.04664701 -0.13284434 -0.11952197 0.015045496 -0.19455314 -0.13966945 -0.11334999 -0.15442243 -0.02421219 -0.2018571 0.18550225 -0.273597 0.13984494 -0.0008022727 0.047293875 0.10038437 0.011707461 -0.047036912 0.19506797 -0.026082655 0.18851241 -0.07622054 -0.11635115 -0.019230556 -0.1328555 -0.17035767 0.092173755 0.020315748 -0.07428499 0.15791097 -0.11126922 -0.07780976 0.23957708 -0.00011177741 -0.022767037 -0.0330945 -0.13310796 -0.17598455 -0.0037527396 -0.17350972 -0.028973145 0.1790273 -0.098510124 0.100993715 -0.2166934 0.17713419 0.22248049 -0.04563834 0.1095736 0.13004106 -0.18837795 0.23884997 -0.026607586 -0.059472166 0.0630777 -0.12545234 0.042807877 0.14257851 0.04545553 0.2339977 0.030301949 0.10257804 0.10388154 0.059315007 -0.031953234 -0.09600933 -0.10681829 0.114243 -0.11212337 0.018995395 -0.10251645 -0.21479827 -0.030445794 -0.058255594 0.09313689 0.04790161 0.15880741 -0.009600794 -0.19134945 -0.098148815 -0.06342221 0.051068626 -0.14309186 -0.10745923 0.08174994 0.020282894 -0.24481821 0.032210875 0.09587293 -0.19895944 0.234644 0.12197595 0.30798057 0.11847649 -0.05407519 0.07162844 -0.103775255 -0.15027049 0.16576211 0.10688771 -0.14300331 0.058419585 -0.17974302 -0.04744436 -0.041006785 0.05653009 -0.05903646 -0.11312188 -0.09308093 0.070671536 0.0036512027 0.23647204 -0.2670115 -0.35625476 -0.15028538 -0.35074428 0.105032206 0.23477742 -0.25742254 -0.21758679 0.08760439 0.15986037 -0.067785345 -0.026545301 0.17966305 0.05721773 -0.1388183 -0.05027294 0.118914016 -0.10669033 0.14530136 0.07592581 0.02701426 -0.29049233 -0.0835322 0.08681319 -0.17333694 0.08865922 0.03193698 -0.06289201 0.011444375 -0.15141518 0.203652 -0.10516997 -0.16517214 0.025982799 -0.050457366 -0.03651342 -0.11595534 -0.12834856 -0.07975603 -0.10965949 -0.067384325 -0.028731318 -0.03319823
